tree
version=v4
num_class=1
num_tree_per_iteration=1
label_index=0
max_feature_idx=123
objective=binary sigmoid:1
feature_names=Column_0 Column_1 Column_2 Column_3 Column_4 Column_5 Column_6 Column_7 Column_8 Column_9 Column_10 Column_11 Column_12 Column_13 Column_14 Column_15 Column_16 Column_17 Column_18 Column_19 Column_20 Column_21 Column_22 Column_23 Column_24 Column_25 Column_26 Column_27 Column_28 Column_29 Column_30 Column_31 Column_32 Column_33 Column_34 Column_35 Column_36 Column_37 Column_38 Column_39 Column_40 Column_41 Column_42 Column_43 Column_44 Column_45 Column_46 Column_47 Column_48 Column_49 Column_50 Column_51 Column_52 Column_53 Column_54 Column_55 Column_56 Column_57 Column_58 Column_59 Column_60 Column_61 Column_62 Column_63 Column_64 Column_65 Column_66 Column_67 Column_68 Column_69 Column_70 Column_71 Column_72 Column_73 Column_74 Column_75 Column_76 Column_77 Column_78 Column_79 Column_80 Column_81 Column_82 Column_83 Column_84 Column_85 Column_86 Column_87 Column_88 Column_89 Column_90 Column_91 Column_92 Column_93 Column_94 Column_95 Column_96 Column_97 Column_98 Column_99 Column_100 Column_101 Column_102 Column_103 Column_104 Column_105 Column_106 Column_107 Column_108 Column_109 Column_110 Column_111 Column_112 Column_113 Column_114 Column_115 Column_116 Column_117 Column_118 Column_119 Column_120 Column_121 Column_122 Column_123
feature_infos=[-1.0011404686595842:1.0003146120440232] [0:1] [0:2] [0:1] [-1:0] [0:14] [-1.3494895739786905:3.6150000000000002] [-0.86982456140350872:3.5478863826232248] [-1.2885956175298805:3.5363545816733066] [-0.91836734693877553:3.5204081632653059] [-6:1] [-1.75:0] [-2:0] [-1:4] [-1:4] [-0.99480087902663883:2.8760250844187172] [-1.3001788416563489:1.1107442564314212] [-4.7898193760262728:0.9020251778872469] [-3.5165920102385959:0.82347563762683973] [-1.5288871655680496:1.2617293524621946] [-9:82] none [-1:0] [0:1] [-1:0] [0:1] [0:1] [-0.83333333333333337:0.66666666666666663] [-1:4] [-1:1] [-1:1] [-1:0.5] [-3:2.75] [0:1] [0:1] [0:1] [0:1] [0:1] [0:1] [-0.7857142857142857:0.5714285714285714] [-0.49142979809330889:0.45669484005555161] [-2.0926801981886247:1.0687383655302265] [-2.438697162363086:1.635833386140892] [-0.087599999999999997:0.91239999999999999] [-0.076300000000000007:0.92369999999999997] [-1963.2000000002163:36.800000000003998] [-0.75519999999999998:0.24480000000000002] [-0.021100000000000001:0.97889999999999999] [0:1] [-0.13789999999999999:0.86209999999999998] [-0.16669999999999999:0.83330000000000004] [-0.20830000000000001:0.79169999999999996] [-0.048099999999999997:0.95189999999999997] [-0.075600000000000001:0.9244] [-0.074499999999999997:0.92549999999999999] [0:1] [-0.0035999999999999999:0.99639999999999995] [-0.086400000000000005:0.91359999999999997] [-0.075800000000000006:0.92420000000000002] [-1963.2000000002163:36.800000000003998] [-0.75849999999999995:0.24150000000000005] [-0.020799999999999999:0.97919999999999996] [0:1] [-0.13789999999999999:0.86209999999999998] [-0.16669999999999999:0.83330000000000004] [-0.20830000000000001:0.79169999999999996] [-0.0487:0.95130000000000003] [-0.076100000000000001:0.92389999999999994] [-0.074899999999999994:0.92510000000000003] [0:1] [-0.0030999999999999999:0.99690000000000001] [0:1.3333333333333333] [-1:2] [-20.848484848484865:282.18181818181841] [-2.3333333333333335:0] [0:1] [0:23.5] [0:8] [0:23.5] [0:6] [-2.6450617283950617:0.58410493827160492] [0:1] [-1:0] [0:1] [0:1] [0:1] [0:1] [0:1] [0:1] none [0:1] none [0:1] [0:1] [0:1] [0:1] [0:1] [0:1] [0:1] [0:1] [0:1] [0:4] [0:6] [0:8] [0:19] [0:16.325902161175431] [-0.5:12] [-1.0188703858039816:25.901677159431465] [-1.3944855083101835:14.980321739267032] [-1.0287109713512237:2.7421129793413801] [-1.0977011494252873:472.81747762420184] [-4.5141409932664613:24.651896759196603] [-0.90202517788724679:4.7898193760262719] [-1.1107442564314214:1.3001788416563489] [-1:1] [-0.88090476190476186:5.8136666666666663] [-1.3142857142857143:5.5333333333333332] [-1.1940529193887635:3.4541140778817367] [-3.3534504480025911:2.2712336781853542] [-6.2482689382518215:4.699596492122402] [-1.2626086138999264:3.3008694072673324] [-1.3504127030980213:15.078093322756866] [-0.64063901784490007:1.7635467792347321] [-1.2885956175298807:3.5363545816733071]
tree_sizes=5043 5697 5723 5687 5707 5718 5701 5703 5715 5693 5725 5712 5702 5726 5715 5717 5721 5736 5711 5731 5723 5701 5730 5711 5729 5721 5731 5725 5712 5744 5738 5728 5703 5723 5732 5704 5715 5743 5711 5716 5743 5700 5713 5710 5740 5712 5740 5724 5730 5753 5701 5722 5742 5712 5722 5700 5714 5723 5722 5728 5722 5736 5713 5732 5721 5712 5704 5719 5714 5689 5730 5707 5739 5707 5724 5742 5721 5712 5743 5755 5712 5736 5675 5705 5732 5695 5726 5714 5725 5720 5735 5706 5749 5755 5728 5762 5747 5746 5728 5728 5731 5734 5721 5729 5733 5721 5748 5720 5727 5725 5750 5754 5744 5739 5693 5714 5736 5717 5717 5742 5736 5748 5727 5724 5742 5719 5699 5741 5737 5702 5762 5748 5719 5767 5675 5721 5760 5755 5741 5704 5657 5718 5724 5719 5719 5737 5683 5735 5684 5682 5681 5677 5731 5766 5683 5724 5715 5697 5724 5658 5696 5724 5679 5704 5707 5691 5670 5677 5707 5699 5643 5647 5688 5653 5696 5666 5704 5711 5729 5690 5689 5668 5706 5699 5606 5668 5688 5654 5672 5699 5635 5671 5644 5668 5630 5660 5643 5669 5645 5664

Tree=0
num_leaves=50
num_cat=0
split_feature=118 12 82 82 27 111 12 12 11 11 118 106 106 111 111 12 106 106 12 12 12 12 12 12 27 12 11 111 111 25 25 118 12 12 12 12 27 11 106 106 75 118 12 12 118 12 12 111 111
split_gain=62851.5 22756.3 17057.4 17940.4 12795.5 9193.08 8273.86 13876.2 5499.5 5844.77 5264.65 3679.08 4054.47 3042.17 2764.77 2375.35 2222.48 4796.97 2200.83 3380.49 4604.83 3797.44 1850.34 1738.54 1491.57 1384.15 1311.97 1309.66 1399.58 1256.22 5368.4 1190.81 1151.57 1285.91 1434.32 1435.43 1005.16 929.846 873.51 4990.05 778.007 770.855 760.434 1595.48 730.798 697.806 682.285 658.417 835.806
threshold=0.032070008550140923 -1.4999867092352126 -0.99998170741032488 -1.0000000180025095e-35 0.66665878129364964 -0.59822735010986772 -1.4999867092352126 -1.0000000180025095e-35 -1.4999867092352126 -1.0000000180025095e-35 0.40808437806467385 -0.49999441898659341 -1.0000000180025095e-35 -0.59822735010986772 -0.33929923410513002 -1.0000000180025095e-35 -0.49999441898659341 -1.0000000180025095e-35 -0.49988259254468853 -1.000010630008346 -0.99992621211794785 -0.50001856265446032 -1.0000000180025095e-35 -1.0000000180025095e-35 0.66665878129364964 -1.0000000180025095e-35 -1.4999867092352126 -0.59822735010986772 -0.33929923410513002 0.99999113949014207 1.0000000180025095e-35 -0.67429881227185307 -0.49988259254468853 -1.000010630008346 -0.99992621211794785 -0.50001856265446032 -0.58332964145422572 -0.74998378034054991 -0.49999441898659341 -1.0000000180025095e-35 1.0000000180025095e-35 -0.73096869577341705 -0.99992621211794785 -1.000010630008346 -0.90210749293753423 -0.49988259254468853 -1.000010630008346 -0.59822735010986772 -0.33929923410513002
decision_type=2 2 2 2 2 2 2 2 2 2 2 2 2 2 2 2 2 2 2 2 2 2 2 2 2 2 2 2 2 2 2 2 2 2 2 2 2 2 2 2 2 2 2 2 2 2 2 2 2
left_child=1 27 15 -4 5 22 -2 18 23 36 13 44 -13 -9 -15 32 -16 -18 19 -8 -21 -22 42 -7 26 45 -19 -1 -29 30 40 -24 33 -3 -35 -36 37 -10 -12 -40 -17 -30 43 -5 -11 46 -6 -27 -49
right_child=6 2 3 4 25 8 7 10 9 11 38 12 -14 14 16 29 17 24 -20 20 21 -23 31 -25 -26 47 -28 28 41 -31 -32 -33 -34 34 35 -37 -38 -39 39 -41 -42 -43 -44 -45 -46 -47 -48 48 -50
leaf_value=-0.06877478325156261 -0.083728245864168202 0.10000000000000001 0.10000000000000001 0.10000000000000001 0.10000000000000001 0.061086900794668032 0.10000000000000001 -0.062037503498460683 -0.0019861830742659756 0.02106824925816024 -0.088591284204430298 0.10000000000000001 0.041324975417895773 0.084325323475046218 -0.07299313637720084 -0.055129189050908162 0.10000000000000001 -0.054145777092171235 0.10000000000000001 -0.090646215740507921 0.10000000000000001 -0.087364130434782611 0.0027253668763102725 -0.013150551983501152 -0.053221235594180995 -0.063804247460757163 0.0018101828513816965 0.068144252441773107 -0.014679089026915114 -0.064707257216314137 0.10000000000000001 -0.040421830832789739 0.10000000000000001 -0.078183613030602173 0.10000000000000001 -0.074238227146814412 0.091335244676419416 0.10000000000000001 0.10000000000000001 -0.066321097216619607 -0.021986132856184299 -0.05040655452796227 0.083721818876576246 -0.076532399299474613 -0.033017135862913098 0.10000000000000001 -0.023119777158774377 0.079603399433427757 -0.031095529364960961
leaf_weight=3719.75 11046.75 296.25 11460.25 232 142.25 975.25 1027.25 4466.25 579 1011 3453.5 3442.5 20340 676.25 1675.5 2931.75 890.75 1296.5 1330.75 994.25 1020 368 2981.25 4121.5 2646.5 1624.5 5455.25 332.75 2415 2139.25 816.25 3449.25 460.25 506.5 342.5 180.5 10202.25 364 468 12395 4471 4027.75 654.25 285.5 1634 252 538.5 176.5 5027.25
leaf_count=14879 44187 1185 45841 928 569 3901 4109 17865 2316 4044 13814 13770 81360 2705 6702 11727 3563 5186 5323 3977 4080 1472 11925 16486 10586 6498 21821 1331 9660 8557 3265 13797 1841 2026 1370 722 40809 1456 1872 49580 17884 16111 2617 1142 6536 1008 2154 706 20109
internal_value=0 0.0243676 0.0332774 0.0428317 0.0315421 0.0407669 -0.0456214 -0.0345911 0.049792 0.0564032 -0.0459452 0.0435966 0.0498181 -0.0265651 -0.014032 -0.0213949 -0.0195913 -0.0108951 0.045467 0.0241824 -0.00851086 0.0503242 -0.00988852 0.00105459 -0.0214056 -0.0282116 -0.00893472 -0.044937 -0.03185 -0.0305771 -0.0216936 -0.0204183 0.0318589 0.0082029 -0.0182127 0.0398662 0.0867701 0.0373807 -0.0662642 -0.0602698 -0.035112 -0.0370145 0.0478984 0.0026087 -0.012344 0.0289199 0.00260742 -0.0360158 -0.0273409
internal_weight=141343 92132.5 81637.2 69493 58032.8 50271.8 49210.5 38163.8 42669.5 37572.8 33423.5 26427.5 23782.5 17107 12640.8 12144.2 11964.5 10289 4740.25 3409.5 2382.25 1388 7602.25 5096.75 9398.25 7761 6751.75 10495.2 6775.5 10358.2 8219 6430.5 1786 1325.75 1029.5 523 11145.2 943 16316.5 12863 7402.75 6442.75 1171.75 517.5 2645 932.75 680.75 6828.25 5203.75
internal_count=565372 368530 326549 277972 232131 201087 196842 152655 170678 150291 133694 105710 95130 68428 50563 48577 47858 41156 18961 13638 9529 5552 30409 20387 37593 31044 27007 41981 27102 41433 32876 25722 7144 5303 4118 2092 44581 3772 65266 51452 29611 25771 4687 2070 10580 3731 2723 27313 20815
is_linear=0
shrinkage=0.05


Tree=1
num_leaves=50
num_cat=0
split_feature=118 12 82 82 27 12 12 111 2 2 12 106 106 39 12 12 118 12 12 118 106 106 82 82 12 25 25 82 82 25 25 12 12 12 12 27 118 118 75 118 12 12 12 12 39 12 12 37 37
split_gain=56927.5 18654.6 14195 14381.3 10561.1 9321.03 14511.3 7509.7 6449.56 22690.3 4567.36 4227.86 4552.41 3238.96 2221.52 7607.12 2221.14 1915.84 1471.94 1419.23 1263.95 4057.77 1218.73 4700.98 1107.26 1063.22 4395.89 1047.44 3179.58 999.132 5307.45 947.924 1067.34 1194.82 1192.86 921.071 803.958 737.744 667.712 658.09 656.244 4389.78 652.921 1347.3 639.653 695.797 678.882 634.388 2041.43
threshold=-0.055504215629026528 -1.4999867092352126 -0.99998170741032488 -1.0000000180025095e-35 0.66665878129364964 -1.4999867092352126 -1.0000000180025095e-35 -0.59822735010986772 1.0000000180025095e-35 0.99999469241310746 -1.0000000180025095e-35 -0.49999441898659341 -1.0000000180025095e-35 -0.66665886097941052 -0.99992621211794785 -1.000010630008346 0.3687831475876861 -1.0000000180025095e-35 -1.0000000180025095e-35 0.39815579006736118 -0.49999441898659341 -1.0000000180025095e-35 -0.99998170741032488 -1.0000000180025095e-35 -1.0000000180025095e-35 0.99999113949014207 1.0000000180025095e-35 -0.99998170741032488 -1.0000000180025095e-35 0.99999113949014207 1.0000000180025095e-35 -0.49988259254468853 -1.000010630008346 -0.99992621211794785 -0.50001856265446032 0.33334642973341255 -0.70227412770146735 -1.0981545957202044 1.0000000180025095e-35 -0.798636212063497 -0.99992621211794785 -1.000010630008346 -0.99992621211794785 -1.000010630008346 0.57142370478699289 -0.49988259254468853 -0.50001856265446032 1.0000000180025095e-35 0.99999269668868818
decision_type=2 2 2 2 2 2 2 2 2 2 2 2 2 2 2 2 2 2 2 2 2 2 2 2 2 2 2 2 2 2 2 2 2 2 2 2 2 2 2 2 2 2 2 2 2 2 2 2 2
left_child=1 22 17 -4 7 -2 14 18 16 -10 40 37 -13 -14 15 -7 20 31 42 27 -8 -22 -1 -24 -6 26 38 -11 -29 30 -23 32 -3 -34 -35 36 -20 -12 -19 -25 41 -9 43 -5 -16 46 -46 -30 -49
right_child=5 2 3 4 24 6 8 10 9 19 11 12 13 -15 44 -17 -18 25 35 -21 21 29 23 39 -26 -27 -28 28 47 -31 -32 -33 33 34 -36 -37 -38 -39 -40 -41 -42 -43 -44 -45 45 -47 -48 48 -50
leaf_value=-0.070033194579938382 -0.078657837616410306 0.095241872246060344 0.095241872246060344 0.095241872246060344 0.028190047118130557 0.095364040845221806 -0.077889341223516817 0.096700186136341126 0.099682842414177686 -0.067835933690265596 0.022991105281066144 0.095746933912832718 0.0034926486713939458 0.047862066531774022 0.081602218498274051 -0.085893257502822201 -0.070836079766563184 -0.050871748380256182 -0.0030348244711018504 -0.070541042274653756 0.09651935004386078 -0.046453301323026497 0.10133415844671684 -0.021310034329879483 -0.032095808808261135 -0.060066541304839377 0.095241872246060344 0.098463887464802724 -0.051157794132608486 -0.072077123419696978 0.099709960629816533 0.095241872246060344 -0.073176800973665246 0.095241872246060344 -0.070142001108602248 0.04218692708259885 -0.041840555602465662 -0.029529827791586701 -0.018782631513004047 -0.054632145497589303 0.091702358583723956 -0.057364609699620331 0.080088626605241409 -0.07174145021491854 0.095564088283786167 0.095241872246060344 -0.08285012922731988 0.09884732684597991 -0.039844451853604267
leaf_weight=2545.0629715770483 11960.107133045793 277.30616056919098 10831.648457124829 218.20403821766376 867.76343816518784 1214.0701259225607 1857.5176548957825 2019.9423545449972 3384.0600479990244 1651.2663721144199 949.8120114505291 4038.8661578446627 5215.6644894778728 19458.776790082455 2833.3950409591198 1106.347862765193 12142.112787559628 2658.9791759848595 2552.9952827095985 4415.7059574574232 570.28799085319042 6321.6464860588312 624.12941652536392 2336.8324268162251 6229.13533885777 1937.4712792932987 763.09069365262985 493.89335097372532 2563.0930896252394 2010.4731090217829 688.74992491304874 428.6774190813303 468.28402733802795 319.45071195065975 165.52183364331722 596.38751581311226 2796.900420486927 2258.4908403009176 4153.2481496781111 4049.061316922307 5661.3864070177078 599.60163716971874 619.66350723803043 270.60356038808823 73.575381651520729 171.82009409368038 193.65498939156532 334.47954234480858 1283.2335230261087
leaf_count=10189 47921 1112 43435 875 3475 4868 7438 8091 13551 6610 3801 16191 20874 77896 11360 4434 48630 10644 10212 17686 2286 25301 2498 9351 24928 7758 3060 1978 10259 8047 2757 1719 1876 1281 663 2386 11192 9038 16615 16209 22675 2400 2483 1084 295 689 776 1339 5136
internal_value=3.83138e-07 0.025466 0.0337078 0.0426327 0.0321488 -0.0395843 -0.028794 0.0406897 -0.039939 -0.0132191 0.0490393 0.0404556 0.0465381 0.0384833 0.0463651 0.0089427 -0.0559384 -0.0183662 -0.00689114 -0.0487878 -0.0401385 -0.0328273 -0.0403973 -0.0296377 -0.0247244 -0.0270136 -0.01856 -0.0336034 -0.0215113 -0.0410044 -0.0320932 0.0312111 0.00890542 -0.0162102 0.0387961 -0.016752 -0.0233223 -0.0139811 -0.0313078 -0.0424384 0.0821279 0.0614355 0.0460063 0.00280002 0.0729004 0.0167436 -0.0337281 -0.0356844 -0.0111684
internal_weight=141182 85913 76357.9 65185.8 54354.2 55269.5 43309.4 47257.3 37716.5 14125.7 40202.5 31921.6 28713.3 24674.4 5592.86 2320.42 23590.8 11172 7054.75 10741.7 11448.7 9591.16 9555.09 7010.02 7096.9 9512.79 7575.32 6325.97 4674.7 9020.87 7010.4 1659.24 1230.56 953.257 484.973 5946.28 5349.9 3208.3 6812.23 6385.89 8280.93 2619.54 1108.47 488.808 3272.45 439.05 267.23 4180.81 1617.71
internal_count=565372 344011 305764 261036 217601 221361 173440 189198 151018 56559 160966 127800 114961 98770 22422 9302 94459 44728 28232 43008 45829 38391 38247 28058 28403 38077 30319 25322 18712 36105 28058 6651 4932 3820 1944 23790 21404 12839 27259 25560 33166 10491 4442 1959 13120 1760 1071 16734 6475
is_linear=0
shrinkage=0.05


Tree=2
num_leaves=50
num_cat=0
split_feature=118 12 82 82 27 118 25 25 111 111 106 106 11 11 111 12 12 12 12 12 25 25 12 4 4 82 82 12 12 12 12 12 12 82 82 12 12 12 12 118 27 12 12 106 106 118 118 12 12
split_gain=51553.4 16884.2 12852.3 13151.2 9556.59 8535.98 6813.04 10543.6 5796.69 4458.41 4328.63 7005.92 3366.55 3836.95 3047.77 2536.96 3701.26 1824.1 4953.98 1734.23 1695.45 6291.92 1320.97 1115.42 4531.67 1106.62 4248.69 1000.16 959.868 1720.15 1311.07 1502.15 892.297 864.518 6338.31 862.359 970.193 1083.53 1083.77 779.665 691.784 613.501 1074.07 603.841 2362.99 602.427 598.322 574.573 574.216
threshold=-0.055504215629026528 -1.4999867092352126 -0.99998170741032488 -1.0000000180025095e-35 0.66665878129364964 0.39815579006736118 0.99999113949014207 1.0000000180025095e-35 -0.59822735010986772 -0.59822735010986772 -0.49999441898659341 -1.0000000180025095e-35 -1.4999867092352126 -1.0000000180025095e-35 -0.33929923410513002 -1.4999867092352126 -1.0000000180025095e-35 -1.4999867092352126 -1.0000000180025095e-35 -1.0000000180025095e-35 0.99999113949014207 1.0000000180025095e-35 -1.0000000180025095e-35 -0.99999469241310723 -1.0000000180025095e-35 -0.99998170741032488 -1.0000000180025095e-35 -1.0000000180025095e-35 -0.49988259254468853 -1.000010630008346 -0.99992621211794785 -0.50001856265446032 -1.0000000180025095e-35 -0.99998170741032488 -1.0000000180025095e-35 -0.49988259254468853 -1.000010630008346 -0.99992621211794785 -0.50001856265446032 -0.84759846611810763 0.33334642973341255 -1.4999867092352126 -1.0000000180025095e-35 -0.49999441898659341 -1.0000000180025095e-35 -0.87978714518208634 -0.76007642528721586 -0.49988259254468853 -1.000010630008346
decision_type=2 2 2 2 2 2 2 2 2 2 2 2 2 2 2 2 2 2 2 2 2 2 2 2 2 2 2 2 2 2 2 2 2 2 2 2 2 2 2 2 2 2 2 2 2 2 2 2 2
left_child=1 25 19 -4 6 8 7 9 41 40 -10 -12 32 -14 -13 -16 -17 -7 28 35 21 -18 -8 -21 -25 -1 -27 47 29 -19 -31 -32 -11 -20 -35 36 -3 -38 -39 -24 46 -2 -43 -26 -45 -28 -5 48 -6
right_child=5 2 3 4 27 17 22 -9 10 12 11 14 13 -15 15 16 20 18 33 23 -22 -23 39 24 43 26 45 -29 -30 30 31 -33 -34 34 -36 -37 37 38 -40 -41 -42 42 -44 44 -46 -47 -48 -49 -50
leaf_value=-0.066743032729371363 -0.079774862022782847 0.091131780775723592 0.091131780775723592 0.00061565314160478353 0.093984306532712336 -0.08132358490794582 0.04497130659120431 0.094664074063207898 -0.062153462823135552 0.049236252573478731 0.092908648487426415 0.077078659394439336 0.07859761466828119 0.034416559344283351 -0.06232736951920928 0.057594237002313947 -0.022979424121246528 0.091126758800501431 -0.078775810467090909 -0.05737190046501156 -0.057563718055611383 0.096032532827438344 0.0052498231528429794 0.099584943059468578 -0.060995351870721776 0.096391079144295178 -0.017966779503253729 -0.03051701379010037 0.091631171359911959 -0.085254768634669811 0.091648495714781286 -0.086774470022785363 -0.016576299046967714 0.10281406304703684 -0.061183796478244484 0.091131780775723592 -0.069817030937375138 0.091131780775723592 -0.066896574035367834 -0.033964416555470882 0.043526764787651336 0.012347318586277696 -0.055186589415258704 0.099909696550333285 -0.031451816317242504 -0.050917505347474634 -0.038536730477792193 0.093984306532712336 -0.022492535826116499
leaf_weight=2537.1777889430523 2000.4558345079422 275.36744332313538 10755.921673327684 1794.5513458549976 134.19793932139874 6769.7735399007797 946.10464531183243 8812.0902035683393 2978.2234940230846 624.63787548243999 1932.0929769575596 998.8481842726469 6887.0381824076176 17155.352076262236 2235.946941614151 2019.9848220348358 8265.347779661417 424.68483686447144 4371.9509669691324 2151.4577995240688 2005.0874263495207 1282.9407902508974 2042.0982376337051 755.1120869666338 1251.1837678849697 623.3357766866684 2039.3992265313864 6223.9512898921967 429.38569633662701 511.00811839103699 329.98543189466 183.59866248071194 2935.0437859296799 620.60064010322094 11631.39802955091 425.68042722344398 466.32402002811432 317.21735152602196 164.88920179009438 3341.8090494275093 469.70738212764263 660.42316119372845 5424.5385124534369 367.67365765571594 4969.8628624081612 4336.9361544549465 2138.7473913133144 232.79234372079372 500.24677973985672
leaf_count=10189 8053 1112 43435 7186 539 27258 3806 35402 11973 2510 7791 4018 27708 68813 8999 8142 33118 1715 17576 8625 8039 5147 8182 3032 5016 2498 8164 24928 1732 2060 1331 737 11744 2491 46749 1719 1876 1281 663 13392 1882 2662 21770 1476 19928 17396 8573 935 2001
internal_value=1.49511e-06 0.0242634 0.032119 0.0406255 0.0306097 -0.0377399 0.0387493 0.0462343 -0.019614 0.0328999 -0.0061597 0.0027389 0.0403533 0.0470724 -0.00762609 -0.0129778 -0.00484844 -0.059116 -0.0509906 -0.0174899 -0.0157659 -0.00698857 -0.00951568 -0.0257105 -0.016435 -0.0384532 -0.028199 -0.0235076 0.0259708 0.00651723 -0.0285527 0.0278649 -0.00502779 -0.059688 -0.0528768 0.0298327 0.00851074 -0.0154775 0.0370832 -0.0190906 -0.0138248 -0.0557539 -0.0478569 -0.0297316 -0.022403 -0.0403786 -0.0206736 0.0267972 0.00214468
internal_weight=140752 85675.9 76139.1 64994.3 54238.4 55076.3 47147.2 40817.2 29803.9 32005.1 21718.5 18740.2 27602.1 24042.4 16808.2 15809.3 13573.4 25272.4 18502.6 11144.8 11553.4 9548.29 6330.01 9495.29 7343.83 9536.85 6999.67 7091.19 1878.66 1449.28 1024.59 513.584 3559.68 16623.9 12252 1649.48 1223.8 948.431 482.107 5383.91 4403.01 8085.42 6084.96 6588.72 5337.54 6376.34 3933.3 867.237 634.445
internal_count=565372 344011 305764 261036 217601 221361 189198 163818 119712 128416 87227 75254 110775 96521 67463 63445 54446 101649 74391 44728 46304 38265 25380 38077 29452 38247 28058 28403 7575 5843 4128 2068 14254 66816 49240 6651 4932 3820 1944 21574 17641 32485 24432 26420 21404 25560 15759 3475 2540
is_linear=0
shrinkage=0.05


Tree=3
num_leaves=50
num_cat=0
split_feature=118 12 82 82 27 25 25 2 2 12 2 2 27 12 12 12 12 82 82 118 12 12 12 12 12 12 12 82 82 25 25 23 23 12 12 12 12 25 25 37 37 118 12 12 72 118 12 12 106
split_gain=46891.1 17405.3 13091 14387.2 9823.92 7145.75 11233.8 6022.46 25202.9 4794.79 4111.05 11121 2917.89 1884.98 4733.2 1845.64 1388.45 1264.77 5378.68 1233.6 1178.38 1713.45 1412.42 1773.43 1066.44 1034.55 4406.73 1032.99 4404.61 1010.12 4392.43 967.983 3434.67 894.581 1000.27 1113.35 1105.55 831.423 4974.35 738.444 3052.88 677.58 594.39 579.116 568.906 525.065 471.708 1165.02 438.439
threshold=0.064842543047501783 -1.4999867092352126 -0.99998170741032488 -1.0000000180025095e-35 0.66665878129364964 0.99999113949014207 1.0000000180025095e-35 1.0000000180025095e-35 0.99999469241310746 -1.0000000180025095e-35 1.0000000180025095e-35 0.99999469241310746 0.33334642973341255 -1.4999867092352126 -1.0000000180025095e-35 -1.0000000180025095e-35 -1.0000000180025095e-35 -0.99998170741032488 -1.0000000180025095e-35 0.44849276918326714 -0.49988259254468853 -1.000010630008346 -0.99992621211794785 -0.50001856265446032 -1.0000000180025095e-35 -0.99992621211794785 -1.000010630008346 -0.99998170741032488 -1.0000000180025095e-35 0.99999113949014207 1.0000000180025095e-35 1.0000000180025095e-35 0.99994600225521513 -0.49988259254468853 -1.000010630008346 -0.99992621211794785 -0.50001856265446032 0.99999113949014207 1.0000000180025095e-35 1.0000000180025095e-35 0.99999269668868818 -0.798636212063497 -0.49988259254468853 -1.000010630008346 -0.9904419598745472 -0.65588133087929712 -0.99992621211794785 -1.000010630008346 -0.49999441898659341
decision_type=2 2 2 2 2 2 2 2 2 2 2 2 2 2 2 2 2 2 2 2 2 2 2 2 2 2 2 2 2 2 2 2 2 2 2 2 2 2 2 2 2 2 2 2 2 2 2 2 2
left_child=1 27 15 -4 5 6 9 13 -9 25 12 -12 -11 -2 20 33 46 -10 -19 37 21 -15 -23 -24 42 26 -5 -1 -29 30 44 -18 -33 34 -3 -36 -37 38 48 -20 -41 -30 43 -6 -17 -26 47 -7 -16
right_child=7 2 3 4 24 16 -8 8 17 10 11 -13 -14 14 19 29 31 18 39 -21 -22 22 23 -25 45 -27 -28 28 41 -31 -32 32 -34 -35 35 36 -38 -39 -40 40 -42 -43 -44 -45 -46 -47 -48 -49 -50
leaf_value=-0.064762896191849093 -0.076697101973927428 0.087703015978319809 0.087840355215227955 0.090173801775118897 0.089909760412691539 0.090296628681600183 0.090662082452554693 0.094342153796625888 -0.072683752921589836 -0.0078855325918353401 0.093624287150099239 0.0040029764058293962 0.062845203324339544 0.08824451508221394 -0.075080960704876756 -0.048811847755931087 -0.046747813030381828 0.094565293849962651 -0.06170165138463183 -0.067286691967997123 0.088808436964122842 -0.082271064002951338 0.088951455244238989 -0.085177056183760605 -0.014665125440659999 0.082922035556335483 -0.064646203535148258 0.093234672741859093 -0.019158695139560748 -0.057323348478528095 0.090490221278309191 0.096331340825155098 -0.028553661164178668 0.087732807515215339 -0.068634416450516447 0.08774161570098149 -0.064660823639377571 -0.068461341346849905 0.094181278968653068 0.096075555675960683 -0.052865761352385014 -0.051929184905523354 0.089958235368746767 -0.022521197517367496 -0.020536627711936005 -0.042703966674557114 0.072079553817486347 -0.069703782931266459 -0.041544496972052453
leaf_weight=2919.0588296800852 7281.187731012702 297.99911753833294 11437.066313713789 1414.3727489262819 144.40136361122131 210.47997902333736 9371.5907210707664 3896.2786621451378 4338.1794313341379 12120.234222516418 5649.1012103557587 8938.5042731761932 1657.5277842432261 429.13113652169704 1169.789024785161 2844.5828713029623 2322.5323857069016 687.61937837302685 5391.2172275185585 10120.237195089459 514.0460257679224 605.126699000597 396.65115401148796 231.60052895545959 2735.249719068408 4173.4305502921343 680.88949266076088 664.51896846294403 2334.324967071414 2195.1056696623564 822.85667334496975 675.44046750664711 2977.7965635955334 460.99955379962921 512.77792200446129 343.37459617853165 182.10648101568222 2369.4137178957462 683.368233948946 409.29971799254417 2158.0854870826006 4864.3911352604628 254.77374778687954 553.73773111402988 4748.8352147787809 4285.965462192893 565.27167664468288 247.61264379322529 5839.9295159131289
leaf_count=11788 29542 1216 46664 5729 585 852 37940 15732 17551 48675 22747 35898 6672 1748 4730 11438 9308 2775 21766 40906 2090 2450 1612 933 10969 16881 2730 2679 9351 8843 3334 2710 11935 1881 2075 1401 736 9558 2759 1653 8703 19595 1032 2216 19035 17197 2285 992 23475
internal_value=3.1222e-06 0.0203934 0.0281726 0.0365171 0.0265646 0.0346333 0.042097 -0.041025 -0.0171865 0.0289559 0.0202101 0.0387091 0.000623698 -0.0546014 -0.047406 -0.0191806 -0.0122935 -0.0506533 -0.0395996 -0.0549606 0.0226465 0.00218928 -0.027752 0.0247602 -0.0250447 0.0685297 0.0398625 -0.0393624 -0.029933 -0.0271166 -0.0192382 -0.0215092 -0.0054639 0.027675 0.00695546 -0.0162205 0.0349263 -0.0425638 -0.0345876 -0.0511914 -0.0291211 -0.0413027 0.0245891 0.000733744 -0.0311289 -0.0317809 0.0415205 0.00381166 -0.0471411
internal_weight=140128 93606.9 82824.6 70416 58978.9 51004.8 44005.7 46521.2 16880.7 34634.1 28365.4 14587.6 13777.8 29640.5 22359.3 12408.6 6999.13 12984.4 8646.22 20182.7 2176.56 1662.51 1233.38 628.252 7974.13 6268.69 2095.26 10782.3 7863.24 10611.4 8416.27 5975.77 3653.24 1797.26 1336.26 1038.26 525.481 10062.5 7693.09 7958.6 2567.39 7198.72 952.913 698.139 7593.42 7021.22 1023.36 458.093 7009.72
internal_count=565372 377389 333976 284017 237353 205354 177272 187983 68180 139332 113992 58645 55347 119803 90261 49959 28082 52448 34897 81428 8833 6743 4995 2545 31999 25340 8459 43413 31625 42650 33807 23953 14645 7309 5428 4212 2137 40522 30964 32122 10356 28946 3833 2801 30473 28166 4129 1844 28205
is_linear=0
shrinkage=0.05


Tree=4
num_leaves=50
num_cat=0
split_feature=118 111 2 2 2 2 23 23 4 4 4 4 118 118 111 111 111 118 119 111 27 11 11 4 4 27 4 4 11 11 27 11 11 11 111 119 119 111 37 11 111 27 11 11 114 114 1 27 27
split_gain=42744.1 14503.5 8340.39 16503.5 7421 27793.1 3901.72 7971.47 3307.64 9269.12 2781.84 7547.41 2522.7 1997.07 1973.17 1753.05 2223.73 1666.97 1639.23 1407.49 1349.8 1434.88 2073.58 1045.59 3911.03 1045.23 1027.98 7210.37 948.478 1524.74 929.353 1120.41 1570.41 1212.71 886.606 872.541 1188.69 868.236 867.901 798.098 761.738 737.552 787.901 1459.55 644.183 1424.29 635.235 538.843 538.818
threshold=-0.055504215629026528 -0.59822735010986772 1.0000000180025095e-35 0.99999469241310746 1.0000000180025095e-35 0.99999469241310746 1.0000000180025095e-35 0.99994600225521513 -0.99999469241310723 -1.0000000180025095e-35 -0.99999469241310723 -1.0000000180025095e-35 0.42795971385379467 -0.71173723720087911 -0.33929923410513002 -0.59822735010986772 -0.33929923410513002 0.38793828032056638 -1.0000000180025095e-35 -0.59822735010986772 0.66665878129364964 -1.4999867092352126 -1.0000000180025095e-35 -0.99999469241310723 -1.0000000180025095e-35 -0.58332964145422572 -0.99999469241310723 -1.0000000180025095e-35 -1.4999867092352126 -1.0016392347180936 0.66665878129364964 -1.0000000180025095e-35 -0.74998378034054991 -0.75177285658743565 -0.33929923410513002 1.0000000180025095e-35 0.35859758310003637 -0.40431948561629588 1.0000000180025095e-35 -1.4999867092352126 -0.33929923410513002 0.66665878129364964 -1.4999867092352126 -1.0000000180025095e-35 1.0000000180025095e-35 0.49768733305710838 1.0000000180025095e-35 -0.58332964145422572 -0.16666042380034515
decision_type=2 2 2 2 2 2 2 2 2 2 2 2 2 2 2 2 2 2 2 2 2 2 2 2 2 2 2 2 2 2 2 2 2 2 2 2 2 2 2 2 2 2 2 2 2 2 2 2 2
left_child=1 13 6 -4 12 -6 8 -8 -3 -10 34 -12 15 23 -11 -2 -17 19 25 -7 21 -13 47 -1 -25 -16 -18 -28 -15 -30 31 32 33 -31 -5 -20 -37 -21 -24 -27 -9 42 -39 -44 -42 -46 -29 -23 -33
right_child=4 2 3 10 5 17 7 40 9 14 11 20 -14 28 18 16 26 -19 35 37 -22 22 38 24 -26 39 27 46 29 30 -32 48 -34 -35 -36 36 -38 41 -40 -41 44 -43 43 -45 45 -47 -48 -49 -50
leaf_value=-0.027044852988431442 -0.06011832430550406 -0.037100462955021014 0.0888052086601053 0.076143644544657232 0.090230187958878938 -0.06175598309138685 0.089834354063447558 0.079555697453624702 0.091076203485993351 0.080890652023227094 0.089513682351450435 -0.027059237092853683 -0.063422932507226415 -0.063682010284561025 -0.039645176725749 0.068585593731194536 -0.057871228757815002 -0.063024024965604983 -0.037444436311990452 0.084099645657524924 -0.033416463277719646 -0.040652673456796809 -0.0085099252095521116 0.091425783869177185 -0.0078420647506302066 -0.02777389113742226 0.095450196049985669 -0.040536963828887336 0.091766854280669247 0.091461554578099971 -0.057213699073850904 -0.042053451762108715 0.091787428816943864 -0.076529696681551393 -0.020128818075277655 0.042397325595298851 -0.039362038844547996 -0.050218855697587217 0.029042596436570773 0.021652083526383425 -0.03160739053739519 -0.058559734355838049 0.056340059455414919 -0.01818372061748599 0.090987487808335821 -0.01315416732925471 0.088435679029212177 0.074826037793330011 -0.0086800578404562893
leaf_weight=2362.2943284213543 5350.1164704114199 4145.4069610387087 15341.110547602177 253.35146254301071 5108.1618960350752 2462.9903168827295 4407.1123386472464 243.50730614364147 3102.9876919537783 656.76189060509205 3943.6089114844799 1602.7830459177494 15917.713888645172 1868.9405732154846 1014.4094950258732 592.47478775680065 2691.6633385121822 6745.3834205269814 4743.8268972039223 205.2028174251318 1594.6953626573086 106.66535693407059 3076.6366438865662 1240.9572765082121 4950.5266678929329 949.09198884665966 1133.2606439441442 8176.2025701701641 273.77314375340939 147.82117106020451 2059.0185625255108 2913.1554136276245 508.02066060900688 393.16155594587326 4265.7252200841904 936.47729185223579 846.33896595239639 1071.9954064190388 3077.8497376590967 5857.0209604203701 1995.1313484460115 1048.646849796176 843.56771817803383 2970.7350704967976 415.11574658751488 1570.1086938977242 96.600664347410202 1907.9632397741079 2067.9774199277163
leaf_count=9525 21739 16709 62716 1033 20806 10002 17957 990 12632 2675 16089 6461 65021 7559 4082 2407 10908 27515 19125 834 6434 431 12420 5055 20014 3816 4608 33121 1117 603 8322 11769 2073 1588 17223 3799 3414 4342 12453 23704 8032 4248 3419 11998 1687 6333 393 7803 8368
internal_value=6.22333e-06 0.0221915 0.0332163 0.0498653 -0.0345833 -0.0107932 0.0142562 0.0427922 0.00318792 0.0124116 0.019739 0.0299136 -0.0489147 -0.0165739 -0.00385721 -0.0361136 -0.0259933 -0.0444149 -0.00773666 -0.0298242 0.00923555 0.016196 0.0246827 0.0012562 0.0120542 0.00770285 -0.0306252 -0.0228284 -0.0314797 -0.0242831 -0.0282108 -0.0183076 0.028657 -0.0306268 -0.0147315 -0.026237 0.0035845 -0.0170155 0.01027 0.0147598 -0.00629084 -0.0205116 -0.0123461 -0.00170211 -0.0115427 0.00862213 -0.039031 0.068712 -0.0281981
internal_weight=139254 84839.3 66053.7 35170.4 54414.7 20456.7 30883.3 8630.98 22252.3 18106.9 19829.3 15310.2 33958 18785.6 15003.9 18040.3 12690.2 15348.5 14347.2 8603.14 11366.6 9771.9 8169.11 8553.78 6191.48 7820.52 12097.7 9406.06 10231.9 8362.93 8089.15 6030.14 1049 540.983 4519.08 6526.64 1782.82 6140.15 6154.49 6806.11 4223.86 5934.95 4886.3 3814.3 3980.36 1985.22 8272.8 2014.63 4981.13
internal_count=565372 344011 268018 143063 221361 83164 124955 34999 89956 73247 80347 62091 138197 75993 60615 73176 51437 62358 57940 34843 46002 39568 33107 34594 25069 31602 49030 38122 41399 33840 32723 24401 4264 2191 18256 26338 7213 24841 24873 27520 17042 24007 19759 15417 16052 8020 33514 8234 20137
is_linear=0
shrinkage=0.05


Tree=5
num_leaves=50
num_cat=0
split_feature=119 12 114 114 114 114 12 12 12 82 82 12 2 2 2 2 119 119 12 12 12 11 12 82 82 25 25 41 42 25 25 25 25 12 12 82 82 114 114 82 82 3 72 119 12 12 12 12 75
split_gain=37323.2 15885.3 13401.2 10251.6 11576.9 15237.7 4276.46 8490.05 4048.39 3402.81 3851.28 2692.08 2658.36 12754.2 2395.47 8998.45 2002.61 2772.45 1949.74 1604.89 4921.81 1499.15 1468.02 904.85 3939.38 884.038 4173.92 873.46 913.614 802.206 8163.75 780.113 1684.76 636.867 1474.11 633.527 2760.22 620.142 1535.85 598.774 2111.57 591.842 577.999 562.262 520.123 993.676 503.741 1972.36 501.782
threshold=0.35859758310003637 -1.4999867092352126 -0.49999605731349134 -1.0000000180025095e-35 1.0000000180025095e-35 0.49768733305710838 -1.4999867092352126 -1.0000000180025095e-35 -1.0000000180025095e-35 -0.99998170741032488 -1.0000000180025095e-35 -1.0000000180025095e-35 1.0000000180025095e-35 0.99999469241310746 1.0000000180025095e-35 0.99999469241310746 -1.0000000180025095e-35 1.0000000180025095e-35 -1.0000000180025095e-35 -0.99992621211794785 -1.000010630008346 -1.4999867092352126 -0.99992621211794785 -0.99998170741032488 -1.0000000180025095e-35 0.99999113949014207 1.0000000180025095e-35 -0.22384930074820006 -0.1385155081274293 0.99999113949014207 1.0000000180025095e-35 0.99999113949014207 1.0000000180025095e-35 -0.49988259254468853 -0.50001856265446032 -0.99998170741032488 -1.0000000180025095e-35 0.50002148631752485 0.9999817074103251 -0.99998170741032488 -1.0000000180025095e-35 0.99999113949014207 -0.99594411888189516 -1.0000000180025095e-35 -0.49988259254468853 -0.50001856265446032 -0.99992621211794785 -1.000010630008346 0.0031834639707924444
decision_type=2 2 2 2 2 2 2 2 2 2 2 2 2 2 2 2 2 2 2 2 2 2 2 2 2 2 2 2 2 2 2 2 2 2 2 2 2 2 2 2 2 2 2 2 2 2 2 2 2
left_child=1 23 11 -4 8 -6 -2 19 44 37 -11 33 29 -14 25 -16 31 42 22 20 -8 -20 -12 -1 -25 26 41 -19 -29 30 -9 32 48 34 -3 -15 -37 -7 -39 -17 -41 -10 -18 -26 45 46 47 -5 -13
right_child=6 2 3 4 5 9 7 12 14 10 18 16 13 35 15 39 17 27 21 -21 -22 -23 -24 24 43 -27 -28 28 -30 -31 -32 -33 -34 -35 -36 36 -38 38 -40 40 -42 -43 -44 -45 -46 -47 -48 -49 -50
leaf_value=-0.062248135663056516 -0.067475212465755371 0.05813484193174976 0.088077761699146925 0.083976463518367364 0.087467795649522617 -0.042040708083966857 0.084650796910001588 -0.05572311334079201 -0.023443135344442194 0.082982275736973587 0.014526636769031046 -0.026105472229687295 0.08794386879447845 -0.070025866132288797 0.086419229197539374 -0.051979973330178703 -0.063458059256864638 0.065853466446212303 -0.028721698363292737 0.064014875734256724 -0.07617361495732243 0.017912327627949018 0.077158223667831718 0.088104981001899271 -0.027981199266105927 -0.054279041198459443 0.086866242721363951 0.056590271939955153 -0.025553480896183742 -0.068704828001150825 0.099173842966340742 -0.037573489795211384 0.087785150413827839 0.084036434315172437 -0.071276588254466963 0.091828980633505364 -0.048623493597279077 0.092485095795837427 -0.029262540896072289 0.084000730574004479 -0.024867501795109027 -0.059875675146480581 -0.036367463631546908 -0.055794310079087653 0.084632286714325294 -0.064465643654694108 0.08484904329073073 -0.063865726450823654 0.01382142069833946
leaf_weight=3055.0897559672594 10010.229575052857 771.04064933955669 7951.2502607703209 606.50671634078026 13354.339533135295 2099.2721425443888 926.28230656683445 12338.237713590264 5904.8575552850962 2803.7643500417471 1594.9891153872013 1198.0140536725521 2173.1350628137589 2399.2155704200268 2692.6528289616108 1343.2062405645847 3319.5209133923054 608.36304785311222 2022.2709174901247 2316.0192964822054 978.04440206289291 11660.091281145811 2263.0431690812111 646.13299106061459 3978.1228423416615 2129.4603553265333 848.40671107172966 460.69862344861031 1276.1179853379726 4909.5254982113838 913.62411384284496 895.95705166459084 650.11642789840698 643.92323838174343 307.93428678810596 374.39058174192905 5326.6134776324034 344.96787405014038 1039.9430362284184 492.19956310093403 4683.5077440440655 1374.1324500590563 4839.2857505083084 3345.0256119519472 971.51887442171574 204.56806087493896 693.21997088193893 359.20301257073879 2293.1532063037157
leaf_count=12499 41340 3188 32721 2522 54960 8520 3842 50378 23817 11730 6522 4853 8902 9840 11107 5440 13457 2484 8129 9563 4023 47234 9346 2651 16041 8600 3492 1877 5199 20127 3733 3623 2681 2677 1249 1522 21691 1412 4220 2049 18882 5538 19595 13637 4027 829 2873 1454 9276
internal_value=9.70889e-06 0.0173449 0.0246931 0.0347559 0.0276287 0.0447121 -0.0388843 -0.0301199 -0.000851558 0.0207501 0.0285694 -0.0146143 -0.0399419 -0.019615 -0.00898057 0.00952663 -0.0211883 -0.0336175 0.0198718 0.0360561 0.00205288 0.0110198 0.0512651 -0.0391126 -0.0302434 -0.0256017 -0.0180879 0.0142951 -0.00376447 -0.0514402 -0.045044 0.00473002 0.0138823 0.0446857 0.0212014 -0.048471 -0.0393998 -0.0249074 0.00106361 -0.022234 -0.0145143 -0.0303209 -0.0473896 -0.0406855 0.0549714 0.0395079 0.0523293 0.0289854 0.000120279
internal_weight=138391 95725.9 84701.5 67437.4 59486.1 37182.7 42665.3 32655.1 22303.4 23828.3 20344.2 17264.1 28434.7 10273.4 19468.4 9211.57 15541.2 10504 17540.4 4220.35 1904.33 13682.4 3858.03 11024.4 7969.28 10256.9 8127.4 2345.18 1736.82 18161.4 13251.9 5037.24 4141.28 1722.9 1078.97 8100.22 5701 3484.18 1384.91 6518.91 5175.71 7278.99 8158.81 7323.15 2835.02 1863.5 1658.93 965.71 3491.17
internal_count=565372 390411 345583 275424 242703 152073 174961 133621 90630 97113 82961 70159 116193 41955 78925 37478 63045 42612 71231 17428 7865 55363 15868 44828 32329 41447 32847 9560 7076 74238 54111 20433 16810 7114 4437 33053 23213 14152 5632 26371 20931 29355 33052 29678 11705 7678 6849 3976 14129
is_linear=0
shrinkage=0.05


Tree=6
num_leaves=50
num_cat=0
split_feature=118 111 12 12 12 27 2 2 11 11 12 27 27 27 12 12 12 12 12 118 39 4 4 12 25 25 82 82 119 119 111 12 12 2 111 37 37 27 27 23 23 12 25 25 119 4 4 4 4
split_gain=35908.6 11808.7 7054.94 10449 6852.78 5558.23 4818.66 16579.3 3847.63 4397.1 2273.45 2197.11 2303.69 4283.29 2145.06 1706.84 2505.86 3828.41 3393.42 1652.6 1575.16 1320.14 3516.87 1298.23 1262.71 4908.47 1066.62 3962.05 1041.1 1934.28 988.861 973.748 2232.96 964.03 853.326 812.869 2717.85 709.234 724.206 689.741 2948 677.324 666.174 2190.4 654.918 554.23 1990.08 552.636 3179.48
threshold=-0.11041824239035751 -0.59822735010986772 -1.4999867092352126 -1.0000000180025095e-35 -1.4999867092352126 0.66665878129364964 1.0000000180025095e-35 0.99999469241310746 -1.4999867092352126 -1.0000000180025095e-35 -1.4999867092352126 -0.49999167699478791 -0.1666890281088578 -0.16666042380034515 -1.0000000180025095e-35 -0.49988259254468853 -1.000010630008346 -0.99992621211794785 -0.50001856265446032 0.35930371666545519 0.21427673183440163 -0.99999469241310723 -1.0000000180025095e-35 -1.0000000180025095e-35 0.99999113949014207 1.0000000180025095e-35 -0.99998170741032488 -1.0000000180025095e-35 1.0000000180025095e-35 0.35859758310003637 -0.33929923410513002 -0.99992621211794785 -1.000010630008346 1.0000000180025095e-35 -0.2669112810246283 1.0000000180025095e-35 0.99999269668868818 -0.58332964145422572 -0.58466735097846201 1.0000000180025095e-35 0.99994600225521513 -1.0000000180025095e-35 0.99999113949014207 1.0000000180025095e-35 0.36261211441747776 -0.99999469241310723 -1.0000000180025095e-35 -0.99999469241310723 -1.0000000180025095e-35
decision_type=2 2 2 2 2 2 2 2 2 2 2 2 2 2 2 2 2 2 2 2 2 2 2 2 2 2 2 2 2 2 2 2 2 2 2 2 2 2 2 2 2 2 2 2 2 2 2 2 2
left_child=1 10 -2 15 30 8 19 -8 23 37 -1 41 -13 33 31 16 -4 -18 -19 28 -15 -7 -23 -6 25 39 -9 -28 -5 -30 -3 32 -12 -14 -24 -29 -37 38 -10 -16 -41 -11 43 -36 -31 -25 -47 -32 -49
right_child=2 4 3 6 5 21 7 26 9 11 14 12 13 20 24 -17 17 18 -20 -21 -22 22 34 45 -26 -27 27 35 29 44 47 -33 -34 -35 42 36 -38 -39 -40 40 -42 -43 -44 -45 -46 46 -48 48 -50
leaf_value=-0.053601158711263731 -0.064281139337258944 0.070196246664022702 0.082127185282156109 -0.051061257632719376 0.051285023342250304 -0.037412212674255589 0.08467008562015732 -0.062551247970051377 0.064787612145586509 0.050403117915353284 0.082332726863839883 0.075165335466472125 -0.033741492369334346 0.060857816800452186 -0.02829687203355833 0.082854375495087548 -0.073784546967172751 0.082967673556709601 -0.077357454842086296 -0.057415398815722468 0.019464382021693552 0.089116468505058929 0.064600439204958837 -0.038682443995186389 -0.043434702013193022 0.086501544599316915 0.087401082600846544 -0.051232423717017229 0.014516539903490748 -0.059454296357389538 -0.05060558329721189 0.066049315029623454 -0.06402986215609284 0.012512273950250711 -0.013479960173022432 0.093702582368930198 -0.040054966564158967 0.076060421458068184 -0.0236477036539368 0.093212779748003488 -0.036698793570622994 -0.0025829673829932962 -0.044818249745834857 0.089658167668258154 -0.023956773359584883 0.088361823629695191 -0.014427081783822158 0.099198872549180361 -0.032562006740839387
leaf_weight=3062.2214456945658 12007.155001446605 288.28649382293224 1274.8231356889009 4375.2093438208103 1211.284389257431 1741.673770070076 3641.6673600524664 3184.5704378783703 628.14250709116459 718.86882045865059 472.04506266117096 4787.1934190988541 1573.9971866905689 10372.389786869287 6092.0234155505896 1714.9918936043978 1133.09685587883 1348.2891176342964 437.02428534626961 11970.124214157462 2952.4598581194878 1206.8313195556402 423.10760149359703 1058.8136388212442 2904.9421583712101 1250.4300185441971 676.94663493335247 4785.9399856925011 2622.7649455964565 2120.458403930068 1505.683910176158 1314.3451623469591 581.73901472985744 3962.4443507343531 4279.059757694602 460.4357363730669 2167.9382078498602 12509.529595762491 366.6145021468401 647.66385182738304 1340.5730497837067 3746.2260605990887 1059.8808958977461 585.18456402420998 3355.5807193815708 565.5223383307457 2813.9477721303701 528.12509478628635 3440.7642907202244
leaf_count=12562 50172 1175 5370 17829 5061 7062 15143 13174 2610 2996 1984 19839 6346 42829 24661 7190 4708 5650 1774 49622 12079 4989 1739 4269 11795 5167 2788 19587 10686 8666 6126 5492 2379 16167 17342 1872 8837 52603 1494 2639 5410 15220 4303 2412 13733 2323 11365 2145 13988
internal_value=1.34302e-05 0.0216531 -0.0302081 -0.0211707 0.0318808 0.0371729 -0.0304774 -0.00808317 0.0441236 0.0493796 -0.0144308 0.0381156 0.0441893 0.0363273 -0.00621727 0.040832 0.0236452 -0.00190094 0.0437219 -0.0441439 0.051686 0.00182929 0.0108769 0.00540515 -0.0146476 -0.00568532 -0.038039 -0.0283914 -0.0314085 -0.0207914 -0.0200609 0.0373407 0.0015336 -0.000637562 -0.00399923 -0.0389635 -0.0166235 0.0728292 0.0321951 -0.0199513 0.00561962 0.00594766 -0.0088987 -0.0010721 -0.0377023 -0.00711626 0.00277367 -0.0248138 -0.0150291
internal_weight=137269 79992 57277 45269.9 62326 56563.2 39361.6 14917.5 47267.4 41617.9 17666 28113.6 23648.5 18861.3 14603.8 5908.23 4193.23 2918.41 1785.31 24444.1 13324.8 9295.74 7554.06 5649.57 12235.6 9330.69 11275.8 8091.26 12474 8098.8 5762.86 2368.13 1053.78 5536.44 6347.23 7414.31 2628.37 13504.3 994.757 8080.26 1988.24 4465.09 5924.13 4864.24 5476.04 4438.28 3379.47 5474.57 3968.89
internal_count=565372 328571 236801 186629 256482 233048 161937 61401 195201 172183 72089 115476 97260 77421 59527 24692 17502 12132 7424 100536 54908 37847 30785 23018 49672 37877 46258 33084 50914 33085 23434 9855 4363 22513 25796 30296 10709 56707 4104 32710 8049 18216 24057 19754 22399 17957 13688 22259 16133
is_linear=0
shrinkage=0.05


Tree=7
num_leaves=50
num_cat=0
split_feature=118 12 25 25 12 106 106 12 12 2 2 2 2 118 23 23 12 12 12 12 12 12 4 106 106 4 118 122 118 118 25 25 12 118 118 4 4 25 25 2 2 12 12 12 118 3 22 12 12
split_gain=32820.4 12383.4 9690.04 17650.9 6632.35 5410.76 9101.3 4357.37 7103.05 4044.92 11771.4 2944.19 11475.3 1882.36 1842.68 4883.81 1419.19 6180.11 1343.77 1981.31 2411.52 2408.74 1332.96 991.312 4968.68 958.791 768.001 756.733 723.386 719.367 709.598 6283.48 587.07 533.588 485.798 472.79 1883.5 465.51 2098 436.879 3317.21 406.529 413.387 372.207 353.089 312.746 312.099 379.352 510.748
threshold=0.064842543047501783 -1.4999867092352126 0.99999113949014207 1.0000000180025095e-35 -1.0000000180025095e-35 -0.49999441898659341 -1.0000000180025095e-35 -1.4999867092352126 -1.0000000180025095e-35 1.0000000180025095e-35 0.99999469241310746 1.0000000180025095e-35 0.99999469241310746 -0.73096869577341705 1.0000000180025095e-35 0.99994600225521513 -0.99992621211794785 -1.000010630008346 -0.49988259254468853 -1.000010630008346 -0.99992621211794785 -0.50001856265446032 -0.99999469241310723 -0.49999441898659341 -1.0000000180025095e-35 -0.99999469241310723 -0.72165914250845831 1.7635459196597389 -0.75082530258869695 0.43823781545135848 0.99999113949014207 1.0000000180025095e-35 -1.0000000180025095e-35 -0.99587704106786223 0.47020865813090007 -0.99999469241310723 -1.0000000180025095e-35 0.99999113949014207 1.0000000180025095e-35 1.0000000180025095e-35 0.99999469241310746 -0.49988259254468853 -1.000010630008346 -1.0000000180025095e-35 -1.26136797470714 0.99999113949014207 -0.99999211462698268 -0.49988259254468853 -0.50001856265446032
decision_type=2 2 2 2 2 2 2 2 2 2 2 2 2 2 2 2 2 2 2 2 2 2 2 2 2 2 2 2 2 2 2 2 2 2 2 2 2 2 2 2 2 2 2 2 2 2 2 2 2
left_child=1 26 3 4 16 28 -7 -2 18 13 -11 23 -13 27 32 -16 17 -3 19 -9 -21 -22 -12 -10 -25 -15 35 -8 -6 37 31 34 41 -17 45 -1 -37 38 -14 -28 -41 42 -4 -35 -34 -26 47 48 -18
right_child=7 2 14 -5 5 6 9 8 11 10 22 12 29 25 15 33 46 -19 -20 20 21 -23 -24 24 30 -27 39 -29 -30 -31 -32 -33 44 43 -36 36 -38 -39 -40 40 -42 -43 -44 -45 -46 -47 -48 -49 -50
leaf_value=-0.043650195443864274 -0.063976029799543185 0.079922571840548864 0.079455154353923918 0.081061252122147473 -0.013220892187895223 0.084956059062090666 0.01740073395700768 0.079680054783991261 -0.069766567534643942 0.083476146461292311 -0.035196268514350107 0.082129702911940355 -0.032231768842402135 -0.050223359443144926 0.084561147458927372 0.0042437000006496474 0.08538245656335286 -0.061357206088905908 0.080454792222003288 -0.07140027310085173 0.080408727735801641 -0.075581840573129194 0.0053829651051895975 0.096933913405504696 -0.035622441425461483 -0.013693953482124613 -0.054012531535207312 -0.037997309474129021 -0.049097577686481181 -0.057508450055737896 -0.064879033500703745 0.097182909064376419 -0.0080142420752833642 0.01174030032490047 -0.062416770526137623 0.094046090155092826 -0.022150759392242595 -0.05810117538918478 0.095652816554388315 0.10117824690787176 -0.052166138098984099 0.079940387338803279 -0.035303979691593289 -0.038523306518941092 -0.049027630807831256 -0.067457584326824499 0.072811030056915596 0.080022765025160397 -0.064477392753741161
leaf_weight=1080.4232486784458 10062.164281725883 2171.8399138450623 95.643767729401588 14074.828182354569 2347.886070266366 4361.969224691391 6277.0167641490698 889.42046867311001 3736.010611012578 5813.1701583117247 2660.6221941709518 2411.2089600712061 3450.9363520294428 2274.1579534113407 1368.4783021956682 1365.5801762789488 87.787827834486961 1202.7254851609468 1155.9025412946939 898.82590971887112 878.62351521849632 344.51338186860085 8454.0236161202192 625.87231113016605 4795.9059070199728 8548.7162503153086 4106.2635749578476 683.57636813819408 3498.786711871624 3800.7390054911375 4005.0137312114239 773.09245127439499 595.54492166638374 417.81495052576065 4721.3817701041698 411.06577005982399 2300.6528805941343 1039.563996091485 353.56642743945122 418.69408284127712 2236.7545838207006 144.1688052713871 437.11998203396797 3108.735363945365 4416.0791772603989 919.35702107846737 5872.9262820482254 206.08249771595001 161.3628558665514
leaf_count=4404 42755 9300 411 59986 9524 18274 25512 3819 15705 24454 10764 10174 14209 9212 5737 5560 367 4899 4932 3814 3750 1412 34487 2552 19635 34710 16999 2759 14210 15936 16770 3166 2414 1744 19828 1678 9359 4304 1450 1710 9263 617 1801 12634 18011 3772 25047 882 660
internal_value=1.62793e-05 0.0172395 0.0239045 0.0311329 0.0182676 0.0101702 0.0168829 -0.0349969 -0.0266177 0.00832853 0.0258229 -0.0349495 -0.0143228 -0.00832408 -0.0176522 0.00106407 0.0557554 0.0295692 0.034627 0.0170363 -0.00922088 0.0364718 -0.00433089 -0.0465986 -0.0411344 -0.0213697 -0.0336913 0.0119603 -0.0346903 -0.0412253 -0.046814 -0.0403597 -0.0382506 -0.0222926 -0.0505481 -0.0156805 -0.00453664 -0.0284492 -0.020347 -0.0437921 -0.0279878 0.00545435 -0.014702 -0.0325682 -0.0441539 -0.0407434 0.0697195 0.0298365 -0.0116745
internal_weight=136063 91200.5 80646.6 68697.5 54622.7 44919.9 39073.3 44862.1 34799.9 34711.3 16927.8 30632.6 11056 17783.5 11949.2 6260.61 9702.72 3374.57 4167.29 3011.38 2121.96 1223.14 11114.6 19576.6 15840.6 10822.9 10553.9 6960.59 5846.67 8644.81 15214.8 11209.7 5688.56 4892.13 10436.6 3792.14 2711.72 4844.07 3804.5 6761.71 2655.45 676.933 532.764 3526.55 5011.62 5715.26 6328.16 455.233 249.151
internal_count=565372 377389 333976 285047 225061 183906 160172 187983 145228 141898 69705 127501 46073 72193 48929 25675 41155 14199 17727 12795 8976 5162 45251 81428 65723 43922 43413 28271 23734 35899 63171 46401 23254 19938 43235 15441 11037 19963 15659 27972 10973 2829 2212 14378 20425 23407 26956 1909 1027
is_linear=0
shrinkage=0.05


Tree=8
num_leaves=50
num_cat=0
split_feature=118 111 118 111 106 106 106 106 2 2 2 2 106 106 106 106 111 106 12 12 82 82 12 12 25 25 39 39 27 27 111 111 12 12 27 118 106 106 111 27 27 27 4 27 39 12 12 12 12
split_gain=30101.7 8802.85 7493.1 5750.57 5374.91 6237.84 4412.24 6838.94 3854.55 8230.94 3143.8 7860.15 2118.82 5486.06 2519.21 3850.03 1793.06 1768.98 1666.92 1556.19 1454.21 2359.9 1251.01 3067.38 1059.81 4800.67 1023.26 1059.75 945.994 997.473 867.683 812.983 747.108 1715.16 728.048 710.132 702.037 3632.26 688.868 665.289 1070.44 1052.88 641.703 641.201 694.507 637.653 1115.15 807.276 1030.7
threshold=-0.23025895707779589 -0.59822735010986772 0.39815579006736118 -0.59822735010986772 -0.49999441898659341 -1.0000000180025095e-35 -0.49999441898659341 -1.0000000180025095e-35 1.0000000180025095e-35 0.99999469241310746 1.0000000180025095e-35 0.99999469241310746 1.0000000180025095e-35 0.49997748330013764 0.50000788537301732 0.99999530920750834 -0.33929923410513002 1.0000055245795747 -1.4999867092352126 -1.0000000180025095e-35 -0.99998170741032488 -1.0000000180025095e-35 -1.4999867092352126 -1.0000000180025095e-35 0.99999113949014207 1.0000000180025095e-35 -0.66665886097941052 0.16664482903135305 0.66665878129364964 -0.16666042380034515 -0.33929923410513002 -0.40431948561629588 -0.99992621211794785 -1.000010630008346 -1.0000000180025095e-35 -1.0981545957202044 -0.49999441898659341 -1.0000000180025095e-35 -0.33929923410513002 0.33334642973341255 0.33186037971779175 0.083378760683807659 -0.99999469241310723 0.66665878129364964 -0.66665886097941052 -0.49988259254468853 -1.000010630008346 -0.99992621211794785 -0.50001856265446032
decision_type=2 2 2 2 2 2 2 2 2 2 2 2 2 2 2 2 2 2 2 2 2 2 2 2 2 2 2 2 2 2 2 2 2 2 2 2 2 2 2 2 2 2 2 2 2 2 2 2 2
left_child=1 18 3 -2 30 -6 -5 -8 12 -10 16 -12 38 -14 -15 -16 -9 -17 -1 32 -11 -22 -4 45 25 42 -23 -28 29 -21 -3 -13 33 -20 -31 -32 -25 -38 -7 40 41 -36 -18 44 -33 46 -24 -48 -49
right_child=2 4 22 6 5 8 7 10 9 20 11 31 13 14 15 17 24 -19 19 28 21 26 23 36 -26 -27 27 -29 -30 34 35 43 -34 -35 39 -37 37 -39 -40 -41 -42 -43 -44 -45 -46 -47 47 48 -50
leaf_value=-0.047495171417115498 -0.043266866642401217 0.071758661300853274 -0.06623548541942241 -0.049390067055989834 0.080167383001305548 0.068880673564685677 0.081755933313072404 0.067331657892507488 0.079735724738012867 -0.02251788277244382 0.079528078372027175 0.078194491599470797 0.085022562216493777 -0.036936701593365137 0.085002215732628172 -0.042686221730961149 -0.055029302726673557 0.018020926837714724 0.077551361832170318 -0.019158827803232435 0.077897784217920069 -0.011215375403794428 0.077391591531190088 -0.067765734640528083 -0.052976065935897432 0.082766385444583701 0.040074268509108224 -0.0022282946549089405 -0.039878770128531082 0.069569232751658397 0.0096872795546283016 -0.035761916094981763 0.062226760324876187 -0.058659463230510557 -0.01928358005227343 -0.027585758983760478 0.09490669906962558 -0.047109453524998415 -0.015069131382976889 0.043093779044982426 -0.042876264467267972 0.070276142581955137 -0.021039800319930989 -0.050870064477717074 0.0030194825198575632 0.078332032042313759 -0.069678370136079137 0.078079909073253184 -0.073739747922840757
leaf_weight=2580.6576342135668 10611.00034712255 295.90210957825184 6285.8570694625378 3973.764437481761 7268.7318320125341 255.48990078270435 2748.4795831888914 581.69196155667305 9400.5744671225548 1873.9670527726412 3510.2926149070263 237.14214217662811 2937.8410850018263 2425.8265497237444 1829.0559669584036 1605.8254265040159 1738.7299586981535 4748.4471824318171 418.71709360182285 4643.9175797849894 1776.7546578347683 2656.6681027561426 390.71607282757759 3281.4605396687984 2312.4509131759405 1105.7800375968218 4314.7498831450939 2253.8776572793722 2265.4019423872232 531.23652571439743 1856.9148565083742 1671.3879182487726 1178.9284683912992 515.82038183510303 685.68165268003941 4098.0381970703602 467.84177832305431 11964.753795281053 5611.3572019040585 908.08084627985954 1123.7431404441595 629.39001131057739 6896.2932251393795 1099.0621711164713 3732.4629759788513 398.30965384840965 468.5798554867506 305.36251127719879 176.35914069414139
leaf_count=10743 44510 1247 27258 16620 31460 1081 11865 2432 40670 7708 15244 1004 12357 9883 7696 6535 7169 19613 1833 18973 7760 10801 1715 14078 9646 4708 17841 9210 9271 2197 7649 6884 5077 2146 2802 16810 1948 50790 22979 3751 4568 2607 28383 4567 15423 1732 2060 1331 737
internal_value=2.06313e-05 0.0225074 -0.0248336 -0.0116852 0.0318506 0.037425 -0.000366657 0.00723298 0.0299728 0.0441657 -0.00171708 0.0188578 0.0136871 0.0245574 0.00781368 0.0210793 -0.0184088 0.00267927 -0.0108122 -0.00347425 0.0181966 0.0251315 -0.0471094 -0.0402212 -0.0225467 -0.0153228 0.0149689 0.0255591 -0.0111608 -0.00352672 -0.0118105 -0.01274 0.0357589 0.00236944 0.0151921 -0.015963 -0.0471948 -0.0417653 -0.0114133 0.00656113 -0.00704162 0.0235795 -0.0278839 -0.0160561 -0.00897544 0.0227828 0.00628348 -0.0229526 0.0224985
internal_weight=134649 70691.6 63957.8 40218.5 55210 48959.2 29607.5 25633.8 41690.4 22276.6 22885.3 10250.3 19413.8 13547 10609.2 8183.33 12634.9 6354.27 15481.6 12900.9 12876 11002.1 23739.2 17453.4 12053.3 9740.8 9225.3 6568.63 10787.5 8522.05 6250.86 6740.06 2113.47 934.537 3878.13 5954.95 15714.1 12432.6 5866.85 3346.9 2438.81 1315.07 8635.02 6502.91 5403.85 1739.33 1341.02 950.302 481.722
internal_count=565372 295268 270104 168455 231300 205594 123945 107325 174134 93990 95460 43122 80144 56084 43727 33844 52338 26148 63968 53225 53320 45612 101649 74391 49906 40260 37852 27051 44169 34898 25706 27878 9056 3979 15925 24459 66816 52738 24060 13728 9977 5409 35552 26874 22307 7575 5843 4128 2068
is_linear=0
shrinkage=0.05


Tree=9
num_leaves=50
num_cat=0
split_feature=118 82 82 27 27 39 39 12 12 39 118 39 106 27 27 82 82 114 27 27 27 12 12 4 4 12 12 12 12 106 4 4 11 11 27 27 27 12 12 12 12 4 4 27 118 114 114 75 27
split_gain=27548.2 11282.2 14737.7 7603.23 6982.72 5242.15 5000.27 3744.47 6016.92 3271.74 2276.77 2044.63 2039.79 1763.4 3160.54 1741.65 6078.35 1419.36 1384.79 1373.33 1260.74 1230.85 1226.31 1206.3 4450.4 1165.53 1706.04 2053.89 2068.55 901.832 824.716 3669.65 808.839 1953.56 696.046 669.54 866.386 656.91 708.391 747.043 831.726 609.241 3742.17 585.863 541.506 517.041 621.456 506.038 480.836
threshold=0.072892944514140787 -0.99998170741032488 -1.0000000180025095e-35 0.66665878129364964 -0.58332964145422572 -0.66665886097941052 0.21427673183440163 -1.4999867092352126 -1.0000000180025095e-35 0.21428853094563338 0.5144006415365131 0.42478815613597037 -0.49999441898659341 -0.58466735097846201 -0.66663769471818812 -0.99998170741032488 -1.0000000180025095e-35 -0.49999605731349134 0.33334642973341255 0.66665878129364964 0.33334642973341255 -1.4999867092352126 -1.0000000180025095e-35 -0.99999469241310723 -1.0000000180025095e-35 -0.49988259254468853 -1.000010630008346 -0.99992621211794785 -0.50001856265446032 -1.0000000180025095e-35 -0.99999469241310723 -1.0000000180025095e-35 -1.4999867092352126 -0.75177285658743565 0.33334642973341255 -0.83315614816255923 -0.75015438391230449 -0.49988259254468853 -1.000010630008346 -0.99992621211794785 -0.50001856265446032 -0.99999469241310723 -1.0000000180025095e-35 0.33186037971779175 -0.83724551055036356 1.0000000180025095e-35 0.49768733305710838 1.0000000180025095e-35 -0.74996576036478091
decision_type=2 2 2 2 2 2 2 2 2 2 2 2 2 2 2 2 2 2 2 2 2 2 2 2 2 2 2 2 2 2 2 2 2 2 2 2 2 2 2 2 2 2 2 2 2 2 2 2 2
left_child=1 21 -3 4 13 23 12 -2 25 44 15 -11 45 14 35 -10 -17 -14 -13 20 32 -1 37 -6 -25 26 -9 -28 -29 -19 -24 -32 -18 -34 43 -4 -37 38 -23 -40 -41 -5 -43 -26 -8 -7 -47 -33 -38
right_child=7 2 3 41 5 6 9 8 10 11 -12 18 17 -15 -16 16 19 29 -20 -21 -22 22 30 24 34 -27 27 28 -30 -31 31 47 33 -35 -36 36 48 -39 39 40 -42 42 -44 -45 -46 46 -48 -49 -50
leaf_value=-0.053758244248424326 -0.060228157890138814 0.076739557268304406 -0.065901231832873636 -0.049082552527909308 -0.029891470589251193 -0.016702239916438318 0.00049575533248370893 0.076105981959334532 -0.050394561879224788 0.057701076892610517 -0.04989709379600743 -0.021513791483138929 0.0095065638589297268 -0.054456271145480961 0.083557076970947719 0.089086818401381079 -0.051464782103352903 0.078711059306709616 0.070323617025549665 -0.05416990131196639 0.03751275418542753 0.075750033003556261 -0.049403985045663568 0.081928234637838132 -0.010066835461830279 0.076888181396996033 -0.067398539365861251 0.076907153030721639 -0.070604020779981277 0.052058095242526539 0.0870508275317953 -0.042409233157335219 0.093364718790933776 -0.019950910364546728 0.038506302888494021 0.0851598902297101 -0.060253744811978149 0.076309423587736291 -0.058765964912589667 0.076546406404719575 -0.058373770267946649 0.089377697242436493 -0.032246764382062469 -0.056937209854610329 -0.035463539961972927 0.085719772141846076 0.0058839583441966815 -0.015710487086658998 -0.0061065450556082868
leaf_weight=2807.6771773844957 9660.0769177824259 11135.136371836066 816.00930957496166 2399.4063156694174 2885.1512313038111 1273.6318452209234 1588.9998994022608 840.08314798772335 4041.5378249287605 3445.715448692441 11613.12886159122 1933.3142906725407 1720.4034310132265 3020.3000056147575 821.31746849417686 1317.3122111260891 1743.8545490503311 3832.9900842010975 521.1125453710556 2872.064657241106 1028.9667833596468 272.94981156289577 2361.7080497592688 1618.0912861526012 5051.755052447319 1095.1144916117191 857.17615330219269 829.0770979821682 333.16386125981808 18453.478018313646 782.98740702867508 3045.7237293124199 403.7143988609314 6573.3273006379604 644.59649845957756 204.77793587744236 597.04338200390339 424.78756186366081 493.84132394194603 318.07867746055126 178.23180946707726 704.32641440629959 6196.8356953114271 768.08214236795902 3068.9982287883759 344.7179898172617 832.2600474357605 4253.0496339052916 1308.7320349663496
leaf_count=11898 42393 49580 3361 9865 11837 5227 6528 3752 17152 14628 50088 7972 7171 12394 3492 5583 7355 16862 2256 12133 4335 1222 9747 6937 20847 4848 3765 3670 1398 78126 3281 12586 1704 27606 2709 871 2418 1889 2091 1410 740 2919 25366 3124 12597 1447 3422 17377 5393
internal_value=2.54149e-05 0.0157618 0.0236473 0.0144175 0.0215175 0.0282237 0.0372196 -0.0327981 -0.0248998 0.00812883 -0.0326404 0.0328594 0.0488285 -0.0260263 -0.00311541 -0.0214949 -0.0131157 0.0532642 -0.0020153 -0.0237823 -0.0148309 -0.0239255 -0.0170211 -0.00213725 0.00776994 0.0330256 0.0162274 -0.00868229 0.0346221 0.0566421 -0.023412 -0.0158164 -0.0210068 -0.0133941 -0.0107924 -0.0274394 -0.0125688 0.0225216 0.00443243 -0.0152273 0.0280947 -0.0273796 -0.0198339 -0.0162526 -0.0231966 0.00537565 0.0292666 -0.0268517 -0.0230698
internal_weight=133335 90126.2 75187.2 64052 54751.5 47983.3 37015.6 43208.6 33548.5 10558.1 29593.9 5900.14 26457.5 6768.18 3747.88 17980.8 13939.2 24006.9 2454.43 12621.9 9749.86 14939 12131.4 10967.7 8082.52 3954.61 2859.5 2019.42 1162.24 22286.5 10443.5 8081.76 8720.9 6977.04 6464.43 2926.56 2110.55 1687.89 1263.1 990.152 496.31 9300.57 6901.16 5819.84 4658 2450.61 1176.98 7298.77 1905.78
internal_count=565372 379590 317349 267769 229619 201690 156236 185782 143389 43981 125956 24856 112255 27929 15535 75868 58716 102159 10228 53133 41000 62241 50343 45454 33617 17433 12585 8833 5068 94988 42991 33244 36665 29310 26680 12043 8682 7352 5463 4241 2150 38150 28285 23971 19125 10096 4869 29963 7811
is_linear=0
shrinkage=0.05


Tree=10
num_leaves=50
num_cat=0
split_feature=119 82 82 114 114 114 114 12 111 111 2 2 111 2 2 23 12 12 119 119 119 119 4 4 25 25 4 4 12 12 12 12 75 23 30 30 4 4 4 4 42 119 38 38 42 12 31 31 12
split_gain=24574.3 11079.8 14600.8 8143.7 8354.43 7780.66 14153.6 3474.64 3232.03 3578.17 2460.85 10151.5 1935.38 1912.79 7099.56 1396.94 1187.54 1237.68 845.444 1378.57 835.454 985.254 789.857 3629.79 774.264 3563.89 743.752 4974.03 631.219 664.826 638.138 813.319 537.36 497.144 461.121 1067.14 447.57 2497.31 446.196 1213.18 413.26 399.356 378.349 2117.38 351.32 316.947 313.27 601.644 288.732
threshold=0.35859758310003637 -0.99998170741032488 -1.0000000180025095e-35 -0.49999605731349134 -1.0000000180025095e-35 1.0000000180025095e-35 0.49768733305710838 -1.4999867092352126 -0.59822735010986772 -0.40431948561629588 1.0000000180025095e-35 0.99999469241310746 -0.59999571987497646 1.0000000180025095e-35 0.99999469241310746 1.0000000180025095e-35 -1.4999867092352126 -1.0000000180025095e-35 -1.0000000180025095e-35 0.0060324535418202268 1.7779125295238678 0.36261211441747776 -0.99999469241310723 -1.0000000180025095e-35 0.99999113949014207 1.0000000180025095e-35 -0.99999469241310723 -1.0000000180025095e-35 -0.49988259254468853 -1.000010630008346 -0.99992621211794785 -0.50001856265446032 0.0060387071699202497 1.0000000180025095e-35 -0.99999149236625939 -1.0000000180025095e-35 -0.99999469241310723 -1.0000000180025095e-35 -0.99999469241310723 -1.0000000180025095e-35 0.36789868565330724 0.84526130383576126 1.0000000180025095e-35 0.99999269668868818 -0.13081129637087305 -1.000010630008346 -0.99999634834434392 -0.75227959447862847 -1.4999867092352126
decision_type=2 2 2 2 2 2 2 2 2 2 2 2 2 2 2 2 2 2 2 2 2 2 2 2 2 2 2 2 2 2 2 2 2 2 2 2 2 2 2 2 2 2 2 2 2 2 2 2 2
left_child=1 16 -3 18 -5 13 -7 -8 48 -10 20 -12 45 24 -15 -14 -1 28 38 -20 21 -11 -19 -24 25 33 -23 -28 29 -18 -31 -32 -25 -6 -13 -36 -16 -38 -4 -40 46 -29 -37 -44 -21 -9 -34 -48 -2
right_child=8 2 3 4 5 6 7 12 9 10 11 34 15 14 36 -17 17 22 19 44 -22 26 23 32 -26 -27 27 41 -30 30 31 -33 40 -35 35 42 37 -39 39 -41 -42 -43 43 -45 -46 -47 47 -49 -50
leaf_value=-0.052958012956178004 -0.065885220937348013 0.075222232438397221 -0.043868783911267889 0.081514058801295558 -0.033676601050736381 0.080347305159259044 -0.043193316240029228 0.076738017272409142 0.081985250546439126 -0.055232491339870828 0.078725585737731113 -0.065672744103824662 0.011538479416728423 0.077077512437944085 -0.044907806223961039 0.0445726122069241 0.074171375296722755 -0.048496564596597819 -0.047755161607844987 0.048853474369308814 -0.055442740417170781 -0.0490360845050559 0.085241637232111367 -0.042287079085896274 -0.048846339632797282 0.078342493592534576 0.094806802984452043 -0.015022270031330371 0.074544539320614486 -0.056702371564070736 0.074768528059555472 -0.056267344898858179 -0.04771974089580161 -0.0024580332555484167 0.096562662706593985 -0.041602654456545499 0.084052029910520187 -0.02898952676766612 0.083358058631833987 -0.011105866463608749 -0.051182444961714535 -0.040966370189462593 0.091413776764759758 -0.043358375953663132 -0.0076303828912518152 -0.023252162736528501 0.096247265964783169 -0.0083165817965228147 -0.049062749778496395
leaf_weight=2898.7760520875454 3647.6258692294359 11087.15209659934 638.61282768845558 5158.7050940096378 6269.4432014524937 9692.4733288139105 2969.408738642931 81.419387891888618 785.33114902675152 3112.2451301515102 2588.0170978456736 1115.5910492241383 8967.8532788306475 2586.0210681706667 1607.3686085641384 4976.1210957467556 267.7710038870573 2466.4739375412464 5721.9429191052914 358.72274242341518 4827.7463885992765 2076.5766353905201 796.84014570713043 3257.451899215579 2366.428767696023 887.96532924473286 900.62732794880867 2425.728916823864 433.33192212879658 469.45723021030426 308.3554523140192 192.24876467883587 462.61337694525719 1600.8843129873276 160.23482458293438 4578.9138734340668 563.7899139970541 3662.539802595973 397.1731159389019 2356.5020512640476 691.25789479911327 3817.7482574284077 372.39998945593834 1340.4184753745794 1183.6724412292242 2977.4378896802664 143.75097616016865 3198.2767865210772 8481.6256918609142
leaf_count=12499 16338 50499 2622 22425 25787 42270 12348 360 3436 13245 11560 4864 37475 11537 6590 21193 1226 10296 23779 1508 21329 9024 3386 13593 9813 3919 3889 10351 1973 2016 1399 813 1895 6607 680 19651 2399 15030 1698 9689 2880 16614 1570 5693 4999 12203 589 13096 36717
internal_value=2.88204e-05 0.0143223 0.0221875 0.0131446 0.0209786 0.0146325 0.0307704 0.00671089 -0.0325504 -0.0232398 -0.026265 -0.00675677 0.0154263 -0.0098617 0.00811821 0.0233272 -0.0240842 -0.0174874 -0.0268226 -0.0364464 -0.0378098 -0.0309073 -0.0235696 -0.016379 -0.0234698 -0.0166132 -0.0226969 -0.0150409 0.0226082 0.00442674 -0.0148252 0.0244464 -0.0268229 -0.0273265 -0.0359907 -0.0308585 -0.0224508 -0.0139098 -0.00621368 0.00251903 -0.0156185 -0.0308865 -0.0341036 -0.0140563 0.00550636 -0.0205907 -0.00915694 -0.00381897 -0.0541218
internal_weight=131929 91698.2 76111.6 65024.5 54367.9 49209.2 29664.7 19972.2 40230.8 28101.6 27316.2 10155.6 17002.8 19544.4 8419.72 13944 15586.6 12687.8 10656.6 7264.34 17160.7 12332.9 11016.7 8550.19 11124.7 8758.29 9220.68 7144.1 1671.16 1237.83 970.061 500.604 7753.35 7870.33 7567.56 6451.97 5833.7 4226.33 3392.29 2753.68 4495.9 6243.48 6291.73 1712.82 1542.4 3058.86 3804.64 3342.03 12129.3
internal_count=565372 390411 324750 274251 229956 207531 125849 83579 174961 121906 118470 44018 71231 81682 35556 58668 65661 53162 44295 30286 74452 53123 45735 35439 46126 36313 39878 30854 7427 5454 4228 2212 32053 32394 32458 27594 24019 17429 14009 11387 18460 26965 26914 7263 6507 12563 15580 13685 53055
is_linear=0
shrinkage=0.05


Tree=11
num_leaves=50
num_cat=0
split_feature=118 111 106 106 25 25 31 31 106 106 118 31 31 31 31 111 27 27 39 12 12 25 25 31 31 12 12 82 82 23 23 118 111 111 111 4 4 12 12 23 23 111 111 23 23 31 118 118 1
split_gain=23673 6958.16 6496.42 15671.3 4577.81 18912.5 4468.1 5275.55 3020.82 3018.81 2779.81 2447.9 4550.79 2969.75 5661.85 2025.66 1511.55 1490.36 1352.14 1262.45 1219.68 765.74 3179.75 718.215 793.096 621.637 1370.51 613.872 3718.72 484.957 2016.81 467.71 464.077 428.372 379.878 367.17 1721.48 352.53 743.422 341.882 3238.98 338.593 277.741 273.472 1051.54 270.202 265.876 245.014 218.98
threshold=-0.2540585923707252 -0.59822735010986772 -0.49999441898659341 -1.0000000180025095e-35 0.99999113949014207 1.0000000180025095e-35 0.49994726033240189 -0.99999634834434392 -0.49999441898659341 -1.0000000180025095e-35 0.323653823611878 0.25001787767551714 0.24841787006289898 1.0000000180025095e-35 -1.0000000180025095e-35 -0.59822735010986772 0.66665878129364964 -0.58332964145422572 -0.66665886097941052 -1.4999867092352126 -1.0000000180025095e-35 0.99999113949014207 1.0000000180025095e-35 -0.75227959447862847 0.25001787767551714 -0.99992621211794785 -1.000010630008346 -0.99998170741032488 -1.0000000180025095e-35 1.0000000180025095e-35 0.99994600225521513 -1.2049215398557314 -0.33929923410513002 -0.33929923410513002 -0.33929923410513002 -0.99999469241310723 -1.0000000180025095e-35 -1.4999867092352126 -1.0000000180025095e-35 1.0000000180025095e-35 0.99994600225521513 -0.33929923410513002 -0.40431948561629588 1.0000000180025095e-35 0.99994600225521513 -0.74999791001600913 -1.321015885524659 -0.84759846611810763 0.013294931957215263
decision_type=2 2 2 2 2 2 2 2 2 2 2 2 2 2 2 2 2 2 2 2 2 2 2 2 2 2 2 2 2 2 2 2 2 2 2 2 2 2 2 2 2 2 2 2 2 2 2 2 2
left_child=1 19 -2 -4 5 10 7 32 23 -10 15 12 13 14 -11 -5 17 -17 -19 -1 25 22 29 -9 31 26 -21 -12 -29 35 -31 -25 -3 -8 -14 -22 -37 -30 -39 -6 -41 -33 -18 -34 -45 -43 -35 -36 -44
right_child=2 6 3 4 39 -7 33 8 9 11 27 -13 34 -15 -16 16 42 18 -20 20 21 -23 -24 24 -26 -27 -28 28 37 30 -32 41 43 46 47 36 -38 38 -40 40 -42 45 48 44 -46 -47 -48 -49 -50
leaf_value=-0.042480909502296708 -0.056312786888768895 0.06492964557058388 0.081301130061739266 -0.043632720860693294 -0.057707451528855813 0.082664728336449153 0.062330217868780492 0.082771951963116527 0.075372898352873821 0.043020095147580012 -0.062842733171841803 0.079038690627351471 0.061515890856867643 0.079017754137720067 -0.030389143201221547 -0.044268556852926993 0.075866974065098042 -0.023210627724965193 0.020488314644653952 0.072399098031128789 -0.04683917526582277 -0.034519849839344703 0.0782655301901449 0.017485334079201137 0.081939063770482157 0.058095140174221509 -0.053756437820577443 0.095249327596920619 -0.063703417016426553 0.085106531484511971 -0.029768634065510127 0.062377411741553125 -0.030221590007638594 0.005352906234427305 -0.0079166248989080753 0.084910486599444002 -0.026112960281813494 0.014175801738454098 -0.04490438244007857 0.091539385564100836 -0.054229023184297877 -0.055487011898988373 -0.03757587784477761 0.077285023064435091 -0.035056701063764822 -0.016359238101290516 -0.027838064960447269 -0.034557018013027352 0.092555231157530754
leaf_weight=2434.3546632677317 11263.560696169734 155.95640698075294 3950.3615100085735 4688.3892136514187 6735.3422565460205 4459.795777618885 155.80885943770409 248.75678217411041 6192.3524232506752 18974.509858861566 3445.0237973332405 3178.1271659135818 139.051628023386 4139.3809522092342 3048.6395371556282 1447.9997497349977 56.04086771607399 2322.9599867016077 7438.9283101409674 383.36737558245659 1195.182650372386 2425.7894126027822 1058.149103730917 1118.8482288718224 249.17639975249767 1094.8942641317844 491.0198609828949 494.91322019696236 2050.2862930446863 569.54183360934258 1160.8170312345028 118.06051026284695 3091.0839852392673 729.64522801339626 1549.6966017782688 387.21000075340271 3552.0816333144903 577.96263362467289 6764.1427406519651 423.79937082529068 3780.928457647562 549.55014868080616 3416.5849065035582 303.76567913591862 662.77715648710728 2238.3345131576061 3486.1575404852629 1947.9523192346096 32.6370490193367
leaf_count=10430 49743 695 17717 20048 29657 19808 701 1072 28471 82507 15448 14085 619 18365 12677 6104 243 9776 31661 1803 4927 10079 4671 4703 1078 4962 2107 2138 9381 2417 4752 515 12859 3065 6477 1635 14572 2654 29480 1848 16499 2268 14429 1363 2732 9328 14554 8110 139
internal_value=3.45032e-05 0.0207468 -0.0218811 -0.0144353 -0.0222921 -0.0139298 0.0293045 0.0337202 0.0388729 0.0433402 -0.0270894 0.0373253 0.0328765 0.0401614 0.0328581 -0.0150119 -0.00589297 0.00306808 0.0100896 -0.00957875 -0.00307646 -0.00993973 -0.00241401 0.00018236 -0.00462458 0.0329907 0.00155534 -0.0446667 -0.0383337 -0.01485 0.00804214 -0.00998377 -0.01971 -0.0190846 -0.0195314 -0.0225648 -0.0152 -0.0453726 -0.0402537 -0.0507237 -0.0395369 -0.0205599 -0.0345506 -0.0229631 0.000250125 -0.0240721 -0.0220936 -0.0227535 -0.0363446
internal_weight=130380 67030 63349.7 52086.1 48135.7 37195.7 52277.6 47906 43692.4 39169.7 32735.9 32977.4 29799.2 26162.5 22023.1 19403.5 14715.2 11209.9 9761.89 14752.4 12318.1 10348.8 7922.98 4522.73 4273.97 1969.28 874.387 13332.3 9887.3 6864.83 1730.36 4024.79 4213.58 4371.61 3636.7 5134.47 3939.29 9392.39 7342.11 10940.1 4204.73 2905.95 3505.26 4057.63 966.543 2787.88 4215.8 3497.65 3449.22
internal_count=565372 288599 276773 227030 209313 161309 226244 207924 190275 171311 141501 142840 128755 113549 95184 82400 62352 47541 41437 62355 51925 43053 32974 18964 17892 8872 3910 59101 43653 28303 7169 16814 17649 18320 15206 21134 16207 41515 32134 48004 18347 12111 14811 16954 4095 11596 17619 14587 14568
is_linear=0
shrinkage=0.05


Tree=12
num_leaves=50
num_cat=0
split_feature=118 111 12 12 2 2 31 31 4 4 31 31 31 31 106 106 12 12 25 25 12 31 12 31 31 31 31 111 111 37 37 114 114 118 12 12 25 25 12 12 111 111 118 4 4 4 82 82 2
split_gain=21636.2 6315.92 6092.18 8315.91 4078.23 14290.5 4041.03 4767.09 2776.27 5778.67 2098.85 3506.69 2529.34 4169.54 1551.7 5539.49 1398.39 4960.51 1154.08 7124.52 1137.4 1110.9 1109.81 1087.17 1089.41 1274.68 1131.31 1030.31 1058.84 812.958 2751.08 753.39 4837.69 729.434 567.926 1253.12 557.207 2486.96 432.084 2940.3 424.976 383.965 373.812 316.4 2012.76 311.979 270.49 3092.23 264.234
threshold=-0.26196852729143322 -0.59822735010986772 -1.4999867092352126 -1.0000000180025095e-35 1.0000000180025095e-35 0.99999469241310746 0.49994726033240189 -0.99999634834434392 -0.99999469241310723 -1.0000000180025095e-35 0.25001787767551714 0.24841787006289898 1.0000000180025095e-35 -1.0000000180025095e-35 -0.49999441898659341 -1.0000000180025095e-35 -0.99992621211794785 -1.000010630008346 0.99999113949014207 1.0000000180025095e-35 -1.4999867092352126 0.25001787767551714 -1.0000000180025095e-35 -0.75227959447862847 -0.74999791001600913 0.24841787006289898 1.0000000180025095e-35 -0.59822735010986772 -0.40431948561629588 1.0000000180025095e-35 0.99999269668868818 -0.49999605731349134 -1.0000000180025095e-35 -1.3010049946692217 -0.99992621211794785 -1.000010630008346 0.99999113949014207 1.0000000180025095e-35 -0.49988259254468853 -0.50001856265446032 -0.33929923410513002 -0.33929923410513002 0.44849276918326714 -0.99999469241310723 -1.0000000180025095e-35 -0.99999469241310723 -0.99998170741032488 -1.0000000180025095e-35 1.0000000180025095e-35
decision_type=2 2 2 2 2 2 2 2 2 2 2 2 2 2 2 2 2 2 2 2 2 2 2 2 2 2 2 2 2 2 2 2 2 2 2 2 2 2 2 2 2 2 2 2 2 2 2 2 2
left_child=1 20 46 16 14 -6 7 40 21 -10 11 12 13 -11 -5 -16 17 -4 19 31 -1 23 34 -9 -25 26 -26 -7 -29 42 -31 -17 -33 -24 35 -22 37 43 39 -18 -3 -8 45 -35 -45 -30 -2 -48 -42
right_child=2 6 3 4 5 27 41 8 9 10 -12 -13 -14 -15 15 18 38 -19 -20 -21 22 -23 33 24 25 -27 -28 28 29 30 -32 32 -34 36 -36 -37 -38 -39 -40 -41 48 -43 -44 44 -46 -47 47 -49 -50
leaf_value=-0.040607848749872055 -0.063142514893794896 0.06345506704248921 0.07286254775471418 -0.059263703316950724 0.076106352790441922 -0.051921871758166128 0.060477370769270337 0.077848507723414256 0.07491371707592509 0.036777789997378192 0.077145204261288014 -0.024469696373096785 0.077416282405111322 -0.033070669941172776 0.082843426090502714 -0.049818448301407178 0.073778191874357954 -0.06362337744129036 -0.054286115696812555 0.084095918516526869 0.070838839091905692 0.0778127431773359 0.017232351382933855 -0.046344191225822229 0.010045375163661408 -0.038147130753192739 0.078167817866482706 0.080873622932540135 -0.049770257369785166 0.084607102871765621 -0.02729129564685211 0.10526659416288101 -0.038037013836286764 -0.040862837057310114 0.056297736767993205 -0.05162548328359045 -0.039459535222239446 0.076310195688578428 0.073501205924936419 -0.066649525679697202 -0.033054112760105267 -0.020742414195436147 -0.053685071479928376 0.082369608274854345 -0.026469997078382719 -0.017954816319519271 0.1054138305940884 -0.053393242152954018 -0.007205918080354895
leaf_weight=2386.7526016682386 3993.3095974326134 152.29025532305241 1453.9676827937365 4754.3480642735958 4353.9184657633305 3494.8232675492764 150.76412162184715 486.05064046382904 10355.376484423876 14057.650018766522 2186.3300111889839 3001.768118172884 2815.9300999492407 2519.480436950922 1076.6053255498409 6379.3462769538164 1593.250206515193 1227.9526622444391 5045.9143424481153 1326.6148572415113 369.15519791841507 573.86396850645542 2052.2150953859091 1052.365947291255 3942.9404335469007 1152.5154240429401 720.88294146955013 252.71018531918526 1025.367880821228 704.5477731525898 2492.4766599535942 638.41656890511513 7597.6643658280373 1420.806235268712 1068.8097492456436 481.14502438902855 1946.4079086482525 754.02784866094589 1993.2723420113325 486.60318867862225 2239.2678940296173 4179.5413187146187 1706.5797373950481 482.65842543542385 3541.9116189479828 3100.2944207042456 318.7325215190649 8006.3817575871944 1770.3974322676659
leaf_count=10331 18455 692 6850 21196 19858 15285 691 2185 47785 61418 9921 12522 12760 10460 4688 27614 7417 5514 22308 5818 1787 2583 8584 4354 16913 4780 3247 1106 4334 3028 10572 2652 32322 5899 4936 2093 8153 3406 9300 2089 9293 17472 7672 2080 14603 13098 1346 36402 7500
internal_value=3.70639e-05 0.0200769 -0.0209053 -0.013243 -0.0211814 -0.00212416 0.0283053 0.0325613 0.0375217 0.0435836 0.0303851 0.02582 0.0336041 0.0261618 -0.0333544 -0.0277716 0.0384063 0.0103707 -0.0334457 -0.0268494 -0.00905924 0.0108107 -0.002845 0.00558282 0.000469078 0.00893913 0.020575 -0.0287826 -0.0200702 -0.0228954 -0.00263156 -0.0369197 -0.0269289 -0.00940927 0.0320371 0.00154202 -0.0161212 -0.00879378 0.0568662 0.0409237 -0.0185275 -0.0179147 -0.0340034 -0.0205782 -0.0134171 -0.025862 -0.0524447 -0.0473132 -0.0216413
internal_weight=128884 65861.3 63023.1 50704.7 43949.6 17130.7 51357.4 47027.1 42865.2 34936.5 24581.2 22394.8 19393.1 16577.1 26818.9 22064.6 6755.05 2681.92 20988 15942 14503.9 7928.62 12117.1 7354.76 6868.7 5816.34 4663.82 12776.8 9281.98 9029.27 3197.02 14615.4 8236.08 10198 1919.11 850.3 8145.81 6199.4 4073.13 2079.85 4161.96 4330.31 5832.24 5445.38 4024.57 4125.66 12318.4 8325.11 4009.67
internal_count=565372 286448 278924 222721 191551 74953 224576 206413 188928 154866 107081 97160 84638 71878 116598 95402 31170 12364 90714 68406 61872 34062 51541 31479 29294 24940 20160 55095 39810 38704 13600 62588 34974 42725 8816 3880 34141 25988 18806 9506 17485 18163 25104 22582 16683 17432 56203 37748 16793
is_linear=0
shrinkage=0.05


Tree=13
num_leaves=50
num_cat=0
split_feature=118 25 25 12 12 2 2 111 111 2 2 119 23 23 111 12 12 4 4 119 119 4 4 1 120 118 70 4 4 118 114 114 118 2 2 4 4 111 111 37 37 118 25 25 111 12 12 75 12
split_gain=19885 8927.46 19270.6 5858.17 5178.87 3871.19 11871.2 2624.41 3263.96 2146.78 7801.14 1769.24 1436.43 4656.38 1372.48 1161.4 4753.46 1140.33 3292.5 1126.07 1561.09 1095.62 3726.9 872.604 742.226 692.959 658.68 547.01 4749.02 527.301 498.06 1022.62 481.294 361.509 2695.84 338.777 1661.83 315.476 423.865 306.369 658.988 304.47 284.477 2023.87 283.998 280.419 2873.08 265.593 262.784
threshold=0.1209009505244583 0.99999113949014207 1.0000000180025095e-35 -1.4999867092352126 -1.0000000180025095e-35 1.0000000180025095e-35 0.99999469241310746 -0.59822735010986772 -0.40431948561629588 1.0000000180025095e-35 0.99999469241310746 -1.0000000180025095e-35 1.0000000180025095e-35 0.99994600225521513 -0.59822735010986772 -0.99992621211794785 -1.000010630008346 -0.99999469241310723 -1.0000000180025095e-35 1.0000000180025095e-35 0.35859758310003637 -0.99999469241310723 -1.0000000180025095e-35 1.0000000180025095e-35 -1.105269504204035 0.63446755131987131 -0.0030998331497029559 -0.99999469241310723 -1.0000000180025095e-35 0.43823781545135848 1.0000000180025095e-35 0.49768733305710838 -1.5743539712148229 1.0000000180025095e-35 0.99999469241310746 -0.99999469241310723 -1.0000000180025095e-35 -0.59822735010986772 -0.33929923410513002 0.0035010830896802796 0.99999269668868818 -1.1560200933542375 0.99999113949014207 1.0000000180025095e-35 -0.33929923410513002 -0.49988259254468853 -0.50001856265446032 1.0000000180025095e-35 -1.4999867092352126
decision_type=2 2 2 2 2 2 2 2 2 2 2 2 2 2 2 2 2 2 2 2 2 2 2 2 2 2 2 2 2 2 2 2 2 2 2 2 2 2 2 2 2 2 2 2 2 2 2 2 2
left_child=1 2 3 33 15 11 -7 48 -9 23 -11 17 41 -14 -8 16 -5 39 -19 30 24 44 -23 25 -21 27 -20 -10 -29 35 47 -32 -15 -1 -35 -12 -37 -34 -39 -6 -41 -3 43 -30 -16 46 -17 -13 -2
right_child=7 12 -4 4 5 6 14 8 9 10 29 19 13 32 21 45 -18 18 26 20 -22 22 -24 -25 -26 -27 -28 28 42 -31 31 -33 37 34 -36 36 -38 38 -40 40 -42 -43 -44 -45 -46 -47 -48 -49 -50
leaf_value=-0.043053755891929946 -0.062355947552528324 -0.013013415642641891 0.073633632146500705 0.071508526916876342 -0.037719821256225049 0.074455129574386755 -0.033592412352135975 0.077937118680712528 -0.050375990140823036 0.074797900830773575 -0.044416064115930791 -0.052011343075195629 0.076885946249034165 0.018495796567457819 0.061341819864945801 0.072455751121355993 -0.054405868067169183 0.078367550518794515 -0.038386269902036869 -0.061583877647775155 -0.03190356106306879 0.077778073334833872 -0.0040687960640185174 0.083983325627109834 0.038488016157718741 -0.050825223078256258 0.0060181287572915344 0.09251899191654385 -0.038315438653340306 -0.045705188212505292 0.081398770087254407 -0.026723776513263315 -0.04541235986065624 0.089723669132524497 -0.040876954412589928 0.091625221091614251 -0.024552594899118065 0.058383713905057748 -0.024946392874298409 0.084450724117895365 -0.021955881085248662 -0.042909582093747872 -0.054375182883072005 0.084397829123806334 -0.027609080167697753 0.071937526333585147 -0.062207262485829168 -0.03057165308837393 -0.045610952801762576
leaf_weight=4375.6882528066635 3311.5292840003967 986.90790097415447 13628.867347538471 1977.9718628376722 1526.9550788849592 7171.1572312265635 3127.9187612980604 796.48182591795921 2358.9262780696154 2275.2121391892433 935.43702632188797 2467.6765168756247 1340.1575749665499 547.8092990219593 93.033081963658333 2383.1770256906748 1206.9004539400339 1649.8411732167006 957.64302663505077 204.68947231769562 2051.192730769515 1742.3295937925577 6894.8951858282089 150.63858422636986 1955.0551367402077 5761.4725911468267 6528.9263027459383 801.10059309005737 5272.5482501983643 3425.2589447051287 267.92813928425312 1189.9132225215435 2179.3327687680721 468.06044229865074 2536.0351705998182 353.39753295481205 2386.1024954319 160.44566336274147 3122.0796805918217 180.48978182673454 750.69358187913895 6213.3151236027479 1601.947783485055 358.86945775151253 2530.1056177616119 3012.4815875589848 475.03925879299641 3483.8703552484512 8010.7820696681738
leaf_count=18937 15894 4130 64714 9526 6306 33560 13065 3640 10696 10797 4095 10366 6155 2301 405 11322 5132 7315 3951 848 8621 7807 28847 663 8250 26853 27195 3568 23361 15766 1168 4912 9385 1998 10962 1515 10366 708 13113 769 3092 26731 7326 1593 10446 14384 1985 14487 36346
internal_value=4.08075e-05 0.012897 0.0198643 0.00789203 0.0136193 0.00664475 0.0219008 -0.0303614 -0.0217461 -0.0248377 -0.00577301 -0.00752341 -0.0229393 -0.00738989 -0.0042924 0.0481045 0.0237935 0.00629515 0.0144286 -0.0213113 -0.000664871 0.00384659 0.0124416 -0.0357997 0.0290037 -0.0369166 0.000338149 -0.0292065 -0.0229911 -0.0315914 -0.0330452 -0.00685257 -0.0261834 -0.0338843 -0.0205284 -0.0184366 -0.00956557 -0.0306646 -0.0208733 -0.0239352 -0.00133126 -0.0388118 -0.035784 -0.0304954 -0.0244543 0.0612933 0.0500746 -0.0394611 -0.0505085
internal_weight=127188 89388.6 74838.5 61209.7 53829.9 44774.3 21559.4 37799.7 26477.4 25680.9 9375.41 23214.9 14550 7349.82 14388.3 9055.57 3184.87 11594.5 9136.41 11620.3 4210.94 11260.4 8637.22 16305.5 2159.74 16154.9 7486.57 10393.4 8034.47 7100.2 7409.39 1457.84 6009.67 7379.78 3004.1 3674.94 2739.5 5461.86 3282.53 2458.14 931.183 7200.22 7233.37 5631.42 2623.14 5870.7 2858.22 5951.55 11322.3
internal_count=565372 392893 330370 265656 233759 191410 94130 172479 120239 116599 42539 97280 62523 31662 60570 42349 14658 48628 38461 48652 17719 47505 36654 74060 9098 73397 31146 46544 35848 31742 30933 6080 25507 31897 12960 15976 11881 23206 13821 10167 3861 30861 32280 24954 10851 27691 13307 24853 52240
is_linear=0
shrinkage=0.05


Tree=14
num_leaves=50
num_cat=0
split_feature=119 106 106 82 82 27 27 25 25 82 82 31 2 2 119 27 27 4 4 3 3 27 22 27 23 23 25 25 71 71 27 75 27 37 37 2 2 4 4 122 22 27 119 119 119 2 2 2 2
split_gain=17829.2 9081.29 12514.6 6203.08 9607.17 4800.66 4037.24 3057.9 5410.31 2640.33 10966.3 2045.35 1668.33 7680.93 1129.7 1069.91 1984.84 598.178 2919.08 569.717 1726.91 561.203 1867.13 810.034 549.925 1660.35 515.986 1784.61 428.622 421.449 400.796 392.821 366.668 350.799 1749.82 317.071 1613.16 306.635 1811.78 285.41 277.106 222.533 214.224 265.622 199.749 183.838 1027.97 180.97 1543.38
threshold=0.35859758310003637 -0.49999441898659341 -1.0000000180025095e-35 -0.99998170741032488 -1.0000000180025095e-35 0.66665878129364964 -0.58332964145422572 0.99999113949014207 1.0000000180025095e-35 -0.99998170741032488 -1.0000000180025095e-35 0.49994726033240189 1.0000000180025095e-35 0.99999469241310746 -1.0000000180025095e-35 -0.58466735097846201 -0.66663769471818812 -0.99999469241310723 -1.0000000180025095e-35 0.99999113949014207 1.0000000180025095e-35 0.66665878129364964 -1.0000000180025095e-35 0.33334642973341255 1.0000000180025095e-35 0.99994600225521513 0.99999113949014207 1.0000000180025095e-35 0.99998566252165888 0.66667567359462876 -0.58332964145422572 0.0031834639707924444 -0.83315614816255923 1.0000000180025095e-35 0.99999269668868818 1.0000000180025095e-35 0.99999469241310746 -0.99999469241310723 -1.0000000180025095e-35 -0.16335722696666599 -1.0000000180025095e-35 0.41240686804966226 0.0060324535418202268 -1.0000000180025095e-35 -4.0322318946356264 1.0000000180025095e-35 0.99999469241310746 1.0000000180025095e-35 0.99999469241310746
decision_type=2 2 2 2 2 2 2 2 2 2 2 2 2 2 2 2 2 2 2 2 2 2 2 2 2 2 2 2 2 2 2 2 2 2 2 2 2 2 2 2 2 2 2 2 2 2 2 2 2
left_child=1 14 -3 17 -5 6 15 8 11 -2 -11 -8 19 -14 26 16 32 -4 -19 20 21 22 -12 30 40 -26 27 35 29 37 -24 45 -6 -15 -35 44 -37 -7 -39 -33 -9 -25 43 -41 -1 -20 -47 -16 -49
right_child=9 2 3 4 5 28 7 24 -10 10 12 -13 13 33 47 -17 -18 18 31 -21 -22 -23 23 41 25 -27 -28 -29 -30 -31 -32 39 -34 34 -36 36 -38 38 -40 42 -42 -43 -44 -45 -46 46 -48 48 -50
leaf_value=0.023511340698747815 -0.051517217449565091 0.073288205023973277 -0.045491159520542258 0.071201466121692258 -0.06019469518598989 -0.042809373187046008 0.023030651389857496 0.085565687789403391 0.072217363779169555 0.083608247366818114 0.098304891621202997 -0.027004013188725515 0.074439049967046797 -0.045736180449765705 -0.051121531859377525 -0.051723710149315885 0.077622725982584892 0.078640224701327768 -0.048956325694639813 -0.057028942082469961 0.099644272631236985 -0.052870155826968079 -0.054194186398295256 0.094772986797812347 0.075428237815328314 -0.017970436380103674 -0.04146355784405148 0.075164937221661399 -0.049684722607509418 0.08724399671172417 -0.031037083656534306 -0.037044794342939613 -0.014306136127676458 0.085709611459007629 -0.040017087428285046 0.077640709626122004 -0.026857869596650114 0.082685183045149824 -0.026195064259018165 0.002501177466158533 -0.036280546401303557 0.0094127978619370709 0.028097249347371813 -0.029082465605303337 -0.031741449143612953 0.080961365342098301 -0.041306185709096971 0.079599844350063939 -0.04845201476886711
leaf_weight=175.01328770816326 9435.2792560011148 9288.7860787659883 2385.6282155811787 7373.086292296648 586.66462075710297 1380.4162577539682 22211.440599322319 47.786808922886848 5779.8296300917864 2302.8060958385468 273.61553147435188 2249.3645160794258 1972.969034999609 4522.374846547842 3436.5328528881073 2166.8618685156107 577.95728853344917 726.9172141700983 1922.7716403007507 3534.4494783133268 235.67160408198833 3912.9602946639061 2660.4867703467607 89.947975978255272 590.81436416506767 2445.1298120617867 1320.2790423333645 593.64984312653542 1609.3886931240559 89.263247475028038 6276.8583153635263 1153.6844418942928 1687.3855945318937 324.98772057890892 1864.2886610031128 484.93174670636654 1549.0149320960045 422.3015498071909 4010.8971432894468 1379.2867549955845 1982.0644188672304 505.15858300030231 365.07321617007256 1286.7373191863298 2502.7317324578762 196.80766530334949 1358.8266351372004 268.29001751542091 1914.2331482172012
leaf_count=739 44352 45147 10468 36438 2517 5893 96641 204 27854 10631 1206 9383 9452 20416 15162 9176 2647 3384 8433 16431 1054 18163 12383 397 2736 10243 5617 2768 6880 389 28555 4935 7149 1408 8252 2181 6523 1846 16907 5830 8346 2261 1577 5491 10557 891 5919 1197 8343
internal_value=4.78072e-05 0.0124548 0.0189507 0.0113017 0.0180744 0.009886 0.0167225 0.0226873 0.0287099 -0.0285939 -0.0209986 0.0184296 -0.030202 -0.0122883 -0.0274792 -0.0252387 -0.0051162 -0.0233987 -0.017117 -0.0390975 -0.0345558 -0.0368612 -0.0304731 -0.0341695 -0.0132649 0.000205549 -0.0134931 -0.00653241 -0.0268117 -0.0205755 -0.0379305 -0.0262003 -0.0261446 -0.0377828 -0.0213536 -0.0168259 -0.00194341 -0.022231 -0.0158233 -0.0158795 -0.033412 0.0223146 -0.0078236 -0.0127424 -0.0281302 -0.0386171 -0.0258378 -0.0439706 -0.032711
internal_weight=125432 87519.8 75275.2 65986.4 55210.7 47837.6 40325.3 35306.4 30240.6 37911.9 28476.6 24460.8 26173.8 8684.62 12244.7 5018.87 2852.01 10775.7 8390.1 17489.1 13954.7 13719 9806.07 9532.45 5065.8 3035.94 6625.62 5305.34 7512.27 5902.88 8937.35 7663.19 2274.05 6711.65 2189.28 4711.69 2033.95 5813.61 4433.2 4184.78 2029.85 595.107 3031.1 2666.02 2677.75 3478.41 1555.63 5619.06 2182.52
internal_count=565372 390411 337324 292177 245249 208811 176896 155407 133878 174961 130609 106024 119978 39528 53087 21489 12313 46928 36460 80450 64019 62965 44802 43596 21529 12979 28385 22768 31915 25035 40938 33076 9666 30076 9660 20000 8704 24646 18753 17833 8550 2658 12898 11321 11296 15243 6810 24702 9540
is_linear=0
shrinkage=0.05


Tree=15
num_leaves=50
num_cat=0
split_feature=119 2 2 12 31 31 12 12 25 25 111 25 25 31 31 31 31 111 37 37 114 114 12 12 12 12 42 3 3 31 31 31 31 30 30 114 114 23 23 75 114 114 31 3 3 109 12 12 114
split_gain=16522.3 6977.48 22127 4195.13 2929.16 3433.84 2593.14 4042.24 2042.51 2788.19 1948.69 1702.38 9224.13 1625.56 2853.06 1971.65 3790.79 1494.89 1344.2 4199.23 1128.52 4119.1 1080.44 1434.51 1477.35 1984.95 710.174 630.515 781.192 629.241 658.543 626.576 797.829 531.686 1217.8 464.436 1946.24 463.9 2255.37 454.737 443.975 697.412 411.392 395.234 409.408 306.815 279.559 279.388 273.299
threshold=-1.0000000180025095e-35 1.0000000180025095e-35 0.99999469241310746 -1.4999867092352126 -0.99999634834434392 0.49994726033240189 -1.4999867092352126 -1.0000000180025095e-35 0.99999113949014207 1.0000000180025095e-35 -0.59822735010986772 0.99999113949014207 1.0000000180025095e-35 0.25001787767551714 0.24841787006289898 1.0000000180025095e-35 -1.0000000180025095e-35 -0.40431948561629588 1.0000000180025095e-35 0.99999269668868818 1.0000000180025095e-35 0.49768733305710838 -0.49988259254468853 -1.000010630008346 -0.99992621211794785 -0.50001856265446032 0.44507017646586916 0.99999113949014207 1.0000000180025095e-35 0.25001787767551714 -0.75227959447862847 -0.74999791001600913 -0.50000369702396097 -0.99999149236625939 -1.0000000180025095e-35 0.49768733305710838 1.0000000180025095e-35 1.0000000180025095e-35 0.99994600225521513 0.0096026401807196588 0.50002148631752485 0.9999817074103251 0.24841787006289898 0.99999113949014207 1.0000000180025095e-35 -0.75749834627297341 -1.0000000180025095e-35 -1.0000000180025095e-35 -1.0000000180025095e-35
decision_type=2 2 2 2 2 2 2 2 2 2 2 2 2 2 2 2 2 2 2 2 2 2 2 2 2 2 2 2 2 2 2 2 2 2 2 2 2 2 2 2 2 2 2 2 2 2 2 2 2
left_child=3 6 -3 35 47 8 -2 22 9 13 -4 12 20 14 15 16 -6 -12 33 -20 26 -22 23 -8 -25 -26 27 28 -9 30 -10 -32 -33 -19 -35 36 48 45 -39 -21 -23 -42 -34 44 -41 -36 -7 -5 -1
right_child=1 2 10 4 5 46 7 11 29 -11 17 -13 -14 -15 -16 -17 -18 18 19 39 21 40 -24 24 25 -27 -28 -29 -30 -31 31 32 42 34 37 -37 -38 38 -40 43 41 -43 -44 -45 -46 -47 -48 -49 -50
leaf_value=0.0012489588006994424 -0.051706473994762261 0.072049537305279243 -0.04554870080691311 0.020945474844828792 0.039196775056652894 0.021984363322413696 0.070917879304181183 -0.025770179556856582 0.078894748082868116 0.069208732750452015 0.070756773102936613 -0.047934616907337149 0.078572675259978561 0.074423778036486143 -0.019967154736488132 0.074639970640782788 -0.030430986943833244 -0.057019578416578266 0.077794240380936297 -0.051495671679357494 0.090652186863761919 -0.040933941791325035 0.071299852798746136 -0.059510163385518705 0.072142258773410045 -0.062978636019892606 -0.050296909168532737 -0.055458677995228391 0.096401602447466095 0.078823762523112545 -0.047507871799834851 0.079390517498538926 0.0075609355242903971 0.085450484411606367 -0.061774514723947072 -0.03272060075011704 0.088252166137934199 0.084300347436124121 -0.041703224560861153 -0.0018312848466602112 0.088624472941861321 -0.031415164248695775 -0.03544139330051839 -0.027916994240388807 0.089586166303294551 -0.027579568028674464 -0.019897946714217067 -0.021479940261700546 -0.035757369506722383
leaf_weight=756.82895769178867 8653.3415887355804 8590.581937879324 6359.0451420843601 446.47502732276917 13671.645184725523 457.41397723555565 743.17943531274796 10804.195665612817 256.1613879352808 7106.5984956622124 516.16918255388737 7467.1809771507978 2137.5896601527929 2197.5455871075392 2586.6121105402708 2813.3218296319246 2280.9465398937464 1266.042579755187 1432.4771756082773 938.37554959952831 863.2999202311039 2643.6654363125563 1021.2506943494081 874.09159295260906 793.29986082017422 413.45260061323643 5566.6922675222158 1905.294680327177 132.44868949055672 277.73213601112366 680.83152411878109 326.26940493285656 2283.222673997283 254.30768120288849 732.31425221264362 2734.8803173899651 476.14567488431931 521.02866624295712 1115.3749801516533 1514.3722447156906 181.64897990226746 362.39270555973053 735.2862401008606 1896.0204907804728 133.24878761172295 6293.468562528491 3089.8015623539686 2965.8258203417063 1464.0168013423681
leaf_count=3286 41605 42648 29259 2074 62112 2113 3652 47055 1173 36226 2429 34234 10012 10501 10969 13412 9616 5860 6603 4152 3754 11392 4983 4090 3824 1835 25528 8399 565 1276 2869 1475 9971 1165 3281 11850 2054 2377 4915 6549 773 1552 3111 8302 592 27901 13080 12566 6352
internal_value=5.2171e-05 -0.0143967 0.00359007 0.0231563 0.0284829 0.0323924 -0.0271362 -0.0212154 0.0371154 0.0417593 -0.0220107 -0.0270247 -0.020677 0.033476 0.0292617 0.0360472 0.0292412 -0.013001 -0.0156868 0.00327146 -0.030123 -0.00623097 0.0272267 0.0112886 -0.0100082 0.0258477 -0.0353807 -0.0289149 -0.0242906 0.00589171 0.00116105 -0.00378537 0.00511437 -0.0266986 -0.0223934 -0.0182019 -0.00347916 -0.0255595 -0.00158386 -0.0205464 -0.032469 0.00866463 -0.00291411 -0.0123509 0.00556196 -0.0311438 -0.0144972 -0.0159289 -0.0231462
internal_weight=123733 76125.9 31562.8 47607.6 42175.7 38763.4 44563 35909.7 35216.2 30656.7 22972.2 32064.4 24597.2 23550.1 21352.5 18765.9 15952.6 16613.2 16097 5914.49 22459.6 4051.01 3845.27 2824.02 2080.84 1206.75 18408.6 12841.9 10936.6 4559.5 4281.77 4025.61 3344.78 10182.5 8916.49 5431.87 2696.99 8662.19 1636.4 4482.02 3187.71 544.042 3018.51 3543.64 1647.62 7025.78 3547.22 3412.3 2220.85
internal_count=565372 349286 146033 216086 192544 177904 203253 161648 162711 142836 103385 143264 109030 106610 96109 85140 71728 74126 71697 26198 99018 17471 18384 13401 9749 5659 81547 56019 47620 19875 18599 17426 14557 45499 39639 23542 11692 38474 7292 19595 13717 2325 13082 15443 7141 31182 15193 14640 9638
is_linear=0
shrinkage=0.05


Tree=16
num_leaves=50
num_cat=0
split_feature=118 111 25 25 31 31 118 31 31 31 31 31 31 111 111 31 31 31 31 11 11 23 23 31 8 118 111 23 23 118 111 111 40 111 2 37 37 31 31 31 31 118 118 118 111 111 109 118 2
split_gain=15950.5 4858.37 4764.73 18862.4 3084.49 3678.33 2962.86 2370.64 4251.16 2917.51 5431.56 2666.71 4724.65 2255.6 1882.73 1641.16 2680.96 1907.12 3196.05 942.44 1170.16 789.616 3148.08 547.282 462.902 375.72 368.864 368.382 3385.87 353.218 352.326 344.879 322.891 304.333 300.438 282.089 1636.27 252.335 586.049 279.954 730.531 232.144 228.077 216.378 207.968 209.413 188.96 182.322 160.528
threshold=-0.27002096051441776 -0.59822735010986772 0.99999113949014207 1.0000000180025095e-35 -0.99999634834434392 0.49994726033240189 0.44849276918326714 0.25001787767551714 0.24841787006289898 1.0000000180025095e-35 -1.0000000180025095e-35 -0.49998883797318683 -0.50000369702396097 -0.59822735010986772 -0.33929923410513002 -0.99999634834434392 -0.75227959447862847 -0.74999791001600913 -0.50000369702396097 -1.4999867092352126 -1.0016392347180936 1.0000000180025095e-35 0.99994600225521513 -0.24999861119072633 1.1010273888385498 -1.1255750944041678 -0.33929923410513002 1.0000000180025095e-35 0.99994600225521513 0.75065347268882598 -0.2669112810246283 -0.33929923410513002 1.0000000180025095e-35 -0.33929923410513002 1.0000000180025095e-35 1.0000000180025095e-35 0.99999269668868818 -0.99999634834434392 -0.75227959447862847 -0.74999791001600913 -0.50000369702396097 -1.2420152591258742 -0.82795700187828336 -1.321015885524659 -0.59822735010986772 -0.33929923410513002 1.5662499100251319 -1.2420152591258742 1.0000000180025095e-35
decision_type=2 2 2 2 2 2 2 2 2 2 2 2 2 2 2 2 2 2 2 2 2 2 2 2 2 2 2 2 2 2 2 2 2 2 2 2 2 2 2 2 2 2 2 2 2 2 2 2 2
left_child=1 19 3 6 31 7 13 8 9 10 11 12 -6 35 24 -16 -17 -18 -19 -1 -21 25 -23 -13 -15 -22 -10 -4 -29 32 -12 -3 -8 -7 -32 -2 -37 -27 -39 -40 -41 -33 -28 -35 -34 -46 -26 -24 -43
right_child=2 4 27 -5 5 33 29 -9 26 -11 30 23 -14 14 15 16 17 18 -20 20 21 22 47 -25 46 37 42 28 -30 -31 34 41 44 43 -36 36 -38 38 39 40 -42 48 -44 -45 45 -47 -48 -49 -50
leaf_value=-0.037459578557682637 -0.044244072163447085 0.059677194772197156 -0.050981170676777689 0.076000958768745797 0.038449063454787123 0.056882769488862311 -0.043548239665266851 0.071458822440995606 0.056246606187364601 0.071773834995085647 0.039618186026524303 0.04874177520885746 -0.038146947227489909 0.076520728505508367 -0.048142630304631451 0.084215511380720767 -0.049746814594276531 0.083631624489694537 -0.0077598471105419986 0.077588293824484414 0.0035827372731856589 0.076741015928443748 0.0043030272489304883 0.073319234338748651 0.038564677645236252 -0.050740251076970236 -0.0064719742736921871 0.085288567309420693 -0.047508792858701292 -0.052645860409978262 -0.042072403566880821 0.0042295763498042078 -0.043734200748239555 0.0069651216033707643 -0.013056301292987311 0.09179163489892371 -0.040797086039953842 0.082977484030738791 -0.051520071010210805 0.083828398283306502 -0.021015602985690506 -0.03557378868215743 -0.029512662196638707 -0.023232923641807846 0.072548110375613331 -0.014732304588399692 -0.054563789427581666 -0.025936767609141209 -0.012456133853497803
