{"learner":{"attributes":{},"feature_names":[],"feature_types":[],"gradient_booster":{"model":{"cats":{"enc":[],"feature_segments":[],"sorted_idx":[]},"gbtree_model_param":{"num_parallel_tree":"1","num_trees":"300"},"iteration_indptr":[0,1,2,3,4,5,6,7,8,9,10,11,12,13,14,15,16,17,18,19,20,21,22,23,24,25,26,27,28,29,30,31,32,33,34,35,36,37,38,39,40,41,42,43,44,45,46,47,48,49,50,51,52,53,54,55,56,57,58,59,60,61,62,63,64,65,66,67,68,69,70,71,72,73,74,75,76,77,78,79,80,81,82,83,84,85,86,87,88,89,90,91,92,93,94,95,96,97,98,99,100,101,102,103,104,105,106,107,108,109,110,111,112,113,114,115,116,117,118,119,120,121,122,123,124,125,126,127,128,129,130,131,132,133,134,135,136,137,138,139,140,141,142,143,144,145,146,147,148,149,150,151,152,153,154,155,156,157,158,159,160,161,162,163,164,165,166,167,168,169,170,171,172,173,174,175,176,177,178,179,180,181,182,183,184,185,186,187,188,189,190,191,192,193,194,195,196,197,198,199,200,201,202,203,204,205,206,207,208,209,210,211,212,213,214,215,216,217,218,219,220,221,222,223,224,225,226,227,228,229,230,231,232,233,234,235,236,237,238,239,240,241,242,243,244,245,246,247,248,249,250,251,252,253,254,255,256,257,258,259,260,261,262,263,264,265,266,267,268,269,270,271,272,273,274,275,276,277,278,279,280,281,282,283,284,285,286,287,288,289,290,291,292,293,294,295,296,297,298,299,300],"tree_info":[0,0,0,0,0,0,0,0,0,0,0,0,0,0,0,0,0,0,0,0,0,0,0,0,0,0,0,0,0,0,0,0,0,0,0,0,0,0,0,0,0,0,0,0,0,0,0,0,0,0,0,0,0,0,0,0,0,0,0,0,0,0,0,0,0,0,0,0,0,0,0,0,0,0,0,0,0,0,0,0,0,0,0,0,0,0,0,0,0,0,0,0,0,0,0,0,0,0,0,0,0,0,0,0,0,0,0,0,0,0,0,0,0,0,0,0,0,0,0,0,0,0,0,0,0,0,0,0,0,0,0,0,0,0,0,0,0,0,0,0,0,0,0,0,0,0,0,0,0,0,0,0,0,0,0,0,0,0,0,0,0,0,0,0,0,0,0,0,0,0,0,0,0,0,0,0,0,0,0,0,0,0,0,0,0,0,0,0,0,0,0,0,0,0,0,0,0,0,0,0,0,0,0,0,0,0,0,0,0,0,0,0,0,0,0,0,0,0,0,0,0,0,0,0,0,0,0,0,0,0,0,0,0,0,0,0,0,0,0,0,0,0,0,0,0,0,0,0,0,0,0,0,0,0,0,0,0,0,0,0,0,0,0,0,0,0,0,0,0,0,0,0,0,0,0,0,0,0,0,0,0,0,0,0,0,0,0,0,0,0,0,0,0,0,0,0,0,0,0,0],"trees":[{"base_weights":[-2.1775127E-3,6.275488E-1,-6.438871E-1,9.6810126E-1,2.9230845E-1,-3.4579954E-1,-1.0661999E0,1.1966436E0,7.630065E-1,1.2660813E-1,5.21199E-1,-5.337924E-1,-1.1775354E-1,-8.910081E-1,-1.2839296E0,1.4074134E0,1.096078E0,5.852513E-1,9.6556365E-1,3.2940495E-1,-3.1532787E-2,2.4953553E-1,7.069837E-1,-8.6075824E-1,-4.3113714E-1,8.9393295E-2,-3.209083E-1,-6.2910044E-1,-1.0356164E0,-1.4020936E0,-1.0837035E0,1.4972787E0,1.2272117E0,9.5498675E-1,1.2096066E0,3.7421095E-1,7.2142684E-1,1.085599E0,7.3458225E-1,4.8236945E-1,1.6846062E-1,-3.592823E-1,7.4359186E-2,-3.1559297E-1,3.0068186E-1,8.7887573E-1,5.162779E-1,-1.032068E0,-6.6953886E-1,-2.210895E-1,-5.719354E-1,3.179208E-1,-1.2776446E-1,-1.3652042E-1,-5.245513E-1,-5.631517E-1,-1.3127553E0,-1.3429352E0,-9.440949E-1,-1.6974908E0,-1.3512365E0,-9.904376E-1,-1.3829478E0,-7.1428575E-2,1.5003252E0,1.2584982E0,4.8983303E-1,9.745846E-1,-6.096898E-1,1.0945109E0,1.3287863E0,-6.039103E-2,4.9191558E-1,9.142626E-1,5.237739E-1,9.653787E-1,1.3331307E0,4.0784135E-1,8.612824E-1,1.413938E-1,6.7628914E-1,4.291152E-1,6.252318E-2,-7.308727E-1,-1.9754638E-1,-1.3978682E-1,3.1906354E-1,-1.6819912E0,-1.5744445E-1,9.672447E-2,4.6504825E-1,5.7682765E-1,1.0158672E0,2.620273E-1,7.1621084E-1,-8.723751E-1,-1.3249601E0,-5.6598336E-1,-1.2008371E0,-6.734296E-1,-1.1953144E-1,-4.5011353E-1,-7.787343E-1,-1.6628249E-1,4.4968396E-1,-4.1421515E-1,1.1679598E-1,-1.2080634E0,-1.07557364E-1,-5.447261E-1,1.0363863E0,-9.119088E-1,-4.6074325E-1,-8.8371724E-1,-1.5490818E0,-1.162161E0,-1.5148592E0,-8.9632684E-1,-1.3876657E0,-1.7185698E0,2.6382145E-1,-1.4157844E0,-1.045665E0,-4.4468343E-1,-1.0362741E0,-1.503147E0,-9.3310803E-1,6.220308E-2,7.700174E-2,1.6970897E-2,6.406973E-2,-3.788902E-2,5.4011483E-2,3.6378257E-2,5.2026846E-2,-7.6796114E-2,2.9620638E-2,5.591997E-2,1.832575E-2,3.626519E-2,6.844614E-2,4.2369874E-4,-5.5674028E-2,4.27691E-2,2.0211974E-2,4.7548793E-2,1.9712454E-2,4.259744E-2,1.7959174E-2,4.002396E-2,5.416417E-2,-2.7954776E-2,6.7712516E-2,-7.927317E-3,2.7659982E-2,2.9834896E-2,5.1166456E-2,1.8266452E-2,-8.535228E-3,1.5545616E-2,3.918181E-2,-2.7248248E-2,2.3835525E-2,-1.0190199E-2,8.860344E-3,-2.7908197E-2,-7.3226795E-2,-1.9157756E-2,7.7312994E-3,-1.235146E-3,-2.4721598E-2,1.2576647E-2,3.9215885E-2,7.4004285E-2,-9.745223E-2,-5.7076145E-2,9.0687396E-4,2.7740795E-2,-5.635815E-5,4.01834E-3,2.793744E-2,-4.695407E-3,3.5600934E-2,3.1376477E-2,5.4543592E-2,2.0106593E-2,-1.7680295E-2,4.9502186E-2,3.0384272E-2,-6.689421E-2,-3.540215E-2,-7.1941525E-2,-3.4703266E-2,-3.2933913E-2,2.4359567E-2,-8.386949E-2,-4.06122E-2,-7.4730545E-2,-2.5776992E-2,-2.1891013E-2,-5.115592E-4,-1.6943935E-2,-3.7373293E-2,-5.0791424E-2,-3.0971551E-2,-2.0103358E-2,1.2165855E-2,3.0121867E-2,4.4065733E-3,-8.466022E-3,-3.222954E-2,-2.0367978E-2,1.1058722E-2,-8.3018176E-2,-5.654307E-3,-3.37686E-2,-3.0876535E-3,-3.514353E-2,-1.8445833E-2,6.5403245E-2,-7.894737E-2,-6.033382E-2,-3.0518243E-2,-2.9408216E-2,-1.443664E-2,-2.7682424E-2,-9.7058825E-2,1.5875157E-3,-8.106043E-2,-7.120552E-2,-4.8114296E-2,-7.756225E-2,-1.5032851E-3,-4.242682E-2,-6.432777E-2,-4.932004E-2,-8.2747616E-2,7.4004285E-2,-8.649466E-2,7.83973E-2,-8.0000006E-2,-6.61196E-2,-7.8827664E-2,-2.9910943E-2,-6.0119636E-2,-4.899407E-2,1.6969293E-2,-5.4148734E-2,-2.5778105E-2,-7.753886E-2,-1.07475845E-2,1.532005E-2,-6.0123175E-2],"categories":[],"categories_nodes":[],"categories_segments":[],"categories_sizes":[],"default_left":[0,0,0,0,0,0,0,0,0,0,0,0,0,0,0,0,0,0,0,0,0,0,0,0,0,0,0,0,0,0,0,0,0,0,0,0,0,0,0,0,0,0,0,0,0,0,0,0,0,0,0,0,0,0,0,0,0,0,0,0,0,0,0,0,0,0,0,0,0,0,0,0,0,0,0,0,0,0,0,0,0,0,0,0,0,0,0,0,0,0,0,0,0,0,0,0,0,0,0,0,0,0,0,0,0,0,0,0,0,0,0,0,0,0,0,0,0,0,0,0,0,0,0,0,0,0,0,0,0,0,0,0,0,0,0,0,0,0,0,0,0,0,0,0,0,0,0,0,0,0,0,0,0,0,0,0,0,0,0,0,0,0,0,0,0,0,0,0,0,0,0,0,0,0,0,0,0,0,0,0,0,0,0,0,0,0,0,0,0,0,0,0,0,0,0,0,0,0,0,0,0,0,0,0,0,0,0,0,0,0,0,0,0,0,0,0,0,0,0,0,0,0,0,0,0,0,0,0,0,0,0,0,0,0,0,0,0,0,0,0,0,0,0,0,0,0,0,0,0,0,0,0,0],"id":0,"left_children":[1,3,5,7,9,11,13,15,17,19,21,23,25,27,29,31,33,35,37,39,41,43,45,47,49,51,53,55,57,59,61,63,65,67,69,71,73,75,77,79,81,83,85,87,89,91,93,95,97,99,101,103,105,107,109,111,113,115,117,119,121,123,125,-1,127,129,131,133,135,137,139,141,143,145,147,149,151,153,155,157,159,161,163,165,167,169,171,173,175,177,179,181,183,185,187,189,191,193,195,197,199,201,203,205,207,209,211,213,215,217,219,221,223,225,227,229,231,233,235,237,239,241,243,245,247,249,251,-1,-1,-1,-1,-1,-1,-1,-1,-1,-1,-1,-1,-1,-1,-1,-1,-1,-1,-1,-1,-1,-1,-1,-1,-1,-1,-1,-1,-1,-1,-1,-1,-1,-1,-1,-1,-1,-1,-1,-1,-1,-1,-1,-1,-1,-1,-1,-1,-1,-1,-1,-1,-1,-1,-1,-1,-1,-1,-1,-1,-1,-1,-1,-1,-1,-1,-1,-1,-1,-1,-1,-1,-1,-1,-1,-1,-1,-1,-1,-1,-1,-1,-1,-1,-1,-1,-1,-1,-1,-1,-1,-1,-1,-1,-1,-1,-1,-1,-1,-1,-1,-1,-1,-1,-1,-1,-1,-1,-1,-1,-1,-1,-1,-1,-1,-1,-1,-1,-1,-1,-1,-1,-1,-1,-1,-1],"loss_changes":[4.5594418E4,6.5011016E3,7.0345117E3,1.3231914E3,1.0883848E3,1.4044385E3,8.808613E2,2.8161523E2,5.355928E2,5.3393286E2,6.0804736E2,6.0236084E2,6.2305884E2,4.8475293E2,2.4235352E2,6.7984375E1,1.4378027E2,2.2772876E2,1.9212988E2,1.7949805E2,3.2470193E2,1.4160556E2,2.3413013E2,1.3983252E2,4.0411035E2,3.638615E2,2.8059662E2,2.0492749E2,2.309336E2,9.503418E1,1.0551758E2,2.7747559E1,3.260962E1,1.24453125E2,6.7270996E1,1.5930307E2,1.8327124E2,1.3491016E2,9.8284424E1,2.4715942E2,9.816598E1,1.3715854E2,3.7060397E2,8.764374E1,1.5047784E2,1.5509058E2,1.7238263E2,1.045896E2,1.1100525E2,2.5198318E2,2.057898E2,2.2799219E2,2.634403E2,1.216563E2,1.1240759E2,1.4823083E2,3.9246338E1,5.7043457E1,1.336123E2,3.9632324E1,1.0763281E2,7.266699E1,4.7665894E1,0E0,2.7288086E1,2.8625977E1,4.5203995E1,6.42395E1,5.722782E1,4.4013184E1,5.8513184E1,4.819508E1,7.773334E1,4.6187378E1,1.2841602E2,5.9097412E1,6.0443604E1,5.5054527E1,7.29613E1,9.489802E1,9.324036E1,4.789389E1,7.729801E1,8.692328E1,1.0419688E2,1.5393274E2,1.03502045E2,3.8433098E1,6.3210495E1,8.987315E1,8.9565125E1,1.0672583E2,7.466821E1,1.2917636E2,5.5857605E1,1.1120154E2,5.6171875E1,1.6635114E2,5.9790558E1,1.2964075E2,1.5592429E2,1.7014062E2,1.1388733E2,7.3970276E1,1.5505353E2,9.759662E1,1.1109719E2,5.091176E1,9.9361145E1,9.724304E1,3.4509212E1,8.314551E1,7.039111E1,4.9397385E1,2.9351013E1,4.71427E1,5.2166992E1,1.0611621E2,6.45365E1,3.652417E1,2.9108768E1,6.644922E1,6.72052E1,9.611379E1,6.500342E1,4.3506226E1,6.513631E1,0E0,0E0,0E0,0E0,0E0,0E0,0E0,0E0,0E0,0E0,0E0,0E0,0E0,0E0,0E0,0E0,0E0,0E0,0E0,0E0,0E0,0E0,0E0,0E0,0E0,0E0,0E0,0E0,0E0,0E0,0E0,0E0,0E0,0E0,0E0,0E0,0E0,0E0,0E0,0E0,0E0,0E0,0E0,0E0,0E0,0E0,0E0,0E0,0E0,0E0,0E0,0E0,0E0,0E0,0E0,0E0,0E0,0E0,0E0,0E0,0E0,0E0,0E0,0E0,0E0,0E0,0E0,0E0,0E0,0E0,0E0,0E0,0E0,0E0,0E0,0E0,0E0,0E0,0E0,0E0,0E0,0E0,0E0,0E0,0E0,0E0,0E0,0E0,0E0,0E0,0E0,0E0,0E0,0E0,0E0,0E0,0E0,0E0,0E0,0E0,0E0,0E0,0E0,0E0,0E0,0E0,0E0,0E0,0E0,0E0,0E0,0E0,0E0,0E0,0E0,0E0,0E0,0E0,0E0,0E0,0E0,0E0,0E0,0E0,0E0,0E0],"parents":[2147483647,0,0,1,1,2,2,3,3,4,4,5,5,6,6,7,7,8,8,9,9,10,10,11,11,12,12,13,13,14,14,15,15,16,16,17,17,18,18,19,19,20,20,21,21,22,22,23,23,24,24,25,25,26,26,27,27,28,28,29,29,30,30,31,31,32,32,33,33,34,34,35,35,36,36,37,37,38,38,39,39,40,40,41,41,42,42,43,43,44,44,45,45,46,46,47,47,48,48,49,49,50,50,51,51,52,52,53,53,54,54,55,55,56,56,57,57,58,58,59,59,60,60,61,61,62,62,64,64,65,65,66,66,67,67,68,68,69,69,70,70,71,71,72,72,73,73,74,74,75,75,76,76,77,77,78,78,79,79,80,80,81,81,82,82,83,83,84,84,85,85,86,86,87,87,88,88,89,89,90,90,91,91,92,92,93,93,94,94,95,95,96,96,97,97,98,98,99,99,100,100,101,101,102,102,103,103,104,104,105,105,106,106,107,107,108,108,109,109,110,110,111,111,112,112,113,113,114,114,115,115,116,116,117,117,118,118,119,119,120,120,121,121,122,122,123,123,124,124,125,125,126,126],"right_children":[2,4,6,8,10,12,14,16,18,20,22,24,26,28,30,32,34,36,38,40,42,44,46,48,50,52,54,56,58,60,62,64,66,68,70,72,74,76,78,80,82,84,86,88,90,92,94,96,98,100,102,104,106,108,110,112,114,116,118,120,122,124,126,-1,128,130,132,134,136,138,140,142,144,146,148,150,152,154,156,158,160,162,164,166,168,170,172,174,176,178,180,182,184,186,188,190,192,194,196,198,200,202,204,206,208,210,212,214,216,218,220,222,224,226,228,230,232,234,236,238,240,242,244,246,248,250,252,-1,-1,-1,-1,-1,-1,-1,-1,-1,-1,-1,-1,-1,-1,-1,-1,-1,-1,-1,-1,-1,-1,-1,-1,-1,-1,-1,-1,-1,-1,-1,-1,-1,-1,-1,-1,-1,-1,-1,-1,-1,-1,-1,-1,-1,-1,-1,-1,-1,-1,-1,-1,-1,-1,-1,-1,-1,-1,-1,-1,-1,-1,-1,-1,-1,-1,-1,-1,-1,-1,-1,-1,-1,-1,-1,-1,-1,-1,-1,-1,-1,-1,-1,-1,-1,-1,-1,-1,-1,-1,-1,-1,-1,-1,-1,-1,-1,-1,-1,-1,-1,-1,-1,-1,-1,-1,-1,-1,-1,-1,-1,-1,-1,-1,-1,-1,-1,-1,-1,-1,-1,-1,-1,-1,-1,-1],"split_conditions":[-2.599969E-1,-8.524003E-1,3.6676323E-1,-1.3112627E0,1.999901E-1,6.666243E-2,7.010504E-1,-1.8405492E0,1.99987E-1,-5.783924E-1,-1.2470822E-1,-1E0,1.2680028E-1,-1.423098E-2,1.3333294E-1,-3.8768709E0,6.66417E-2,-4.8172483E-3,1.2680028E-1,0E0,-5E-1,-1E0,-1.19321294E-1,-3.665171E-2,-2.1893815E-3,-3.448276E-2,6.6653244E-2,3.360606E1,-1E0,-8.4997785E-1,1.101595E0,-8.702466E-1,1.8213403E0,1.0639703E0,-4.8172483E-3,-5.0877684E-1,-2.4083197E-2,-4.1789177E-1,-3.498049E-2,0E0,-7.7400094E-1,-1.701399E-2,2.1893815E-3,-7.5E-1,-2.365538E-2,-4.8172483E-3,-1.7305776E-1,1.510197E-1,1.554896E0,-2.81308E-1,1.6355861E-2,-5E-1,-3.469388E-1,-1.2704083E0,6E0,0E0,-5E-1,-2.0511763E-1,1.6531852E0,3.533E-1,4.3072602E-1,-5.462804E-1,1.5E0,-7.1428575E-2,-5.6190217E-1,-1.5621237E0,2.824074E-1,2.6632592E-1,-6.999417E-1,1.0049525E0,-7.9722106E-1,1E0,-1.4260328E0,1.9181818E1,-1.3441241E0,-2.208171E-1,-7.317166E-1,-1.6666667E-1,0E0,6.478195E-1,-5E-1,-7.1428573E-1,-5.405145E-1,4.4E-2,-1.0003289E-1,7.344613E-2,1E0,-1.875E-1,-6.4891976E-1,-1.2194983E0,-6.666667E-1,-4.8508334E-1,-5E-1,2.4527024E-2,-2.9605E-1,-4.597701E-2,6.8488896E-1,1.0607007E0,8.227443E-2,0E0,-3.1558642E-1,3.2994583E-1,-2.0991036E-1,7.0579606E-4,1.2997481E-1,2.9485976E-2,-1E0,4.6743295E-1,-2E0,1.9397411E-1,3.6474997E-1,5E-1,1.99987E-1,4.6E-3,-8.62E-2,-3.3476552E-1,5.402299E0,2.4110563E0,-6.5571976E-1,-1.2822917E0,-7.3977655E-1,2.4047916E0,-1.9923371E-1,4.0605748E-1,4.823222E-1,2.92E-1,-8.814524E-1,6.220308E-2,7.700174E-2,1.6970897E-2,6.406973E-2,-3.788902E-2,5.4011483E-2,3.6378257E-2,5.2026846E-2,-7.6796114E-2,2.9620638E-2,5.591997E-2,1.832575E-2,3.626519E-2,6.844614E-2,4.2369874E-4,-5.5674028E-2,4.27691E-2,2.0211974E-2,4.7548793E-2,1.9712454E-2,4.259744E-2,1.7959174E-2,4.002396E-2,5.416417E-2,-2.7954776E-2,6.7712516E-2,-7.927317E-3,2.7659982E-2,2.9834896E-2,5.1166456E-2,1.8266452E-2,-8.535228E-3,1.5545616E-2,3.918181E-2,-2.7248248E-2,2.3835525E-2,-1.0190199E-2,8.860344E-3,-2.7908197E-2,-7.3226795E-2,-1.9157756E-2,7.7312994E-3,-1.235146E-3,-2.4721598E-2,1.2576647E-2,3.9215885E-2,7.4004285E-2,-9.745223E-2,-5.7076145E-2,9.0687396E-4,2.7740795E-2,-5.635815E-5,4.01834E-3,2.793744E-2,-4.695407E-3,3.5600934E-2,3.1376477E-2,5.4543592E-2,2.0106593E-2,-1.7680295E-2,4.9502186E-2,3.0384272E-2,-6.689421E-2,-3.540215E-2,-7.1941525E-2,-3.4703266E-2,-3.2933913E-2,2.4359567E-2,-8.386949E-2,-4.06122E-2,-7.4730545E-2,-2.5776992E-2,-2.1891013E-2,-5.115592E-4,-1.6943935E-2,-3.7373293E-2,-5.0791424E-2,-3.0971551E-2,-2.0103358E-2,1.2165855E-2,3.0121867E-2,4.4065733E-3,-8.466022E-3,-3.222954E-2,-2.0367978E-2,1.1058722E-2,-8.3018176E-2,-5.654307E-3,-3.37686E-2,-3.0876535E-3,-3.514353E-2,-1.8445833E-2,6.5403245E-2,-7.894737E-2,-6.033382E-2,-3.0518243E-2,-2.9408216E-2,-1.443664E-2,-2.7682424E-2,-9.7058825E-2,1.5875157E-3,-8.106043E-2,-7.120552E-2,-4.8114296E-2,-7.756225E-2,-1.5032851E-3,-4.242682E-2,-6.432777E-2,-4.932004E-2,-8.2747616E-2,7.4004285E-2,-8.649466E-2,7.83973E-2,-8.0000006E-2,-6.61196E-2,-7.8827664E-2,-2.9910943E-2,-6.0119636E-2,-4.899407E-2,1.6969293E-2,-5.4148734E-2,-2.5778105E-2,-7.753886E-2,-1.07475845E-2,1.532005E-2,-6.0123175E-2],"split_indices":[118,118,118,118,111,111,118,118,111,118,109,12,117,112,111,119,111,40,117,112,12,20,112,108,112,112,118,73,12,117,118,109,109,16,40,121,112,119,40,40,118,40,17,31,123,40,123,118,109,109,42,12,9,42,78,82,31,16,109,70,109,117,76,0,107,17,80,120,41,16,16,87,42,73,42,107,117,27,114,16,12,9,16,48,111,42,79,65,80,42,74,115,12,42,6,110,18,109,18,20,80,41,123,107,118,118,12,17,20,123,18,75,111,55,63,18,110,112,17,41,120,119,112,110,16,57,120,0,0,0,0,0,0,0,0,0,0,0,0,0,0,0,0,0,0,0,0,0,0,0,0,0,0,0,0,0,0,0,0,0,0,0,0,0,0,0,0,0,0,0,0,0,0,0,0,0,0,0,0,0,0,0,0,0,0,0,0,0,0,0,0,0,0,0,0,0,0,0,0,0,0,0,0,0,0,0,0,0,0,0,0,0,0,0,0,0,0,0,0,0,0,0,0,0,0,0,0,0,0,0,0,0,0,0,0,0,0,0,0,0,0,0,0,0,0,0,0,0,0,0,0,0,0],"split_type":[0,0,0,0,0,0,0,0,0,0,0,0,0,0,0,0,0,0,0,0,0,0,0,0,0,0,0,0,0,0,0,0,0,0,0,0,0,0,0,0,0,0,0,0,0,0,0,0,0,0,0,0,0,0,0,0,0,0,0,0,0,0,0,0,0,0,0,0,0,0,0,0,0,0,0,0,0,0,0,0,0,0,0,0,0,0,0,0,0,0,0,0,0,0,0,0,0,0,0,0,0,0,0,0,0,0,0,0,0,0,0,0,0,0,0,0,0,0,0,0,0,0,0,0,0,0,0,0,0,0,0,0,0,0,0,0,0,0,0,0,0,0,0,0,0,0,0,0,0,0,0,0,0,0,0,0,0,0,0,0,0,0,0,0,0,0,0,0,0,0,0,0,0,0,0,0,0,0,0,0,0,0,0,0,0,0,0,0,0,0,0,0,0,0,0,0,0,0,0,0,0,0,0,0,0,0,0,0,0,0,0,0,0,0,0,0,0,0,0,0,0,0,0,0,0,0,0,0,0,0,0,0,0,0,0,0,0,0,0,0,0,0,0,0,0,0,0,0,0,0,0,0,0],"sum_hessian":[1.1282716E5,5.694529E4,5.588187E4,2.8247896E4,2.869739E4,3.2760111E4,2.312176E4,1.3357953E4,1.4889943E4,1.6647412E4,1.2049979E4,1.7956273E4,1.4803839E4,1.2815291E4,1.0306469E4,4.310606E3,9.047347E3,7.932564E3,6.957379E3,7.2934067E3,9.354005E3,4.8948433E3,7.1551353E3,4.288772E3,1.3667501E4,7.330179E3,7.4736597E3,4.560636E3,8.254654E3,6.4776577E3,3.8288105E3,2.8713665E3,1.4392393E3,4.0381833E3,5.009164E3,3.112565E3,4.819999E3,4.5757666E3,2.3816123E3,3.7383818E3,3.5550251E3,2.283593E3,7.070412E3,4.0580725E2,4.489036E3,3.761295E3,3.3938406E3,2.2598333E3,2.0289386E3,5.485947E3,8.1815537E3,3.5713645E3,3.7588147E3,3.9231375E3,3.5505222E3,4.1610635E3,3.995729E2,1.8910498E3,6.3636045E3,9.466697E2,5.5309883E3,2.9223179E3,9.064926E2,2.5E0,2.8688665E3,1.3799811E3,5.9258236E1,3.9886025E3,4.9580727E1,2.5534204E3,2.4557434E3,6.63437E2,2.4491282E3,2.4378953E3,2.3821038E3,3.0832202E3,1.4925461E3,6.6664703E2,1.7149653E3,1.3559308E3,2.382451E3,1.0264464E3,2.5285786E3,6.9145264E2,1.5921404E3,3.770871E3,3.2995413E3,4.1096786E1,3.6471045E2,2.0039646E3,2.4850715E3,1.1752455E3,2.5860493E3,1.4949958E3,1.8988447E3,1.4650342E3,7.94799E2,1.6997125E3,3.292261E2,1.00482416E3,4.4811226E3,5.150598E3,3.0309558E3,7.6390485E2,2.8074597E3,1.7308258E3,2.0279889E3,1.0217751E2,3.82096E3,3.5058608E3,4.466145E1,9.427109E2,3.2183525E3,1.4360503E2,2.5596788E2,9.2558154E2,9.6546826E2,5.7476606E3,6.15944E2,9.3672614E2,9.943575E0,4.5633984E3,9.675898E2,2.2725041E2,2.6950676E3,7.135004E2,1.9299217E2,3.892434E2,2.479623E3,3.3927513E1,1.3460536E3,1.8943575E1,4.0314663E1,8.430511E2,3.1455515E3,2.7846786E1,2.1733936E1,2.4717751E3,8.1645386E1,1.5433113E2,2.3014124E3,6.236466E2,3.9790363E1,4.742677E2,1.9748604E3,2.2763545E3,1.6154077E2,7.942607E2,1.587843E3,1.2886816E3,1.7945387E3,1.6193575E1,1.4763525E3,1.3612932E2,5.305177E2,6.531713E2,1.0617941E3,7.8937317E2,5.665577E2,5.418966E2,1.8405543E3,4.7330727E1,9.791157E2,7.608645E2,1.7677141E3,5.611219E2,1.3033072E2,1.0425746E3,5.495659E2,2.847813E3,9.2305804E2,2.882669E3,4.168723E2,2.8467875E0,3.825E1,5.438715E1,3.103233E2,3.518962E2,1.6520684E3,4.8711407E2,1.9979575E3,1.9719398E2,9.7805145E2,4.201384E2,2.1659111E3,1.2181244E3,2.768715E2,5.3664703E2,1.3621976E3,3.8037933E2,1.0846549E3,6.72194E2,1.2260503E2,1.5625588E3,1.3715363E2,1.4638715E2,1.8283896E2,1.606775E2,8.441466E2,1.1446957E3,3.336427E3,3.7499426E3,1.4006553E3,1.2159127E3,1.8150432E3,4.8483154E2,2.790733E2,1.9731511E3,8.343085E2,8.398163E2,8.9100946E2,3.36299E2,1.6916898E3,7.194357E1,3.0233936E1,2.84194E2,3.536766E3,1.8440753E3,1.6617854E3,4.091145E1,3.75E0,4.75194E2,4.6751688E2,1.8474143E3,1.3709382E3,1.1060503E2,3.3E1,1.1193575E1,2.4477429E2,3.9793576E2,5.276458E2,9.423311E2,2.313715E1,5.1233857E3,6.242747E2,2.4812932E2,3.6781467E2,2.8467875E0,9.3387933E2,5.943575E0,4E0,2.8923975E3,1.6710009E3,2.5225041E2,7.1533936E2,1.3491145E2,9.233896E1,2.4722607E3,2.2280684E2,6.878633E2,2.563715E1,3.4427513E1,1.5856467E2],"tree_param":{"num_deleted":"0","num_feature":"124","num_nodes":"253","size_leaf_vector":"1"}},{"base_weights":[-3.0491338E-3,6.010727E-1,-6.2127596E-1,9.278907E-1,2.75954E-1,-3.3386248E-1,-1.0280973E0,1.2494402E0,8.050523E-1,8.433396E-2,4.6393678E-1,-6.8296474E-1,-2.4064343E-1,-8.76373E-1,-1.2619692E0,1.124791E0,1.3744987E0,6.605012E-1,9.7392577E-1,3.2511538E-1,-5.633838E-2,6.315352E-1,2.1235718E-1,-5.4125816E-1,-1.0131832E0,-2.156163E-2,-3.9346775E-1,-9.9039453E-1,-6.600896E-1,-1.3657384E0,-1.0758319E0,1.3726932E0,1.0245657E0,1.4610112E0,1.2090325E0,8.3831924E-1,5.562823E-1,1.0755845E0,7.720488E-1,5.7372242E-2,4.446076E-1,-4.166708E-1,3.7333786E-2,4.4245255E-1,8.13019E-1,3.0187416E-1,-1.2790991E-1,-7.825173E-1,-3.583167E-1,-1.121565E0,-4.3053052E-1,-2.1311744E-1,1.7261519E-1,-5.136836E-1,-1.4740473E-1,-9.0990764E-1,-1.270637E0,-8.780202E-1,-4.0505168E-1,-1.5159435E0,-1.2731774E0,-9.120849E-1,-1.2024444E0,1.380296E0,-7.399567E-2,-1.0211856E0,1.0337487E0,-6.866103E-2,1.4637477E0,1.2204659E0,-8.430025E-2,7.089462E-1,9.8251694E-1,4.0677437E-1,7.5333285E-1,8.8239E-1,1.2065818E0,9.0871435E-1,5.9796023E-1,1.5473223E-1,-8.1185114E-1,6.71903E-1,2.2817819E-1,-3.0912358E-1,-9.9188554E-1,-3.8576654E-1,1.1776297E-1,7.452875E-2,5.9767663E-1,5.3480923E-1,9.4473934E-1,-2.0314825E-1,3.4577855E-1,-6.690046E-1,1.828653E-2,-9.3665725E-1,-5.3446937E-1,-6.635242E-1,-2.0646574E-1,-1.3656424E0,-9.594061E-1,-1.5503875E0,-1.8292445E-1,-8.972032E-2,-5.918976E-1,3.4570536E-1,-8.057137E-2,-1.1513097E0,-4.5581353E-1,-4.2092824E-1,2.3085324E-2,-1.090454E0,-8.2370466E-1,-1.1926669E0,-1.5936413E0,-2.6361746E-1,-9.654632E-1,-1.0234262E0,-2.2424352E-1,-1.7380555E0,-1.4214814E0,-1.5580908E0,-1.2187759E0,-5.5537635E-1,-1.004303E0,7.6143034E-2,-1.2264806E0,-7.395779E-2,6.939651E-2,-9.253671E-2,7.2676145E-2,4.576135E-2,5.9071958E-2,7.3320664E-2,-6.546835E-2,6.411726E-2,4.42302E-2,-9.2817776E-2,3.6099594E-2,-5.7638515E-2,4.9937487E-2,5.7367207E-3,2.529544E-2,4.9365457E-2,2.419096E-2,4.6139073E-2,1.3985144E-2,1.5724389E-2,6.1733473E-2,4.8516843E-2,2.5514988E-2,2.0835029E-2,4.65414E-2,1.32229915E-2,-2.5489489E-2,-5.8888175E-2,1.9491691E-2,1.1939912E-2,4.0019747E-2,-6.3443325E-2,1.2787047E-2,-3.540438E-2,-7.838081E-3,-6.4779304E-2,-2.715152E-3,-1.6030459E-2,-6.640684E-2,-6.6945725E-3,1.180477E-2,1.0897078E-2,-2.4804858E-2,-1.6711084E-2,3.1892486E-2,3.7549704E-2,1.4509583E-2,-9.058564E-2,4.762364E-2,-2.375506E-3,-7.079287E-2,2.804693E-3,2.1430328E-2,-3.328357E-3,-5.448399E-2,4.200187E-3,-6.188486E-2,-9.103782E-3,-5.1023047E-2,7.2926604E-3,-3.5009626E-2,-8.687971E-3,-4.1876286E-2,-1.7918406E-2,9.548078E-3,-3.812954E-2,-7.19697E-2,-7.271324E-2,-4.181821E-2,-2.8010719E-3,-9.644676E-2,-3.4473673E-2,1.6358344E-2,-2.5367891E-2,4.8364347E-4,-7.4076585E-2,-2.6030114E-2,-4.9699377E-3,2.262352E-2,6.1886995E-3,-1.5257666E-2,-6.516555E-2,-2.5692264E-2,-1.3931668E-2,-2.8720856E-2,-8.052348E-3,-3.20705E-2,1.1165954E-2,-1.3675234E-2,-6.4910024E-2,-4.552628E-2,-3.9011694E-2,-6.8336174E-2,-5.626594E-2,-8.487516E-2,-8.227638E-2,4.8846122E-2,5.3406996E-3,-3.9327677E-2,-5.18301E-2,-2.1485936E-2,-4.8416615E-3,-5.903393E-2,7.040083E-3,-2.5786875E-2,-8.848983E-2,-2.5464273E-3,-7.31356E-2,-4.1937098E-2,-8.107907E-2,-2.011179E-2,-8.3015524E-2,-5.887727E-2,-3.9649695E-2,1.2317464E-2,-1.5899872E-2,-5.3137906E-2,-8.8064395E-2,4.303151E-2,-6.381841E-2,-3.0726353E-2],"categories":[],"categories_nodes":[],"categories_segments":[],"categories_sizes":[],"default_left":[0,0,0,0,0,0,0,0,0,0,0,0,0,0,0,0,0,0,0,0,0,0,0,0,0,0,0,0,0,0,0,0,0,0,0,0,0,0,0,0,0,0,0,0,0,0,0,0,0,0,0,0,0,0,0,0,0,0,0,0,0,0,0,0,0,0,0,0,0,0,0,0,0,0,0,0,0,0,0,0,0,0,0,0,0,0,0,0,0,0,0,0,0,0,0,0,0,0,0,0,0,0,0,0,0,0,0,0,0,0,0,0,0,0,0,0,0,0,0,0,0,0,0,0,0,0,0,0,0,0,0,0,0,0,0,0,0,0,0,0,0,0,0,0,0,0,0,0,0,0,0,0,0,0,0,0,0,0,0,0,0,0,0,0,0,0,0,0,0,0,0,0,0,0,0,0,0,0,0,0,0,0,0,0,0,0,0,0,0,0,0,0,0,0,0,0,0,0,0,0,0,0,0,0,0,0,0,0,0,0,0,0,0,0,0,0,0,0,0,0,0,0,0,0,0,0,0,0,0,0,0,0,0,0,0,0,0,0,0,0,0,0,0,0,0,0,0,0,0],"id":1,"left_children":[1,3,5,7,9,11,13,15,17,19,21,23,25,27,29,31,33,35,37,39,41,43,45,47,49,51,53,55,57,59,61,63,65,67,69,71,73,75,77,79,81,83,85,87,89,91,93,95,97,99,101,103,105,107,109,111,113,115,117,119,121,123,125,127,-1,129,131,-1,133,135,-1,137,139,141,143,145,147,149,151,153,155,157,159,161,163,165,167,169,171,173,175,177,179,181,183,185,187,189,191,193,195,197,199,201,203,205,207,209,211,213,215,217,219,221,223,225,227,229,231,233,235,237,239,241,243,245,247,-1,-1,-1,-1,-1,-1,-1,-1,-1,-1,-1,-1,-1,-1,-1,-1,-1,-1,-1,-1,-1,-1,-1,-1,-1,-1,-1,-1,-1,-1,-1,-1,-1,-1,-1,-1,-1,-1,-1,-1,-1,-1,-1,-1,-1,-1,-1,-1,-1,-1,-1,-1,-1,-1,-1,-1,-1,-1,-1,-1,-1,-1,-1,-1,-1,-1,-1,-1,-1,-1,-1,-1,-1,-1,-1,-1,-1,-1,-1,-1,-1,-1,-1,-1,-1,-1,-1,-1,-1,-1,-1,-1,-1,-1,-1,-1,-1,-1,-1,-1,-1,-1,-1,-1,-1,-1,-1,-1,-1,-1,-1,-1,-1,-1,-1,-1,-1,-1,-1,-1,-1,-1],"loss_changes":[4.2191973E4,6.070715E3,6.527922E3,1.1244355E3,1.0317507E3,1.0646189E3,8.190781E2,1.2120215E2,5.027041E2,4.805147E2,6.095183E2,3.2209863E2,8.646476E2,3.451543E2,1.741582E2,9.671338E1,5.4436035E1,2.0548096E2,1.9429297E2,1.6735126E2,3.0228534E2,2.974087E2,1.761742E2,2.1275586E2,1.3018799E2,3.9480276E2,4.4993628E2,2.0590625E2,2.6885303E2,7.918555E1,6.647754E1,2.6636719E1,5.396045E1,2.1969238E1,4.6868164E1,7.587549E1,2.0619873E2,1.5890479E2,7.530115E1,1.3684267E2,1.7778522E2,1.1400214E2,2.4194608E2,2.4278503E2,1.6170679E2,1.0158707E2,9.534451E1,7.9055664E1,1.27176636E2,6.771948E1,9.015619E1,2.4968608E2,2.310292E2,3.765725E2,2.3291617E2,1.1015137E2,4.9620117E1,1.4001855E2,2.4950739E2,4.4091797E1,5.4148926E1,4.6330444E1,5.648584E1,2.6753174E1,0E0,2.955782E1,4.8001953E1,0E0,2.0927734E1,2.6902466E1,0E0,7.386401E1,6.834204E1,1.15391785E2,1.9013892E2,6.20083E1,9.3927246E1,4.330298E1,8.437689E1,1.0612828E2,7.208117E1,9.796277E1,7.684045E1,9.460571E1,8.267798E1,6.9308E1,1.7792609E2,1.03444176E2,1.1215723E2,7.512045E1,6.573657E1,6.916876E1,1.01054016E2,6.490003E1,7.849582E1,8.088196E1,9.0274445E1,7.759244E1,1.10896904E2,2.9761108E1,6.2792786E1,3.3224884E1,6.9534874E1,1.6734798E2,8.24924E1,1.488328E2,9.8299965E1,8.166101E1,1.9676208E2,1.0978467E2,1.8283482E2,8.489282E1,1.1302954E2,5.425415E1,5.426764E1,6.336434E1,8.665112E1,7.34776E1,1.8411444E2,3.513098E1,3.6315674E1,4.163025E1,5.3404297E1,5.6401695E1,4.5049805E1,5.1678303E1,5.4203125E1,0E0,0E0,0E0,0E0,0E0,0E0,0E0,0E0,0E0,0E0,0E0,0E0,0E0,0E0,0E0,0E0,0E0,0E0,0E0,0E0,0E0,0E0,0E0,0E0,0E0,0E0,0E0,0E0,0E0,0E0,0E0,0E0,0E0,0E0,0E0,0E0,0E0,0E0,0E0,0E0,0E0,0E0,0E0,0E0,0E0,0E0,0E0,0E0,0E0,0E0,0E0,0E0,0E0,0E0,0E0,0E0,0E0,0E0,0E0,0E0,0E0,0E0,0E0,0E0,0E0,0E0,0E0,0E0,0E0,0E0,0E0,0E0,0E0,0E0,0E0,0E0,0E0,0E0,0E0,0E0,0E0,0E0,0E0,0E0,0E0,0E0,0E0,0E0,0E0,0E0,0E0,0E0,0E0,0E0,0E0,0E0,0E0,0E0,0E0,0E0,0E0,0E0,0E0,0E0,0E0,0E0,0E0,0E0,0E0,0E0,0E0,0E0,0E0,0E0,0E0,0E0,0E0,0E0,0E0,0E0,0E0,0E0],"parents":[2147483647,0,0,1,1,2,2,3,3,4,4,5,5,6,6,7,7,8,8,9,9,10,10,11,11,12,12,13,13,14,14,15,15,16,16,17,17,18,18,19,19,20,20,21,21,22,22,23,23,24,24,25,25,26,26,27,27,28,28,29,29,30,30,31,31,32,32,33,33,34,34,35,35,36,36,37,37,38,38,39,39,40,40,41,41,42,42,43,43,44,44,45,45,46,46,47,47,48,48,49,49,50,50,51,51,52,52,53,53,54,54,55,55,56,56,57,57,58,58,59,59,60,60,61,61,62,62,63,63,65,65,66,66,68,68,69,69,71,71,72,72,73,73,74,74,75,75,76,76,77,77,78,78,79,79,80,80,81,81,82,82,83,83,84,84,85,85,86,86,87,87,88,88,89,89,90,90,91,91,92,92,93,93,94,94,95,95,96,96,97,97,98,98,99,99,100,100,101,101,102,102,103,103,104,104,105,105,106,106,107,107,108,108,109,109,110,110,111,111,112,112,113,113,114,114,115,115,116,116,117,117,118,118,119,119,120,120,121,121,122,122,123,123,124,124,125,125,126,126],"right_children":[2,4,6,8,10,12,14,16,18,20,22,24,26,28,30,32,34,36,38,40,42,44,46,48,50,52,54,56,58,60,62,64,66,68,70,72,74,76,78,80,82,84,86,88,90,92,94,96,98,100,102,104,106,108,110,112,114,116,118,120,122,124,126,128,-1,130,132,-1,134,136,-1,138,140,142,144,146,148,150,152,154,156,158,160,162,164,166,168,170,172,174,176,178,180,182,184,186,188,190,192,194,196,198,200,202,204,206,208,210,212,214,216,218,220,222,224,226,228,230,232,234,236,238,240,242,244,246,248,-1,-1,-1,-1,-1,-1,-1,-1,-1,-1,-1,-1,-1,-1,-1,-1,-1,-1,-1,-1,-1,-1,-1,-1,-1,-1,-1,-1,-1,-1,-1,-1,-1,-1,-1,-1,-1,-1,-1,-1,-1,-1,-1,-1,-1,-1,-1,-1,-1,-1,-1,-1,-1,-1,-1,-1,-1,-1,-1,-1,-1,-1,-1,-1,-1,-1,-1,-1,-1,-1,-1,-1,-1,-1,-1,-1,-1,-1,-1,-1,-1,-1,-1,-1,-1,-1,-1,-1,-1,-1,-1,-1,-1,-1,-1,-1,-1,-1,-1,-1,-1,-1,-1,-1,-1,-1,-1,-1,-1,-1,-1,-1,-1,-1,-1,-1,-1,-1,-1,-1,-1,-1],"split_conditions":[-2.599969E-1,-8.524003E-1,3.6676323E-1,-1.583194E0,6.664973E-2,-1E0,7.463544E-1,1.999901E-1,1.9999242E-1,-6.184751E-1,1.311824E-1,1.791555E-1,-2.1893815E-3,1.9999242E-1,1.3333677E-1,-4.3731704E0,-1.3441241E0,-1.2226945E0,1.2680028E-1,0E0,-1E0,1.2862617E-1,-3.7490022E-1,-2.0000404E-1,9.347104E-1,6.664973E-2,1E0,8.8013136E-1,8.540837E-2,0E0,9.196539E-1,2.88E-1,-1.768E-1,-1.068484E0,1.5422938E0,-4.8172483E-3,-8.704079E-1,-4.1147023E-2,-1.0890688E0,-6.562859E-2,0E0,4.0854767E-2,0E0,-3.9467132E-1,-4.8172483E-3,-1.7504106E0,0E0,1E0,-2.63778E-1,2.2988506E-1,-6.1959875E-1,1.2680028E-1,1.2142069E-1,-8.0407923E-1,-6.670168E-2,-3.6680883E-1,8E0,-6.3765734E-1,-1E0,-3.900737E-1,-8.4997785E-1,-5.507316E-1,-6.94E-2,-1.564E-1,-7.399567E-2,-5.1490515E-1,5.1713225E-2,-6.866103E-2,1.5511776E0,8.695832E-1,-8.430025E-2,-1.0161853E0,-3.2939246E0,-5E-1,-8.812261E-2,4.17E-2,-8.708213E-1,4E0,-1.6304867E-2,9.782706E-2,-6.517588E-1,-5E-1,-9.3040895E-1,-3.2866666E-1,-3.127966E-1,7.8632724E-1,-5.699091E-2,4.0854767E-2,-8.1774414E-1,-5.783924E-1,-1.0122437E0,5.8256173E-1,0E0,-4.4455165E-1,2.53E-2,-7.1E-1,-7.965454E-1,-1.5288155E-1,4.7509578E-1,0E0,0E0,-1.9644226E0,2.1893815E-3,-8.0407923E-1,-4.6464142E-1,-4.5910493E-1,1.1653286E-2,7.126437E-1,1.7980465E-1,1E0,1.2680028E-1,4.446275E-2,1.875E-1,1E0,1.359E-1,2.1466753E-1,1E0,-3.6E-1,1.2680028E-1,6.2E-1,7.5205255E-1,5.5152017E-1,-1.24E-2,3.136289E-1,-5.462804E-1,2.0347315E-1,1.086E-1,-7.395779E-2,6.939651E-2,-9.253671E-2,7.2676145E-2,4.576135E-2,5.9071958E-2,7.3320664E-2,-6.546835E-2,6.411726E-2,4.42302E-2,-9.2817776E-2,3.6099594E-2,-5.7638515E-2,4.9937487E-2,5.7367207E-3,2.529544E-2,4.9365457E-2,2.419096E-2,4.6139073E-2,1.3985144E-2,1.5724389E-2,6.1733473E-2,4.8516843E-2,2.5514988E-2,2.0835029E-2,4.65414E-2,1.32229915E-2,-2.5489489E-2,-5.8888175E-2,1.9491691E-2,1.1939912E-2,4.0019747E-2,-6.3443325E-2,1.2787047E-2,-3.540438E-2,-7.838081E-3,-6.4779304E-2,-2.715152E-3,-1.6030459E-2,-6.640684E-2,-6.6945725E-3,1.180477E-2,1.0897078E-2,-2.4804858E-2,-1.6711084E-2,3.1892486E-2,3.7549704E-2,1.4509583E-2,-9.058564E-2,4.762364E-2,-2.375506E-3,-7.079287E-2,2.804693E-3,2.1430328E-2,-3.328357E-3,-5.448399E-2,4.200187E-3,-6.188486E-2,-9.103782E-3,-5.1023047E-2,7.2926604E-3,-3.5009626E-2,-8.687971E-3,-4.1876286E-2,-1.7918406E-2,9.548078E-3,-3.812954E-2,-7.19697E-2,-7.271324E-2,-4.181821E-2,-2.8010719E-3,-9.644676E-2,-3.4473673E-2,1.6358344E-2,-2.5367891E-2,4.8364347E-4,-7.4076585E-2,-2.6030114E-2,-4.9699377E-3,2.262352E-2,6.1886995E-3,-1.5257666E-2,-6.516555E-2,-2.5692264E-2,-1.3931668E-2,-2.8720856E-2,-8.052348E-3,-3.20705E-2,1.1165954E-2,-1.3675234E-2,-6.4910024E-2,-4.552628E-2,-3.9011694E-2,-6.8336174E-2,-5.626594E-2,-8.487516E-2,-8.227638E-2,4.8846122E-2,5.3406996E-3,-3.9327677E-2,-5.18301E-2,-2.1485936E-2,-4.8416615E-3,-5.903393E-2,7.040083E-3,-2.5786875E-2,-8.848983E-2,-2.5464273E-3,-7.31356E-2,-4.1937098E-2,-8.107907E-2,-2.011179E-2,-8.3015524E-2,-5.887727E-2,-3.9649695E-2,1.2317464E-2,-1.5899872E-2,-5.3137906E-2,-8.8064395E-2,4.303151E-2,-6.381841E-2,-3.0726353E-2],"split_indices":[118,118,118,118,111,12,118,111,111,118,117,118,112,111,111,119,42,118,117,40,12,17,118,111,108,111,2,112,8,12,118,48,46,108,117,40,119,40,118,40,112,42,22,8,40,17,106,2,108,110,80,117,117,117,111,19,45,112,12,19,117,15,54,46,0,42,108,0,117,16,0,8,17,12,112,51,16,59,119,42,118,12,0,115,118,42,119,42,117,118,16,80,40,15,47,6,42,118,17,13,29,17,17,117,8,80,119,110,113,3,117,108,64,1,69,117,30,6,117,48,17,16,47,17,117,108,67,0,0,0,0,0,0,0,0,0,0,0,0,0,0,0,0,0,0,0,0,0,0,0,0,0,0,0,0,0,0,0,0,0,0,0,0,0,0,0,0,0,0,0,0,0,0,0,0,0,0,0,0,0,0,0,0,0,0,0,0,0,0,0,0,0,0,0,0,0,0,0,0,0,0,0,0,0,0,0,0,0,0,0,0,0,0,0,0,0,0,0,0,0,0,0,0,0,0,0,0,0,0,0,0,0,0,0,0,0,0,0,0,0,0,0,0,0,0,0,0,0,0],"split_type":[0,0,0,0,0,0,0,0,0,0,0,0,0,0,0,0,0,0,0,0,0,0,0,0,0,0,0,0,0,0,0,0,0,0,0,0,0,0,0,0,0,0,0,0,0,0,0,0,0,0,0,0,0,0,0,0,0,0,0,0,0,0,0,0,0,0,0,0,0,0,0,0,0,0,0,0,0,0,0,0,0,0,0,0,0,0,0,0,0,0,0,0,0,0,0,0,0,0,0,0,0,0,0,0,0,0,0,0,0,0,0,0,0,0,0,0,0,0,0,0,0,0,0,0,0,0,0,0,0,0,0,0,0,0,0,0,0,0,0,0,0,0,0,0,0,0,0,0,0,0,0,0,0,0,0,0,0,0,0,0,0,0,0,0,0,0,0,0,0,0,0,0,0,0,0,0,0,0,0,0,0,0,0,0,0,0,0,0,0,0,0,0,0,0,0,0,0,0,0,0,0,0,0,0,0,0,0,0,0,0,0,0,0,0,0,0,0,0,0,0,0,0,0,0,0,0,0,0,0,0,0,0,0,0,0,0,0,0,0,0,0,0,0,0,0,0,0,0,0],"sum_hessian":[1.12966516E5,5.713505E4,5.583147E4,2.8492137E4,2.8642912E4,3.2718285E4,2.3113186E4,7.873311E3,2.0618826E4,1.418495E4,1.4457963E4,6.8940317E3,2.5824252E4,1.4021496E4,9.091689E3,3.9481135E3,3.9251973E3,1.1112091E4,9.506735E3,5.2306357E3,8.954314E3,8.676383E3,5.78158E3,4.825783E3,2.0682485E3,1.0612217E4,1.5212036E4,9.178921E3,4.8425757E3,5.833341E3,3.2583489E3,1.1330001E3,2.8151135E3,2.572407E3,1.3527903E3,4.1035596E3,7.0085312E3,6.3199043E3,3.1868306E3,1.614514E3,3.6161216E3,1.8467809E3,7.107533E3,4.2509165E3,4.4254663E3,4.577461E3,1.2041189E3,2.0797622E3,2.746021E3,1.7430848E3,3.2516373E2,5.342114E3,5.270103E3,1.0218584E4,4.9934517E3,7.134194E3,2.0447266E3,2.6099358E3,2.23264E3,2.218252E3,3.6150889E3,1.4243942E3,1.8339547E3,1.1305032E3,2.4968846E0,1.2087756E1,2.8030256E3,1.9982431E0,2.5704087E3,1.3480449E3,4.7453914E0,2.1660833E3,1.9374762E3,3.9867405E3,3.0217908E3,2.5568306E3,3.763074E3,1.7829402E3,1.4038905E3,1.4526299E3,1.618842E2,1.762758E3,1.8533635E3,1.5571752E3,2.896058E2,1.1346858E3,5.9728477E3,1.2617356E3,2.989181E3,1.4236338E3,3.0018323E3,3.658255E2,4.2116357E3,2.5537227E2,9.487467E2,1.2809736E3,7.9878845E2,9.112056E2,1.8348154E3,6.928311E2,1.0502537E3,5.7924583E1,2.6723914E2,4.0303599E3,1.3117537E3,3.1299543E3,2.1401487E3,8.486853E2,9.369899E3,1.916796E3,3.0766558E3,2.3017275E3,4.8324663E3,1.6509061E3,3.9382047E2,3.256722E2,2.2842634E3,5.0406107E2,1.7285787E3,6.5670953E2,1.5615424E3,5.751663E2,3.0399226E3,2.9404016E2,1.130354E3,3.3800236E1,1.8001544E3,2.496957E0,1.1280062E3,9.24191E0,2.845846E0,1.5590679E3,1.2439578E3,2.5684111E3,1.9975758E0,1.1359409E3,2.12104E2,1.0244807E1,2.1558384E3,1.4089621E1,1.9233866E3,1.01089703E3,2.9758435E3,1.6161116E3,1.4056792E3,2.3957395E3,1.61091E2,1.1523644E2,3.6478376E3,1.5428702E3,2.4006996E2,9.1039575E2,4.9349472E2,1.2472781E3,2.0535178E2,1.2411206E2,3.777214E1,4.0396857E2,1.3587894E3,3.2691998E1,1.8206715E3,4.29326E2,1.1278491E3,2.1846053E2,7.114527E1,1.0625586E3,7.212725E1,1.9102461E3,4.0626013E3,1.0088133E3,2.5292238E2,1.232322E2,2.8659487E3,7.5463885E2,6.6899493E2,7.745716E0,2.9940867E3,3.2513687E2,4.0688633E1,9.368281E2,3.2748074E3,1.0547815E2,1.4989412E2,9.024601E2,4.6286568E1,1.2836134E2,1.1526123E3,1.5648993E2,6.422985E2,2.3938991E2,6.7181573E2,1.3275175E3,5.0729785E2,7.673392E1,6.160972E2,2.069815E2,8.432722E2,1.1939569E1,4.5985016E1,1.3390869E2,1.3333044E2,7.7400116E2,3.2563586E3,9.585684E1,1.2158969E3,6.055367E2,2.5244177E3,1.1207949E3,1.0193537E3,6.844386E2,1.642467E2,3.7584922E3,5.611407E3,8.805841E2,1.0362119E3,1.8368256E3,1.2398302E3,1.0653977E3,1.2363298E3,4.4765386E3,3.5592783E2,1.4594376E3,1.914685E2,3.863813E2,7.439167E0,1.9109926E2,1.3457294E2,2.0156771E3,2.6858636E2,7.336741E1,4.3069366E2,7.676937E2,9.60885E2,6.445345E2,1.2175067E1,1.4569489E3,1.0459362E2,5.448358E2,3.033052E1,2.562701E2,2.7836523E3,2.2682428E2,6.721587E1,8.922535E1,1.0411287E3,9.740598E0,2.4059637E1,1.6634604E3,1.3669395E2],"tree_param":{"num_deleted":"0","num_feature":"124","num_nodes":"249","size_leaf_vector":"1"}},{"base_weights":[-4.2148735E-3,3.876625E-1,-6.4348793E-1,9.408593E-1,2.1855585E-1,-4.422644E-1,-1.0153922E0,1.2503825E0,7.9784495E-1,4.4963825E-1,3.3190288E-3,-2.9788768E-1,-6.563479E-1,-1.0696726E0,-5.7256234E-1,1.3820653E0,1.1383818E0,8.313887E-1,7.2353736E-2,6.42101E-2,5.640405E-1,1.1464684E-1,-4.3290377E-1,-3.705142E-1,2.3482135E-1,-7.9895705E-1,-4.050676E-1,-1.1882427E0,-8.8002044E-1,-2.1598326E-1,-7.9063183E-1,-7.7644214E-2,1.386729E0,1.1481955E0,-1.0412427E0,5.542552E-1,9.123722E-1,-4.8657203E-1,2.9280192E-1,-2.4491188E-1,2.8079745E-1,4.4259772E-1,8.394891E-1,1.3864734E-2,5.4561985E-1,-5.798681E-1,-6.516747E-2,-7.1855557E-1,-2.473841E-1,6.8476325E-1,1.1782267E-1,-1.0737034E0,-6.9893867E-1,-6.3758403E-1,-2.0121902E-1,-1.1033428E0,-1.396888E0,-6.049368E-1,-9.8375535E-1,-8.518741E-2,-8.1907547E-1,-8.835969E-1,-1.2486114E-1,1.3924507E0,-4.6171027E-1,9.8982E-1,1.2584734E0,-9.290199E-2,7.042682E-2,-9.8271555E-1,5.82302E-1,8.2209855E-1,1.1064371E0,5.191228E-2,-1.231278E0,5.776598E-1,-2.5616086E-1,2.6971954E-1,-3.7647587E-1,7.501814E-1,1.536921E-1,5.234957E-1,5.999714E-2,4.8586005E-1,9.481431E-1,-1.7027591E-1,2.4597575E-1,8.7486136E-1,4.3528378E-1,-3.72437E-1,-7.506153E-1,-6.05439E-1,5.7780378E-2,-2.9404694E-1,-8.16447E-1,-2.813582E-2,-4.2019406E-1,-8.3161294E-2,7.1626323E-1,2.9127926E-1,-2.675309E-1,-1.130818E0,-5.668731E-1,-4.8979777E-1,-8.435453E-1,-3.2887807E-1,-7.960166E-1,-1.2555812E-1,-8.0872446E-1,-6.735692E-1,-1.1408672E0,-1.5028319E0,-1.115419E0,-1.018982E0,-4.2125797E-1,-1.0605345E0,-5.7954E-1,-4.0042362E-1,2.4467675E-1,-1.5192119E0,-6.836724E-2,-1.0004468E0,-2.1430854E-1,-5.639723E-1,1.032324E0,6.265556E-2,7.3741265E-2,-8.600696E-2,6.8869E-2,5.019175E-2,-8.697773E-2,6.31304E-2,-7.138648E-2,-8.232598E-2,4.5612488E-2,-3.9027583E-2,3.0713303E-2,4.2986944E-2,1.835028E-2,4.4344235E-2,5.862067E-2,-6.430714E-2,2.0692268E-2,-8.6259924E-2,7.2634886E-3,-4.803064E-2,3.308901E-2,9.651541E-3,-7.917113E-2,-1.6776951E-2,2.2677878E-2,-1.5004716E-2,-4.8703216E-2,4.0353518E-2,-6.794714E-2,1.2134213E-2,-2.215793E-2,2.2032699E-2,4.169927E-2,-9.445754E-3,1.883631E-2,-1.6515896E-2,2.9482663E-2,4.0783703E-2,5.5866707E-2,3.0042762E-2,-1.1806759E-2,2.2295838E-2,1.5621491E-3,4.5049336E-2,-5.3745944E-2,8.1216665E-3,3.3462986E-2,-1.3502634E-2,-5.445155E-2,-3.5003167E-2,-8.196979E-2,2.123322E-3,-4.980732E-2,1.6817618E-2,-1.2527214E-2,-2.0536648E-2,2.07498E-2,-7.235152E-2,-3.694993E-2,1.591536E-2,-7.108472E-3,-3.0345246E-2,-1.1845706E-2,3.733998E-2,-8.2435116E-2,2.0511681E-2,-3.1098643E-2,2.7833045E-2,-2.2495076E-2,-5.727097E-2,4.318487E-2,-4.213541E-2,3.4903523E-2,-5.8834743E-2,-2.0438895E-2,4.0135387E-2,-4.295855E-2,-3.5334583E-2,-3.0355596E-3,-7.499719E-2,-3.5515077E-2,9.347089E-3,-1.1819075E-2,1.5807595E-2,-5.16195E-2,-3.736654E-2,5.210894E-2,-5.892826E-2,-3.5276894E-2,6.253009E-2,-7.5730614E-2,-2.2743898E-2,-6.32331E-2,-6.4542376E-2,-1.5051702E-2,-1.3059496E-2,-4.474881E-2,-5.439387E-2,-5.657721E-3,6.215055E-2,-3.2397E-2,-9.360992E-2,-1.3528255E-2,-3.8706716E-2,2.4742918E-2,-9.502912E-2,7.1255653E-3,1.8883707E-2,-8.920198E-2,-3.3354796E-2,-6.0711917E-2,8.4385177E-4,-8.953043E-2,-5.10916E-2,2.3331309E-2,7.622744E-2,-8.064754E-2],"categories":[],"categories_nodes":[],"categories_segments":[],"categories_sizes":[],"default_left":[0,0,0,0,0,0,0,0,0,0,0,0,0,0,0,0,0,0,0,0,0,0,0,0,0,0,0,0,0,0,0,0,0,0,0,0,0,0,0,0,0,0,0,0,0,0,0,0,0,0,0,0,0,0,0,0,0,0,0,0,0,0,0,0,0,0,0,0,0,0,0,0,0,0,0,0,0,0,0,0,0,0,0,0,0,0,0,0,0,0,0,0,0,0,0,0,0,0,0,0,0,0,0,0,0,0,0,0,0,0,0,0,0,0,0,0,0,0,0,0,0,0,0,0,0,0,0,0,0,0,0,0,0,0,0,0,0,0,0,0,0,0,0,0,0,0,0,0,0,0,0,0,0,0,0,0,0,0,0,0,0,0,0,0,0,0,0,0,0,0,0,0,0,0,0,0,0,0,0,0,0,0,0,0,0,0,0,0,0,0,0,0,0,0,0,0,0,0,0,0,0,0,0,0,0,0,0,0,0,0,0,0,0,0,0,0,0,0,0,0,0,0,0,0,0,0,0,0,0,0,0,0,0,0,0,0,0,0,0,0,0,0,0],"id":2,"left_children":[1,3,5,7,9,11,13,15,17,19,21,23,25,27,29,31,33,35,37,39,41,43,45,47,49,51,53,55,57,59,61,-1,63,65,67,69,71,73,75,77,79,81,83,85,87,89,91,93,95,97,99,101,103,105,107,109,111,113,115,117,119,121,123,125,127,129,131,-1,-1,133,135,137,139,141,143,145,147,149,151,153,155,157,159,161,163,165,167,169,171,173,175,177,179,181,183,185,187,-1,189,191,193,195,197,199,201,203,205,207,209,211,213,215,217,219,221,223,225,227,229,231,233,235,237,239,241,-1,-1,-1,-1,-1,-1,-1,-1,-1,-1,-1,-1,-1,-1,-1,-1,-1,-1,-1,-1,-1,-1,-1,-1,-1,-1,-1,-1,-1,-1,-1,-1,-1,-1,-1,-1,-1,-1,-1,-1,-1,-1,-1,-1,-1,-1,-1,-1,-1,-1,-1,-1,-1,-1,-1,-1,-1,-1,-1,-1,-1,-1,-1,-1,-1,-1,-1,-1,-1,-1,-1,-1,-1,-1,-1,-1,-1,-1,-1,-1,-1,-1,-1,-1,-1,-1,-1,-1,-1,-1,-1,-1,-1,-1,-1,-1,-1,-1,-1,-1,-1,-1,-1,-1,-1,-1,-1,-1,-1,-1,-1,-1,-1,-1,-1,-1,-1,-1],"loss_changes":[2.8264934E4,6.543384E3,3.2084004E3,7.239092E2,2.6645847E3,8.598618E2,3.6123535E2,7.472803E1,2.7258545E2,1.1391514E3,1.3471359E3,6.431041E2,4.0126074E2,3.004795E2,1.27812805E2,3.463672E1,6.1117188E1,2.3982373E2,6.1282333E1,3.960503E2,6.6604736E2,9.598714E2,3.0477087E2,6.2663416E2,1.0492356E2,1.9567773E2,1.9227942E2,1.4455957E2,1.4670923E2,4.930774E1,6.3078735E1,0E0,2.570752E1,4.746997E1,2.8791618E1,1.0506775E2,1.4423828E2,5.6498238E1,5.5892776E1,1.6511821E2,2.073982E2,4.2797876E2,2.3371924E2,7.656239E2,1.5177344E2,1.4243689E2,1.0708157E2,1.5857776E2,4.0939996E2,3.16212E1,1.05971535E2,5.4528564E1,1.581604E2,9.246454E1,9.938856E1,9.384961E1,6.934473E1,1.0727289E2,1.1567236E2,5.3704533E1,5.84718E1,6.983319E1,6.473684E1,2.527295E1,2.1032887E1,4.5722046E1,2.0024658E1,0E0,0E0,5.6615494E1,1.0421356E2,9.661621E1,3.7020996E1,4.055014E1,4.04309E1,3.1045013E1,7.3325455E1,5.5430325E1,8.832349E1,8.999539E1,1.4555191E2,2.9323462E2,1.9044057E2,1.2172064E2,1.03558105E2,5.0743243E2,3.402082E2,5.4470825E1,2.0029346E2,1.3332983E2,9.810986E1,7.5689606E1,1.1291886E2,5.9551456E1,1.5057568E2,1.8825235E2,2.0664185E2,0E0,3.0600693E1,1.1898939E2,7.424323E1,5.0842285E1,6.863518E1,1.18935425E2,8.039526E1,6.527682E1,7.4487854E1,6.674486E1,6.0592636E1,6.071234E1,8.7697266E1,5.792798E1,6.401343E1,8.441589E1,7.428119E1,8.141284E1,7.564157E1,4.9946888E1,6.475157E1,3.6785294E1,4.263126E1,5.351526E1,4.9009483E1,4.396985E1,4.814065E1,0E0,0E0,0E0,0E0,0E0,0E0,0E0,0E0,0E0,0E0,0E0,0E0,0E0,0E0,0E0,0E0,0E0,0E0,0E0,0E0,0E0,0E0,0E0,0E0,0E0,0E0,0E0,0E0,0E0,0E0,0E0,0E0,0E0,0E0,0E0,0E0,0E0,0E0,0E0,0E0,0E0,0E0,0E0,0E0,0E0,0E0,0E0,0E0,0E0,0E0,0E0,0E0,0E0,0E0,0E0,0E0,0E0,0E0,0E0,0E0,0E0,0E0,0E0,0E0,0E0,0E0,0E0,0E0,0E0,0E0,0E0,0E0,0E0,0E0,0E0,0E0,0E0,0E0,0E0,0E0,0E0,0E0,0E0,0E0,0E0,0E0,0E0,0E0,0E0,0E0,0E0,0E0,0E0,0E0,0E0,0E0,0E0,0E0,0E0,0E0,0E0,0E0,0E0,0E0,0E0,0E0,0E0,0E0,0E0,0E0,0E0,0E0,0E0,0E0,0E0,0E0,0E0,0E0],"parents":[2147483647,0,0,1,1,2,2,3,3,4,4,5,5,6,6,7,7,8,8,9,9,10,10,11,11,12,12,13,13,14,14,15,15,16,16,17,17,18,18,19,19,20,20,21,21,22,22,23,23,24,24,25,25,26,26,27,27,28,28,29,29,30,30,32,32,33,33,34,34,35,35,36,36,37,37,38,38,39,39,40,40,41,41,42,42,43,43,44,44,45,45,46,46,47,47,48,48,49,49,50,50,51,51,52,52,53,53,54,54,55,55,56,56,57,57,58,58,59,59,60,60,61,61,62,62,63,63,64,64,65,65,66,66,69,69,70,70,71,71,72,72,73,73,74,74,75,75,76,76,77,77,78,78,79,79,80,80,81,81,82,82,83,83,84,84,85,85,86,86,87,87,88,88,89,89,90,90,91,91,92,92,93,93,94,94,95,95,96,96,98,98,99,99,100,100,101,101,102,102,103,103,104,104,105,105,106,106,107,107,108,108,109,109,110,110,111,111,112,112,113,113,114,114,115,115,116,116,117,117,118,118,119,119,120,120,121,121,122,122,123,123,124,124],"right_children":[2,4,6,8,10,12,14,16,18,20,22,24,26,28,30,32,34,36,38,40,42,44,46,48,50,52,54,56,58,60,62,-1,64,66,68,70,72,74,76,78,80,82,84,86,88,90,92,94,96,98,100,102,104,106,108,110,112,114,116,118,120,122,124,126,128,130,132,-1,-1,134,136,138,140,142,144,146,148,150,152,154,156,158,160,162,164,166,168,170,172,174,176,178,180,182,184,186,188,-1,190,192,194,196,198,200,202,204,206,208,210,212,214,216,218,220,222,224,226,228,230,232,234,236,238,240,242,-1,-1,-1,-1,-1,-1,-1,-1,-1,-1,-1,-1,-1,-1,-1,-1,-1,-1,-1,-1,-1,-1,-1,-1,-1,-1,-1,-1,-1,-1,-1,-1,-1,-1,-1,-1,-1,-1,-1,-1,-1,-1,-1,-1,-1,-1,-1,-1,-1,-1,-1,-1,-1,-1,-1,-1,-1,-1,-1,-1,-1,-1,-1,-1,-1,-1,-1,-1,-1,-1,-1,-1,-1,-1,-1,-1,-1,-1,-1,-1,-1,-1,-1,-1,-1,-1,-1,-1,-1,-1,-1,-1,-1,-1,-1,-1,-1,-1,-1,-1,-1,-1,-1,-1,-1,-1,-1,-1,-1,-1,-1,-1,-1,-1,-1,-1,-1,-1],"split_conditions":[1.1653286E-2,-2.035381E0,1.3426255E0,-3.6760962E0,0E0,1.6355861E-2,1.0384096E0,-4.3731704E0,2.6651892E-1,-5E-1,1.7863458E-1,9.175325E-1,1.9999242E-1,1.3333294E-1,1.8322817E0,-8.648738E-1,8.5333645E-1,-5E-1,-1.7368302E-1,-2E-1,4.6665308E-1,8.8639724E-1,4E-1,-5E-1,-1.7566454E0,-5E-1,-3.6354583E-2,2.4047916E0,-1.9923371E-1,6E-4,4E0,-7.7644214E-2,3.18E1,6.6619895E-2,3E0,-1.9162562E0,4.666576E-1,5E-1,9.359147E-2,-1.2451278E0,-1.2451278E0,4.0854767E-2,-2.1220629E-1,1.9996507E-1,-1.8732367E0,2.7459073E-1,-1.4767379E0,-7.9517066E-1,-2.1893815E-3,-6.000206E-1,1.311824E-1,1.7635468E0,-4.4435274E-2,-1.0837439E-1,1.9E-3,-6.929392E-1,4.5E-3,-5E-1,2E0,4.215821E-2,1.5932705E0,1.9195403E0,4.69E-2,2.7003568E-7,1.264E-1,1.5516294E-5,1E0,-9.290199E-2,7.042682E-2,1E0,-6.000206E-1,1.6531852E0,-1.7216045E-1,1.1128203E0,-9.4510935E-2,-7.602413E-1,-2.5121064E0,-6.666667E-1,4.17E-2,7.72E-2,1E0,8.4131354E-1,7.418243E-1,-5.1768804E-1,4.8450398E-1,-1.3972899E0,1.2680028E-1,2.2905843E0,-6.3416135E-1,1.554896E0,8.62E-2,-2.8383332E-1,3.4598982E-1,1E0,-2.86E-2,-8.431407E-1,-9.499806E-2,-8.3161294E-2,1.779E-1,1.554896E0,-7.5E-1,9.195402E0,1.9195403E0,-6.4633334E-1,-7.1E-2,-1.0784245E-1,-1.25E0,-3.8149974E-1,-1E0,2.2786996E0,1E0,-9.287356E-1,-7.117086E-1,2.7512658E-1,3.1049663E-1,4E0,-1.0348872E0,-6.4809465E-1,-4.7391987E-1,1.75E-2,3.6503986E-1,-3.5556418E-1,6.6047597E-1,1E0,1.4E1,6.265556E-2,7.3741265E-2,-8.600696E-2,6.8869E-2,5.019175E-2,-8.697773E-2,6.31304E-2,-7.138648E-2,-8.232598E-2,4.5612488E-2,-3.9027583E-2,3.0713303E-2,4.2986944E-2,1.835028E-2,4.4344235E-2,5.862067E-2,-6.430714E-2,2.0692268E-2,-8.6259924E-2,7.2634886E-3,-4.803064E-2,3.308901E-2,9.651541E-3,-7.917113E-2,-1.6776951E-2,2.2677878E-2,-1.5004716E-2,-4.8703216E-2,4.0353518E-2,-6.794714E-2,1.2134213E-2,-2.215793E-2,2.2032699E-2,4.169927E-2,-9.445754E-3,1.883631E-2,-1.6515896E-2,2.9482663E-2,4.0783703E-2,5.5866707E-2,3.0042762E-2,-1.1806759E-2,2.2295838E-2,1.5621491E-3,4.5049336E-2,-5.3745944E-2,8.1216665E-3,3.3462986E-2,-1.3502634E-2,-5.445155E-2,-3.5003167E-2,-8.196979E-2,2.123322E-3,-4.980732E-2,1.6817618E-2,-1.2527214E-2,-2.0536648E-2,2.07498E-2,-7.235152E-2,-3.694993E-2,1.591536E-2,-7.108472E-3,-3.0345246E-2,-1.1845706E-2,3.733998E-2,-8.2435116E-2,2.0511681E-2,-3.1098643E-2,2.7833045E-2,-2.2495076E-2,-5.727097E-2,4.318487E-2,-4.213541E-2,3.4903523E-2,-5.8834743E-2,-2.0438895E-2,4.0135387E-2,-4.295855E-2,-3.5334583E-2,-3.0355596E-3,-7.499719E-2,-3.5515077E-2,9.347089E-3,-1.1819075E-2,1.5807595E-2,-5.16195E-2,-3.736654E-2,5.210894E-2,-5.892826E-2,-3.5276894E-2,6.253009E-2,-7.5730614E-2,-2.2743898E-2,-6.32331E-2,-6.4542376E-2,-1.5051702E-2,-1.3059496E-2,-4.474881E-2,-5.439387E-2,-5.657721E-3,6.215055E-2,-3.2397E-2,-9.360992E-2,-1.3528255E-2,-3.8706716E-2,2.4742918E-2,-9.502912E-2,7.1255653E-3,1.8883707E-2,-8.920198E-2,-3.3354796E-2,-6.0711917E-2,8.4385177E-4,-8.953043E-2,-5.10916E-2,2.3331309E-2,7.622744E-2,-8.064754E-2],"split_indices":[119,119,119,119,112,42,120,119,42,12,42,120,111,111,119,109,42,12,122,111,111,120,111,12,42,12,8,119,112,44,20,0,45,111,5,17,111,76,0,42,42,42,109,111,42,113,17,120,112,111,117,122,113,112,69,112,56,12,78,122,120,110,60,111,44,111,88,0,0,79,111,109,109,120,113,109,119,74,51,56,105,120,120,121,120,42,117,120,42,109,63,115,113,36,66,120,19,0,67,109,32,110,110,115,67,109,11,112,32,108,79,110,0,120,113,14,120,113,109,69,8,19,113,23,45,0,0,0,0,0,0,0,0,0,0,0,0,0,0,0,0,0,0,0,0,0,0,0,0,0,0,0,0,0,0,0,0,0,0,0,0,0,0,0,0,0,0,0,0,0,0,0,0,0,0,0,0,0,0,0,0,0,0,0,0,0,0,0,0,0,0,0,0,0,0,0,0,0,0,0,0,0,0,0,0,0,0,0,0,0,0,0,0,0,0,0,0,0,0,0,0,0,0,0,0,0,0,0,0,0,0,0,0,0,0,0,0,0,0,0,0,0,0],"split_type":[0,0,0,0,0,0,0,0,0,0,0,0,0,0,0,0,0,0,0,0,0,0,0,0,0,0,0,0,0,0,0,0,0,0,0,0,0,0,0,0,0,0,0,0,0,0,0,0,0,0,0,0,0,0,0,0,0,0,0,0,0,0,0,0,0,0,0,0,0,0,0,0,0,0,0,0,0,0,0,0,0,0,0,0,0,0,0,0,0,0,0,0,0,0,0,0,0,0,0,0,0,0,0,0,0,0,0,0,0,0,0,0,0,0,0,0,0,0,0,0,0,0,0,0,0,0,0,0,0,0,0,0,0,0,0,0,0,0,0,0,0,0,0,0,0,0,0,0,0,0,0,0,0,0,0,0,0,0,0,0,0,0,0,0,0,0,0,0,0,0,0,0,0,0,0,0,0,0,0,0,0,0,0,0,0,0,0,0,0,0,0,0,0,0,0,0,0,0,0,0,0,0,0,0,0,0,0,0,0,0,0,0,0,0,0,0,0,0,0,0,0,0,0,0,0,0,0,0,0,0,0,0,0,0,0,0,0,0,0,0,0,0,0],"sum_hessian":[1.1282458E5,6.994708E4,4.2877496E4,1.6375034E4,5.3572047E4,2.782475E4,1.5052744E4,5.1725156E3,1.1202518E4,2.5834521E4,2.7737525E4,1.6619225E4,1.1205525E4,1.3407844E4,1.6448997E3,2.3721548E3,2.800361E3,1.070731E4,4.9520807E2,5.913417E3,1.9921104E4,2.209853E4,5.638997E3,1.46255625E4,1.9936626E3,7.1471313E3,4.0583943E3,8.24674E3,5.161104E3,6.249671E2,1.01993256E3,3.236758E0,2.368918E3,2.78828E3,1.20808935E1,2.423092E3,8.284218E3,1.3972958E2,3.554785E2,2.4362188E3,3.4771985E3,1.3827356E4,6.0937476E3,1.791109E4,4.1874375E3,4.028462E3,1.6105352E3,3.8208E3,1.0804763E4,4.1042776E2,1.5832349E3,1.9048507E3,5.242281E3,1.894891E3,2.1635032E3,5.866067E3,2.3806726E3,1.4151769E3,3.7459272E3,5.1452136E2,1.1044575E2,8.9467694E2,1.25255615E2,2.3618538E3,7.0642443E0,1.1486382E3,1.6396418E3,9.241255E0,2.8396392E0,4.281436E1,2.3802776E3,5.657665E3,2.626553E3,8.163267E1,5.8096912E1,2.3400208E2,1.2147641E2,4.9579504E2,1.9404238E3,7.399084E2,2.73729E3,1.1413657E4,2.4136987E3,1.4335479E3,4.6601997E3,9.987764E3,7.9233267E3,1.0493275E3,3.13811E3,1.820284E3,2.208178E3,2.9783408E2,1.312701E3,7.1672186E2,3.1040781E3,4.7629946E3,6.0417676E3,4.7475557E0,4.056802E2,1.0919617E3,4.9127322E2,1.7108268E3,1.9402385E2,2.1447583E3,3.0975225E3,6.437058E2,1.2511852E3,1.9249675E3,2.3853564E2,4.7257138E2,5.3934956E3,1.726489E3,6.5418365E2,4.3348212E2,9.8169476E2,3.1466162E3,5.9931116E2,2.629848E2,2.5153654E2,5.6618076E1,5.3827675E1,7.612728E2,1.3340411E2,9.117176E1,3.408385E1,8.835342E2,1.4783197E3,4.232656E0,2.8315883E0,1.1433993E3,5.238967E0,1.6376511E3,1.9907664E0,3.180442E1,1.1009942E1,5.401051E1,2.326267E3,5.2246504E3,4.330148E2,6.102473E2,2.0163055E3,1.6836206E1,6.479646E1,4.25693E1,1.5527613E1,1.1592664E1,2.2240941E2,9.139853E1,3.0077887E1,1.1531449E2,3.8048056E2,1.721846E3,2.1857784E2,7.210763E2,1.8832115E1,2.3826267E3,3.5466315E2,9.011673E3,2.4019844E3,1.351769E3,1.0619297E3,1.6148984E2,1.272058E3,2.617014E3,2.0431859E3,7.85256E2,9.202508E3,4.102422E3,3.820905E3,1.0359841E3,1.3343395E1,1.4494878E3,1.6886223E3,1.5939265E3,2.263575E2,2.091032E3,1.17145874E2,1.123751E2,1.8545898E2,6.895764E2,6.2312463E2,6.158012E2,1.0092067E2,3.376067E2,2.7664714E3,1.1790767E3,3.5839182E3,2.991726E3,3.0500415E3,4.0118433E2,4.495859E0,9.666083E2,1.2535338E2,8.863783E1,4.0263538E2,1.6988159E3,1.2010898E1,1.5956311E2,3.4460735E1,2.2485814E2,1.9199E3,2.8650492E1,3.0688718E3,2.6654373E2,3.7716208E2,1.3402426E2,1.117161E3,5.0376456E2,1.421203E3,3.949431E1,1.9904134E2,4.5363367E2,1.8937714E1,4.9620894E3,4.314063E2,6.9072022E0,1.7195818E3,1.21311844E2,5.328718E2,3.1384167E2,1.1964045E2,7.34919E2,2.4677574E2,3.0582034E3,8.8412964E1,2.105724E1,5.782539E2,2.0234648E1,2.4275017E2,4.9177486E1,2.0235907E2,4.5932648E1,1.0685427E1,4.333999E1,1.0487684E1,2.9907123E2,4.622016E2,1.1720389E2,1.620023E1,6.3132607E1,2.8039154E1,2.909383E1,4.990022E0],"tree_param":{"num_deleted":"0","num_feature":"124","num_nodes":"243","size_leaf_vector":"1"}},{"base_weights":[3.5051878E-3,3.7341255E-1,-6.002157E-1,9.0163684E-1,2.1080187E-1,-4.0847495E-1,-9.4506097E-1,1.1922206E0,7.702042E-1,4.3675196E-3,4.3191478E-1,-5.6245255E-1,-2.2184728E-1,-1.007629E0,-3.9266E-1,1.0423952E0,1.2728375E0,4.133035E-1,8.4210765E-1,-1.7786323E-1,2.3767917E-1,8.2236123E-1,3.1949022E-1,-6.2089264E-1,-4.0754188E-2,-3.6190826E-2,-4.267542E-1,-8.9017427E-1,-1.1793019E0,-1.5295015E-1,-8.134835E-1,1.0507782E0,-8.816265E-2,1.3040389E0,9.190712E-1,6.7596596E-1,2.2749527E-1,7.465386E-1,1.0466121E0,3.9920226E-1,-2.2827536E-1,4.208349E-1,4.927215E-2,1.045646E0,6.8631303E-1,-2.944637E-2,4.3343946E-1,-4.8392695E-1,-8.091287E-1,8.593142E-2,-5.0332177E-1,-2.959773E-1,2.2456573E-1,-3.4464324E-1,-8.743457E-1,-9.895789E-1,-6.4800274E-1,-1.2902911E0,-9.8723066E-1,-8.314196E-1,-4.4154547E-2,-9.714835E-1,4.514565E-2,1.0575165E0,-8.635222E-2,1.4228399E0,1.2094823E0,-8.598721E-2,9.6447283E-1,7.361001E-1,-1.548234E-1,-1.3371277E0,2.8035137E-1,8.7847805E-1,6.2239414E-1,3.257975E-1,1.07265E0,4.398766E-1,-1.4526119E0,1.1933829E-1,-3.0841047E-1,2.0818079E-1,5.654131E-1,6.258683E-1,-3.6485136E-2,1.0690187E0,-2.8549436E-1,7.647741E-1,2.643207E-1,-2.7663925E-1,1.6515794E-1,3.2296783E-1,6.983594E-1,-3.8439748E-1,-1.0647154E0,-8.1786126E-1,9.7110844E-1,-1.7201261E-1,2.8681818E-1,5.594139E-1,-6.7440754E-1,-6.697389E-1,-1.4932771E-1,-4.34683E-1,3.1918216E-1,-4.0428746E-1,-8.238556E-3,-1.7004818E0,-7.447356E-1,-1.2795202E0,-9.4022995E-1,-1.0313237E0,-5.208874E-1,-1.5637378E0,-1.212275E0,2.5666063E-3,-1.0242661E0,-9.3398206E-2,-4.2165154E-1,7.137317E-2,-6.9569236E-1,-1.2362912E0,-4.2021793E-1,7.594298E-1,-9.2636055E-1,4.5527566E-2,5.8901586E-2,-1.4245341E-2,7.15367E-2,6.084494E-2,-8.6109184E-2,-8.2006805E-2,5.011615E-2,3.7680186E-2,-8.641692E-2,2.358836E-2,-5.0519284E-2,6.842204E-2,-9.6538566E-2,-6.2301256E-2,1.6249059E-2,3.778496E-2,5.142049E-2,3.282714E-2,-7.4401586E-3,-9.536354E-2,2.631609E-2,5.7322193E-2,4.16395E-2,2.3768952E-2,-5.6946464E-2,2.0056903E-2,-9.246822E-2,-8.926689E-3,9.795236E-3,-3.4093898E-2,-1.2298923E-2,1.6481495E-2,-2.2154456E-2,4.1255157E-2,2.0145874E-2,3.6881953E-2,8.169892E-3,-2.6091624E-2,3.1750437E-4,3.7065145E-2,5.7556953E-2,-9.681655E-2,2.4385806E-2,1.367586E-2,4.1529264E-2,-9.777952E-2,1.8107692E-2,-9.082227E-3,-4.26947E-2,4.756673E-3,3.4464013E-2,-5.3840864E-5,1.916234E-2,4.0857654E-2,1.7240142E-2,-3.6583114E-2,-1.326822E-2,-6.0213964E-2,-2.9426223E-2,-3.1165516E-2,-4.444691E-2,7.547466E-2,-7.741495E-2,-2.194397E-3,-5.234937E-2,1.6984126E-2,-6.711512E-2,5.5870127E-2,-8.526376E-2,-5.715686E-2,-5.3894E-3,-5.6235053E-2,-2.0838182E-2,-3.837289E-2,-1.9337373E-3,-1.456011E-2,-9.432754E-2,2.435005E-2,2.893495E-3,-3.2283183E-2,-1.5845032E-2,-4.6559222E-2,5.0060726E-3,5.6242283E-2,-8.942183E-2,-7.79609E-2,-3.1007042E-2,-8.82823E-2,-5.709326E-2,-4.5725416E-2,-7.9698674E-2,-4.480997E-2,-8.588574E-2,-2.2041595E-2,-5.2426893E-2,-5.2402414E-2,-8.2808375E-2,-6.309313E-2,-3.7248343E-2,-8.5860476E-2,2.0692062E-2,-5.4341234E-2,-2.4580698E-2,-6.52669E-2,8.738356E-3,-9.225335E-2,6.98384E-3,-6.1391093E-2,1.5043991E-2,-7.6131164E-3,-7.0864365E-2,2.1505037E-3,-6.20349E-2,5.2624356E-2,-7.791433E-2,4.7929805E-2,-9.007173E-2],"categories":[],"categories_nodes":[],"categories_segments":[],"categories_sizes":[],"default_left":[0,0,0,0,0,0,0,0,0,0,0,0,0,0,0,0,0,0,0,0,0,0,0,0,0,0,0,0,0,0,0,0,0,0,0,0,0,0,0,0,0,0,0,0,0,0,0,0,0,0,0,0,0,0,0,0,0,0,0,0,0,0,0,0,0,0,0,0,0,0,0,0,0,0,0,0,0,0,0,0,0,0,0,0,0,0,0,0,0,0,0,0,0,0,0,0,0,0,0,0,0,0,0,0,0,0,0,0,0,0,0,0,0,0,0,0,0,0,0,0,0,0,0,0,0,0,0,0,0,0,0,0,0,0,0,0,0,0,0,0,0,0,0,0,0,0,0,0,0,0,0,0,0,0,0,0,0,0,0,0,0,0,0,0,0,0,0,0,0,0,0,0,0,0,0,0,0,0,0,0,0,0,0,0,0,0,0,0,0,0,0,0,0,0,0,0,0,0,0,0,0,0,0,0,0,0,0,0,0,0,0,0,0,0,0,0,0,0,0,0,0,0,0,0,0,0,0,0,0,0,0,0,0,0,0,0,0,0,0,0,0,0,0],"id":3,"left_children":[1,3,5,7,9,11,13,15,17,19,21,23,25,27,29,31,33,35,37,39,41,43,45,47,49,51,53,55,57,59,61,63,-1,65,67,69,71,73,75,77,79,81,83,85,87,89,91,93,95,97,99,101,103,105,107,109,111,113,115,117,119,121,123,125,-1,127,129,-1,131,133,135,137,139,141,143,145,147,149,151,153,155,157,159,161,163,165,167,169,171,173,175,177,179,181,183,185,187,189,191,193,195,197,199,201,203,205,207,209,211,213,215,217,219,221,223,225,227,-1,229,231,233,235,237,239,241,-1,-1,-1,-1,-1,-1,-1,-1,-1,-1,-1,-1,-1,-1,-1,-1,-1,-1,-1,-1,-1,-1,-1,-1,-1,-1,-1,-1,-1,-1,-1,-1,-1,-1,-1,-1,-1,-1,-1,-1,-1,-1,-1,-1,-1,-1,-1,-1,-1,-1,-1,-1,-1,-1,-1,-1,-1,-1,-1,-1,-1,-1,-1,-1,-1,-1,-1,-1,-1,-1,-1,-1,-1,-1,-1,-1,-1,-1,-1,-1,-1,-1,-1,-1,-1,-1,-1,-1,-1,-1,-1,-1,-1,-1,-1,-1,-1,-1,-1,-1,-1,-1,-1,-1,-1,-1,-1,-1,-1,-1,-1,-1,-1,-1,-1,-1,-1,-1],"loss_changes":[2.5180793E4,6.005329E3,2.8321729E3,6.276094E2,2.4402458E3,7.910757E2,5.286592E2,6.0557617E1,2.9052148E2,1.1755941E3,1.1328115E3,4.5990234E2,4.7355365E2,2.7618457E2,1.5714197E2,4.4139282E1,3.5520508E1,9.270065E1,1.8357764E2,4.5171933E2,4.184093E2,1.745669E2,7.96968E2,3.4935938E2,8.915739E1,4.4255923E2,2.1717468E2,1.9598096E2,1.1772949E2,7.336989E1,7.6767E1,3.539038E1,0E0,3.2592285E1,3.4366684E1,3.9469177E1,9.265225E1,1.0480835E2,5.598877E1,9.4611786E1,3.9776538E2,1.8891516E2,2.956326E2,6.821631E1,1.18611206E2,2.3744762E2,4.419712E2,4.5363818E2,8.959375E1,6.1951363E1,5.9847878E1,1.7927661E2,2.0351767E2,1.00354675E2,9.6881165E1,8.1626465E1,1.1542383E2,7.3510254E1,7.510181E1,5.7561264E1,6.463937E1,6.92135E1,6.235886E1,3.062146E1,0E0,1.8581299E1,3.9221924E1,0E0,2.816623E1,3.2997375E1,2.9423658E1,6.148461E1,7.398851E1,5.6578857E1,8.746216E1,4.8508217E1,5.0316895E1,6.901271E1,2.06344E1,6.1056953E1,2.7038086E2,1.9709088E2,1.5409045E2,3.9892456E1,1.0821906E2,5.6881836E1,5.00287E1,9.7582275E1,1.2322531E2,1.1906981E2,1.0129988E2,2.0831836E2,1.8643579E2,2.7705334E2,7.5624146E1,7.8053955E1,4.0777184E1,5.8658886E1,5.8326748E1,5.9909935E1,7.4822784E1,1.0563788E2,1.6081953E2,8.478676E1,1.25036285E2,8.940869E1,7.552852E1,3.2707794E1,7.961804E1,5.4141968E1,8.178955E1,5.333423E1,7.511667E1,3.5498535E1,6.288965E1,5.3679073E1,6.526929E1,0E0,5.2798603E1,9.5784195E1,6.8954544E1,6.2995514E1,5.9542152E1,3.6791676E1,6.456651E1,0E0,0E0,0E0,0E0,0E0,0E0,0E0,0E0,0E0,0E0,0E0,0E0,0E0,0E0,0E0,0E0,0E0,0E0,0E0,0E0,0E0,0E0,0E0,0E0,0E0,0E0,0E0,0E0,0E0,0E0,0E0,0E0,0E0,0E0,0E0,0E0,0E0,0E0,0E0,0E0,0E0,0E0,0E0,0E0,0E0,0E0,0E0,0E0,0E0,0E0,0E0,0E0,0E0,0E0,0E0,0E0,0E0,0E0,0E0,0E0,0E0,0E0,0E0,0E0,0E0,0E0,0E0,0E0,0E0,0E0,0E0,0E0,0E0,0E0,0E0,0E0,0E0,0E0,0E0,0E0,0E0,0E0,0E0,0E0,0E0,0E0,0E0,0E0,0E0,0E0,0E0,0E0,0E0,0E0,0E0,0E0,0E0,0E0,0E0,0E0,0E0,0E0,0E0,0E0,0E0,0E0,0E0,0E0,0E0,0E0,0E0,0E0,0E0,0E0,0E0,0E0,0E0,0E0],"parents":[2147483647,0,0,1,1,2,2,3,3,4,4,5,5,6,6,7,7,8,8,9,9,10,10,11,11,12,12,13,13,14,14,15,15,16,16,17,17,18,18,19,19,20,20,21,21,22,22,23,23,24,24,25,25,26,26,27,27,28,28,29,29,30,30,31,31,33,33,34,34,35,35,36,36,37,37,38,38,39,39,40,40,41,41,42,42,43,43,44,44,45,45,46,46,47,47,48,48,49,49,50,50,51,51,52,52,53,53,54,54,55,55,56,56,57,57,58,58,59,59,60,60,61,61,62,62,63,63,65,65,66,66,68,68,69,69,70,70,71,71,72,72,73,73,74,74,75,75,76,76,77,77,78,78,79,79,80,80,81,81,82,82,83,83,84,84,85,85,86,86,87,87,88,88,89,89,90,90,91,91,92,92,93,93,94,94,95,95,96,96,97,97,98,98,99,99,100,100,101,101,102,102,103,103,104,104,105,105,106,106,107,107,108,108,109,109,110,110,111,111,112,112,113,113,114,114,115,115,116,116,118,118,119,119,120,120,121,121,122,122,123,123,124,124],"right_children":[2,4,6,8,10,12,14,16,18,20,22,24,26,28,30,32,34,36,38,40,42,44,46,48,50,52,54,56,58,60,62,64,-1,66,68,70,72,74,76,78,80,82,84,86,88,90,92,94,96,98,100,102,104,106,108,110,112,114,116,118,120,122,124,126,-1,128,130,-1,132,134,136,138,140,142,144,146,148,150,152,154,156,158,160,162,164,166,168,170,172,174,176,178,180,182,184,186,188,190,192,194,196,198,200,202,204,206,208,210,212,214,216,218,220,222,224,226,228,-1,230,232,234,236,238,240,242,-1,-1,-1,-1,-1,-1,-1,-1,-1,-1,-1,-1,-1,-1,-1,-1,-1,-1,-1,-1,-1,-1,-1,-1,-1,-1,-1,-1,-1,-1,-1,-1,-1,-1,-1,-1,-1,-1,-1,-1,-1,-1,-1,-1,-1,-1,-1,-1,-1,-1,-1,-1,-1,-1,-1,-1,-1,-1,-1,-1,-1,-1,-1,-1,-1,-1,-1,-1,-1,-1,-1,-1,-1,-1,-1,-1,-1,-1,-1,-1,-1,-1,-1,-1,-1,-1,-1,-1,-1,-1,-1,-1,-1,-1,-1,-1,-1,-1,-1,-1,-1,-1,-1,-1,-1,-1,-1,-1,-1,-1,-1,-1,-1,-1,-1,-1,-1,-1],"split_conditions":[1.1653286E-2,-2.035381E0,1.3181293E0,-3.6760962E0,2.1893815E-3,6.664626E-2,1.1128203E0,-7.109644E-1,-1E0,1.99972E-1,-1.1351929E0,9.175325E-1,1.311824E-1,2.1513884E0,2.2530754E0,5.10865E-1,1.5932705E0,-2.8961666E0,4.6665308E-1,-1.5925889E0,1.311824E-1,-1.7019286E0,-5E-1,4.310032E-1,2E0,-2.1787803E-1,4.614937E-1,1.713191E-1,1.3333294E-1,-5E-1,1.915E0,6E0,-8.816265E-2,-4.3731704E0,-6.820473E-1,1.5140958E0,-1.605364E0,-2.7889724E0,-1.605364E0,2.2905843E0,-8.2401633E-1,-3.2680035E-1,-1.5045307E0,1.2399464E0,1.0384096E0,-1.5999675E-1,4.6665308E-1,4.9973142E-1,3E0,0E0,9.6661925E-1,-3.9363745E-1,0E0,1.399995E0,-5E-1,-1E0,-5.999981E-1,-2.3E-3,-1.612396E0,-8.163265E-2,2E0,5.428266E-1,6.3393486E-1,6.6632785E-2,-8.635222E-2,-7.6568335E-1,7.5757576E1,-8.598721E-2,-6.89E-2,1E0,-3.3521833E0,-1.97E-2,-6.6965747E-1,-2.0492995E-1,1.6933952E-2,-9.1E-3,1.2142069E-1,1E0,-5.86145E-1,-4.9430242E-1,-8.0407923E-1,8.4261936E-1,-7.490935E-1,1.5932705E0,-1E0,-4.027318E-1,5.61029E-1,0E0,-8.207048E-1,3.759351E-1,1.039938E0,-5.9876543E-1,2.2037733E-1,-5E-1,6.9794494E-1,-4.3961415E-1,-3.1635802E-2,2.6652512E-1,1E1,5.399232E-1,2.1972422E-1,-3.2880962E-1,-7.536946E-1,5.21E-2,4.0699622E-1,-3.900737E-1,-4.9002615E-1,-9.853874E-1,0E0,-5.999988E-1,1.3333334E0,6.4E-1,5.18E-2,-3E0,5.8256173E-1,-7.453704E-1,1.1766495E0,-9.3398206E-2,0E0,-8.747285E-1,1.8815575E0,-3.45E-2,5.6857145E-1,6.77E-2,-3.35E-2,4.5527566E-2,5.8901586E-2,-1.4245341E-2,7.15367E-2,6.084494E-2,-8.6109184E-2,-8.2006805E-2,5.011615E-2,3.7680186E-2,-8.641692E-2,2.358836E-2,-5.0519284E-2,6.842204E-2,-9.6538566E-2,-6.2301256E-2,1.6249059E-2,3.778496E-2,5.142049E-2,3.282714E-2,-7.4401586E-3,-9.536354E-2,2.631609E-2,5.7322193E-2,4.16395E-2,2.3768952E-2,-5.6946464E-2,2.0056903E-2,-9.246822E-2,-8.926689E-3,9.795236E-3,-3.4093898E-2,-1.2298923E-2,1.6481495E-2,-2.2154456E-2,4.1255157E-2,2.0145874E-2,3.6881953E-2,8.169892E-3,-2.6091624E-2,3.1750437E-4,3.7065145E-2,5.7556953E-2,-9.681655E-2,2.4385806E-2,1.367586E-2,4.1529264E-2,-9.777952E-2,1.8107692E-2,-9.082227E-3,-4.26947E-2,4.756673E-3,3.4464013E-2,-5.3840864E-5,1.916234E-2,4.0857654E-2,1.7240142E-2,-3.6583114E-2,-1.326822E-2,-6.0213964E-2,-2.9426223E-2,-3.1165516E-2,-4.444691E-2,7.547466E-2,-7.741495E-2,-2.194397E-3,-5.234937E-2,1.6984126E-2,-6.711512E-2,5.5870127E-2,-8.526376E-2,-5.715686E-2,-5.3894E-3,-5.6235053E-2,-2.0838182E-2,-3.837289E-2,-1.9337373E-3,-1.456011E-2,-9.432754E-2,2.435005E-2,2.893495E-3,-3.2283183E-2,-1.5845032E-2,-4.6559222E-2,5.0060726E-3,5.6242283E-2,-8.942183E-2,-7.79609E-2,-3.1007042E-2,-8.82823E-2,-5.709326E-2,-4.5725416E-2,-7.9698674E-2,-4.480997E-2,-8.588574E-2,-2.2041595E-2,-5.2426893E-2,-5.2402414E-2,-8.2808375E-2,-6.309313E-2,-3.7248343E-2,-8.5860476E-2,2.0692062E-2,-5.4341234E-2,-2.4580698E-2,-6.52669E-2,8.738356E-3,-9.225335E-2,6.98384E-3,-6.1391093E-2,1.5043991E-2,-7.6131164E-3,-7.0864365E-2,2.1505037E-3,-6.20349E-2,5.2624356E-2,-7.791433E-2,4.7929805E-2,-9.007173E-2],"split_indices":[119,119,119,119,17,111,120,113,12,111,41,120,117,119,119,41,120,119,111,41,117,41,12,119,45,7,41,17,111,27,6,76,0,119,19,120,17,119,17,120,119,7,41,117,120,111,111,41,79,31,120,18,30,111,27,20,111,52,18,9,13,108,7,111,0,115,73,0,49,85,119,47,7,40,40,52,117,87,108,7,117,113,41,120,20,107,17,40,0,41,19,80,117,12,19,117,80,40,20,119,108,19,17,61,119,19,113,0,20,111,71,6,63,20,80,80,108,0,31,117,120,52,7,57,58,0,0,0,0,0,0,0,0,0,0,0,0,0,0,0,0,0,0,0,0,0,0,0,0,0,0,0,0,0,0,0,0,0,0,0,0,0,0,0,0,0,0,0,0,0,0,0,0,0,0,0,0,0,0,0,0,0,0,0,0,0,0,0,0,0,0,0,0,0,0,0,0,0,0,0,0,0,0,0,0,0,0,0,0,0,0,0,0,0,0,0,0,0,0,0,0,0,0,0,0,0,0,0,0,0,0,0,0,0,0,0,0,0,0,0,0,0,0],"split_type":[0,0,0,0,0,0,0,0,0,0,0,0,0,0,0,0,0,0,0,0,0,0,0,0,0,0,0,0,0,0,0,0,0,0,0,0,0,0,0,0,0,0,0,0,0,0,0,0,0,0,0,0,0,0,0,0,0,0,0,0,0,0,0,0,0,0,0,0,0,0,0,0,0,0,0,0,0,0,0,0,0,0,0,0,0,0,0,0,0,0,0,0,0,0,0,0,0,0,0,0,0,0,0,0,0,0,0,0,0,0,0,0,0,0,0,0,0,0,0,0,0,0,0,0,0,0,0,0,0,0,0,0,0,0,0,0,0,0,0,0,0,0,0,0,0,0,0,0,0,0,0,0,0,0,0,0,0,0,0,0,0,0,0,0,0,0,0,0,0,0,0,0,0,0,0,0,0,0,0,0,0,0,0,0,0,0,0,0,0,0,0,0,0,0,0,0,0,0,0,0,0,0,0,0,0,0,0,0,0,0,0,0,0,0,0,0,0,0,0,0,0,0,0,0,0,0,0,0,0,0,0,0,0,0,0,0,0,0,0,0,0,0,0],"sum_hessian":[1.1275415E5,6.991607E4,4.283808E4,1.6455973E4,5.34601E4,2.7531957E4,1.5306119E4,5.122527E3,1.1333445E4,2.7648275E4,2.5811828E4,1.5084469E4,1.2447488E4,1.3748105E4,1.5580143E3,1.7969161E3,3.3256108E3,1.901565E3,9.43188E3,1.5523615E4,1.212466E4,5.7692207E3,2.0042607E4,1.3564767E4,1.5197021E3,6.5311235E3,5.9163647E3,8.1667646E3,5.5813403E3,9.9347406E2,5.6454016E2,1.7921866E3,4.729389E0,3.053604E3,2.7200684E2,7.867543E2,1.1148105E3,6.431132E3,3.0007483E3,1.2466259E3,1.4276989E4,6.1473833E3,5.977277E3,2.1817717E3,3.5874487E3,4.9340986E3,1.5108508E4,7.853739E3,5.7110273E3,1.1936152E3,3.2608694E2,3.2715798E3,3.2595437E3,5.0007446E3,9.1562E2,5.7879053E3,2.3788596E3,3.5336733E3,2.0476671E3,1.3637465E2,8.570994E2,4.766908E2,8.784935E1,1.7884677E3,3.7190015E0,1.3470826E3,1.7065214E3,3.9770303E0,2.680298E2,7.337575E2,5.2996796E1,3.5635868E1,1.0791747E3,3.1147395E3,3.316392E3,1.0508762E2,2.8956606E3,1.2205787E3,2.6047043E1,2.6745813E3,1.1602407E4,2.488942E3,3.6584417E3,7.730841E2,5.2041924E3,2.1443179E3,3.7453957E1,3.024324E3,5.631248E2,2.173203E3,2.760896E3,1.0663886E4,4.4446226E3,6.706168E3,1.147571E3,5.683688E3,2.733953E1,5.2265533E2,6.7095984E2,4.4901558E1,2.8118536E2,9.209116E2,2.3506682E3,4.0864914E2,2.8508945E3,4.24747E3,7.5327423E2,1.22524956E2,7.9309503E2,8.382113E2,4.949694E3,5.906425E2,1.7882169E3,7.801612E2,2.7535122E3,7.388817E1,1.973779E3,3.762933E1,9.8745316E1,7.2876807E2,1.2833138E2,3.2116992E2,1.5552087E2,5.0752613E1,3.7096737E1,8.096621E2,9.788056E2,6.0367303E0,1.3410459E3,1.7027985E3,3.722793E0,3.232861E0,2.6479694E2,7.292721E2,4.4854226E0,3.085097E1,2.2145826E1,6.1772957E0,2.9458572E1,2.9892933E1,1.0492817E3,1.7157532E3,1.3989865E3,3.1759116E3,1.4048064E2,7.95773E0,9.71299E1,2.2115032E3,6.8415735E2,1.194419E3,2.6159878E1,4.590015E0,2.1457027E1,5.4663495E2,2.1279463E3,1.6603422E3,9.942065E3,2.0981682E3,3.9077353E2,1.4065332E3,2.2519084E3,6.2213116E2,1.5095288E2,4.2114938E2,4.783043E3,4.3167383E2,1.7126439E3,1.1467051E1,2.5986906E1,3.5789847E2,2.6664255E3,2.2968239E1,5.401566E2,1.8672391E3,3.0596362E2,2.4365466E3,3.2434927E2,1.6727235E3,8.991162E3,3.3258406E3,1.1187821E3,1.7105872E3,4.995581E3,8.862859E2,2.612852E2,1.5234601E3,4.160228E3,2.2856142E1,4.483389E0,4.5681326E2,6.584211E1,6.5063837E2,2.0321474E1,3.6431843E1,8.469713E0,1.5332855E2,1.2785682E2,3.2784842E2,5.9306323E2,3.5600665E2,1.9946616E3,3.7298907E2,3.566007E1,1.735479E3,1.1154155E3,1.1273005E3,3.12017E3,7.834918E1,6.7492505E2,3.3432267E0,1.1918173E2,1.0369846E2,6.893966E2,1.823653E2,6.55846E2,4.7646284E3,1.8506589E2,4.9541904E2,9.522351E1,1.5542417E3,2.339753E2,1.2045427E2,6.597069E2,2.4878208E3,2.6569122E2,1.3646973E1,6.024119E1,1.7653976E3,2.0838142E2,3.931115E1,5.9434166E1,2.418485E1,7.045832E2,8.350893E1,4.482245E1,4.621549E1,2.7495444E2,1.0000658E2,5.55143E1,4.554029E1,5.212322E0,1.1731343E1,2.5365395E1],"tree_param":{"num_deleted":"0","num_feature":"124","num_nodes":"243","size_leaf_vector":"1"}},{"base_weights":[2.0572941E-3,5.886957E-1,-4.7517183E-1,8.06831E-1,3.007095E-1,-1.966426E-1,-8.230748E-1,9.94126E-1,6.5051216E-1,1.3076092E-1,4.6179235E-1,-3.5676473E-1,-8.356374E-3,-6.832254E-1,-1.0608667E0,1.1789905E0,9.069093E-1,5.031583E-1,8.2078004E-1,-1.21257745E-1,2.3363347E-1,2.7629995E-1,5.865046E-1,-1.6296637E-1,-4.887857E-1,-2.1603388E-1,1.8748079E-1,-4.6120828E-1,-8.1130314E-1,-1.161064E0,-8.604997E-1,3.6107394E-1,1.197941E0,9.173361E-1,-5.9682184E-1,2.8540942E-1,5.904502E-1,6.2217885E-1,9.240939E-1,-2.0702903E-1,3.5064745E-1,3.4908718E-1,-1.383909E-1,6.098331E-1,1.8291533E-1,2.0200646E-1,6.7728966E-1,-6.9681644E-2,-5.6077003E-1,-4.222255E-1,-8.667761E-1,-1.7972459E-1,-7.783069E-1,-6.042204E-2,3.486944E-1,-6.0073894E-1,-1.8634868E-1,-6.5014505E-1,-8.985391E-1,-1.5129507E0,-1.1034037E0,-9.694674E-1,-5.572011E-1,5.832214E-1,-9.7428314E-2,1.3308274E0,1.086737E0,8.0169004E-1,1.0401756E0,3.8220593E-1,-1.3648897E0,8.164562E-1,2.1211688E-1,3.482885E-1,6.7937565E-1,7.0861495E-1,2.7370104E-1,6.333568E-1,1.0075252E0,7.968742E-2,-3.8004386E-1,4.8753077E-1,-9.510877E-1,5.337881E-1,1.8938915E-1,-2.0548095E-1,8.560692E-1,6.3346434E-1,-9.075655E-2,-1.9252598E-1,2.4332212E-1,2.3022996E-1,-9.708399E-2,-8.498094E-2,7.225362E-1,-2.2028634E-1,1.12831675E-1,-6.3301116E-1,3.6033833E-1,5.4902E-1,-4.941672E-1,-1.0473582E0,-4.9442804E-1,7.623351E-2,-2.5663298E-1,-1.0572908E0,-8.2008295E-2,-4.6345797E-1,8.094188E-2,5.9367967E-1,1.9196828E-1,-9.217616E-1,-4.7569308E-1,2.0021798E-1,-3.7007344E-1,-7.0453334E-1,-1.155152E-1,-1.010898E0,-7.243553E-1,8.396685E-2,-1.5241019E0,-1.1330214E0,-7.0622134E-1,-8.1846434E-1,-1.15179E0,-1.5015759E-1,-8.9686096E-1,3.781491E-2,-9.182636E-2,1.5968887E-2,6.7649126E-2,5.466748E-2,-9.0745136E-2,2.4761453E-2,4.4181097E-2,5.8194693E-2,4.5448024E-2,4.723347E-2,-8.6195976E-2,-9.956067E-2,5.126494E-2,4.820147E-2,-5.7086544E-3,-2.8642809E-2,1.3672696E-2,2.324789E-2,-4.6932936E-4,1.3795239E-2,3.9073545E-2,2.7421683E-2,4.6357956E-2,-9.948106E-2,1.6858218E-2,2.3560328E-2,4.7829527E-2,3.794334E-2,5.549075E-2,-3.205734E-2,9.806652E-3,-2.2626366E-2,2.503849E-2,6.0520854E-2,1.01707885E-2,-9.582987E-2,9.883033E-3,2.8640201E-2,-2.2824472E-2,-7.789294E-2,1.0312346E-2,-3.2229345E-2,-6.567125E-4,5.067503E-2,-8.3621725E-2,-1.0678015E-2,3.43218E-2,2.6715785E-2,-2.2183191E-2,5.0258315E-3,2.6326492E-2,-7.772316E-3,1.9401236E-2,-4.4911977E-2,1.4346065E-2,2.5693947E-2,4.0402528E-2,-6.8567703E-3,-2.9270096E-2,-1.3304013E-2,1.1359773E-2,2.5659604E-2,-3.3940993E-2,4.832071E-2,-1.5585686E-2,1.9237414E-3,3.943371E-2,-4.142293E-2,-2.1793334E-2,-6.72342E-2,-4.3886587E-2,-3.9145425E-2,-5.6745387E-3,8.680022E-3,-1.9727036E-2,-6.831956E-4,-1.6439883E-2,-3.998449E-2,-8.453923E-2,5.5966925E-2,-2.4055695E-2,1.5543282E-2,-3.0569648E-2,-3.0933002E-2,7.563859E-3,3.6341663E-2,1.5972195E-2,-1.4282492E-2,1.3968691E-2,-4.1787323E-2,-8.3067566E-2,-2.232377E-2,-7.761972E-2,-3.862884E-3,3.1420972E-2,-4.6970427E-2,-1.3755314E-2,-3.3708688E-2,-7.223824E-2,-1.7108845E-2,2.2980282E-2,-5.4722305E-2,-3.9339907E-2,-3.221304E-2,-6.5212674E-2,8.301388E-2,-7.6763324E-2,-5.2498426E-2,-6.40135E-2,-4.494645E-2,5.4538576E-3,-5.4529577E-2,-3.1844866E-2,-6.263768E-2,-3.098149E-2,-6.631759E-2,4.838023E-3,4.6137214E-2,-4.88531E-2],"categories":[],"categories_nodes":[],"categories_segments":[],"categories_sizes":[],"default_left":[0,0,0,0,0,0,0,0,0,0,0,0,0,0,0,0,0,0,0,0,0,0,0,0,0,0,0,0,0,0,0,0,0,0,0,0,0,0,0,0,0,0,0,0,0,0,0,0,0,0,0,0,0,0,0,0,0,0,0,0,0,0,0,0,0,0,0,0,0,0,0,0,0,0,0,0,0,0,0,0,0,0,0,0,0,0,0,0,0,0,0,0,0,0,0,0,0,0,0,0,0,0,0,0,0,0,0,0,0,0,0,0,0,0,0,0,0,0,0,0,0,0,0,0,0,0,0,0,0,0,0,0,0,0,0,0,0,0,0,0,0,0,0,0,0,0,0,0,0,0,0,0,0,0,0,0,0,0,0,0,0,0,0,0,0,0,0,0,0,0,0,0,0,0,0,0,0,0,0,0,0,0,0,0,0,0,0,0,0,0,0,0,0,0,0,0,0,0,0,0,0,0,0,0,0,0,0,0,0,0,0,0,0,0,0,0,0,0,0,0,0,0,0,0,0,0,0,0,0,0,0,0,0,0,0,0,0,0,0,0,0,0,0,0,0,0,0],"id":4,"left_children":[1,3,5,7,9,11,13,15,17,19,21,23,25,27,29,31,33,35,37,39,41,43,45,47,49,51,53,55,57,59,61,63,65,67,69,71,73,75,77,79,81,83,85,87,89,91,93,95,97,99,101,103,105,107,109,111,113,115,117,119,121,123,125,127,-1,129,131,133,135,137,139,141,143,145,147,149,151,153,155,157,159,161,163,165,167,169,171,173,-1,175,177,179,-1,181,183,185,187,189,191,193,195,197,199,201,203,205,207,209,211,213,215,217,219,221,223,225,227,229,231,-1,233,235,237,239,241,243,245,-1,-1,-1,-1,-1,-1,-1,-1,-1,-1,-1,-1,-1,-1,-1,-1,-1,-1,-1,-1,-1,-1,-1,-1,-1,-1,-1,-1,-1,-1,-1,-1,-1,-1,-1,-1,-1,-1,-1,-1,-1,-1,-1,-1,-1,-1,-1,-1,-1,-1,-1,-1,-1,-1,-1,-1,-1,-1,-1,-1,-1,-1,-1,-1,-1,-1,-1,-1,-1,-1,-1,-1,-1,-1,-1,-1,-1,-1,-1,-1,-1,-1,-1,-1,-1,-1,-1,-1,-1,-1,-1,-1,-1,-1,-1,-1,-1,-1,-1,-1,-1,-1,-1,-1,-1,-1,-1,-1,-1,-1,-1,-1,-1,-1,-1,-1,-1,-1,-1,-1],"loss_changes":[3.1521797E4,3.1726152E3,6.016081E3,8.407461E2,5.959072E2,1.0395988E3,9.172832E2,2.0969238E2,3.9267578E2,2.747073E2,2.5837573E2,4.767024E2,6.4461414E2,4.9397803E2,2.042002E2,6.4464355E1,1.3987207E2,1.5952344E2,1.4853076E2,1.24405815E2,3.2321716E2,1.3989444E2,2.3311084E2,2.8021912E2,2.784873E2,1.5690186E2,3.2603024E2,2.4389526E2,1.5439453E2,1.3652148E2,1.12198E2,5.0516205E1,5.9018066E1,1.2453516E2,4.6990246E1,9.347749E1,1.288894E2,7.4800964E1,1.15264404E2,1.2900482E2,8.47126E1,1.6927686E2,1.1911457E2,5.7470276E1,7.972356E1,7.775557E1,1.8648926E2,1.6821564E2,9.5679474E1,6.588977E2,1.1100122E2,1.4228326E2,9.049469E1,1.8322629E2,1.8967694E2,1.6894946E2,1.5232787E2,1.1259766E2,1.3919092E2,3.6598633E1,6.808301E1,6.811133E1,1.2484512E2,3.848095E1,0E0,4.124048E1,4.48291E1,1.13809326E2,6.8359375E1,3.473697E1,5.421015E1,4.013765E1,1.02021736E2,6.729657E1,1.8040186E2,6.9306335E1,7.1980804E1,5.5532257E1,9.354956E1,8.232589E1,1.0376129E2,8.775789E1,5.0652065E1,1.03118835E2,9.107583E1,1.4111142E2,4.662079E1,4.3851715E1,0E0,8.921939E1,1.22359055E2,7.686682E1,0E0,9.213085E1,9.062964E1,1.01710144E2,1.199662E2,7.020746E1,4.3052032E1,7.9564255E1,1.7068774E2,5.510327E1,5.964427E1,7.664223E1,9.743698E1,5.296161E1,6.501255E1,9.584514E1,1.1726508E2,7.017078E1,1.259876E2,7.379431E1,9.4904785E1,8.218344E1,7.8328445E1,7.806592E1,4.695745E1,8.046338E1,1.2953491E2,0E0,3.644458E1,6.527637E1,6.4358246E1,6.7262634E1,6.0141724E1,1.1989869E2,7.278479E1,0E0,0E0,0E0,0E0,0E0,0E0,0E0,0E0,0E0,0E0,0E0,0E0,0E0,0E0,0E0,0E0,0E0,0E0,0E0,0E0,0E0,0E0,0E0,0E0,0E0,0E0,0E0,0E0,0E0,0E0,0E0,0E0,0E0,0E0,0E0,0E0,0E0,0E0,0E0,0E0,0E0,0E0,0E0,0E0,0E0,0E0,0E0,0E0,0E0,0E0,0E0,0E0,0E0,0E0,0E0,0E0,0E0,0E0,0E0,0E0,0E0,0E0,0E0,0E0,0E0,0E0,0E0,0E0,0E0,0E0,0E0,0E0,0E0,0E0,0E0,0E0,0E0,0E0,0E0,0E0,0E0,0E0,0E0,0E0,0E0,0E0,0E0,0E0,0E0,0E0,0E0,0E0,0E0,0E0,0E0,0E0,0E0,0E0,0E0,0E0,0E0,0E0,0E0,0E0,0E0,0E0,0E0,0E0,0E0,0E0,0E0,0E0,0E0,0E0,0E0,0E0,0E0,0E0,0E0,0E0],"parents":[2147483647,0,0,1,1,2,2,3,3,4,4,5,5,6,6,7,7,8,8,9,9,10,10,11,11,12,12,13,13,14,14,15,15,16,16,17,17,18,18,19,19,20,20,21,21,22,22,23,23,24,24,25,25,26,26,27,27,28,28,29,29,30,30,31,31,32,32,33,33,34,34,35,35,36,36,37,37,38,38,39,39,40,40,41,41,42,42,43,43,44,44,45,45,46,46,47,47,48,48,49,49,50,50,51,51,52,52,53,53,54,54,55,55,56,56,57,57,58,58,59,59,60,60,61,61,62,62,63,63,65,65,66,66,67,67,68,68,69,69,70,70,71,71,72,72,73,73,74,74,75,75,76,76,77,77,78,78,79,79,80,80,81,81,82,82,83,83,84,84,85,85,86,86,87,87,89,89,90,90,91,91,93,93,94,94,95,95,96,96,97,97,98,98,99,99,100,100,101,101,102,102,103,103,104,104,105,105,106,106,107,107,108,108,109,109,110,110,111,111,112,112,113,113,114,114,115,115,116,116,117,117,118,118,120,120,121,121,122,122,123,123,124,124,125,125,126,126],"right_children":[2,4,6,8,10,12,14,16,18,20,22,24,26,28,30,32,34,36,38,40,42,44,46,48,50,52,54,56,58,60,62,64,66,68,70,72,74,76,78,80,82,84,86,88,90,92,94,96,98,100,102,104,106,108,110,112,114,116,118,120,122,124,126,128,-1,130,132,134,136,138,140,142,144,146,148,150,152,154,156,158,160,162,164,166,168,170,172,174,-1,176,178,180,-1,182,184,186,188,190,192,194,196,198,200,202,204,206,208,210,212,214,216,218,220,222,224,226,228,230,232,-1,234,236,238,240,242,244,246,-1,-1,-1,-1,-1,-1,-1,-1,-1,-1,-1,-1,-1,-1,-1,-1,-1,-1,-1,-1,-1,-1,-1,-1,-1,-1,-1,-1,-1,-1,-1,-1,-1,-1,-1,-1,-1,-1,-1,-1,-1,-1,-1,-1,-1,-1,-1,-1,-1,-1,-1,-1,-1,-1,-1,-1,-1,-1,-1,-1,-1,-1,-1,-1,-1,-1,-1,-1,-1,-1,-1,-1,-1,-1,-1,-1,-1,-1,-1,-1,-1,-1,-1,-1,-1,-1,-1,-1,-1,-1,-1,-1,-1,-1,-1,-1,-1,-1,-1,-1,-1,-1,-1,-1,-1,-1,-1,-1,-1,-1,-1,-1,-1,-1,-1,-1,-1,-1,-1,-1],"split_conditions":[-3.837997E-1,-8.379537E-1,2.7716222E-1,-1.3112627E0,6.66417E-2,6.666243E-2,7.010504E-1,-1.8405492E0,1.99987E-1,0E0,-1.2470822E-1,-8.812261E-2,-1.2470822E-1,0E0,1.99972E-1,0E0,1.0639703E0,0E0,-3.498049E-2,1E0,5.4876876E-1,-1.2451278E0,-4.8508334E-1,3.1474715E-1,1.5856661E0,1.4106827E0,-3.2356724E-1,4.1457558E-1,4.0214247E-1,-8.4997785E-1,1E0,2.056E-1,5.213922E-1,-2.9175576E-2,2.2453703E-1,-1.8732367E0,-1.2839861E-1,7.5622505E-1,-4.473793E-1,-2.4034975E-1,6.4E-3,-6.184751E-1,1.1653286E-2,1.132E-1,-1.5271862E-1,2.1E1,-8.5183656E-1,1E0,2.5666666E0,-6.3438123E-1,2.067247E0,-4.0448824E-1,1.5E0,-3.9363745E-1,-3.223864E-1,0E0,1.0204081E-2,1E0,1.3333677E-1,-2.5E0,1E0,9.5350754E-1,6.0806137E-2,-3.098039E0,-9.7428314E-2,-8.0407923E-1,1E0,-8.057504E-1,-1.3902572E-1,-9.6665627E-1,4.6E-3,2E0,-8.5604817E-1,-3.9428043E-1,-8.0407923E-1,7.157365E-1,-5.958833E-1,1E0,-1.2839861E-1,-4.449918E-1,2E0,9.4510935E-2,4.0605748E-1,2.74E-2,-1.004482E0,-4.6949038E-1,2.27E-2,-2.0662289E0,-9.075655E-2,8.006603E-2,1E0,-2.3042133E-2,-9.708399E-2,-3.0253333E-1,-1.701399E-2,1.1264791E0,0E0,-8.363437E-1,1.496514E0,-6.5445864E-1,0E0,-4.4004932E-2,-4.7716665E-1,5.2923375E-1,-7.9517066E-1,3.1556815E-1,1.333374E-1,-2.9515204E-1,-8.904321E-1,1E0,-4.1147023E-2,7.504958E-1,1.049E-1,1E0,0E0,2E1,2E0,1E0,2.210728E0,8.396685E-2,3.28543E-1,1.0285983E0,6.09E-2,-4.761905E-2,4.4444445E-1,-5.605229E-1,-8.205499E-1,3.781491E-2,-9.182636E-2,1.5968887E-2,6.7649126E-2,5.466748E-2,-9.0745136E-2,2.4761453E-2,4.4181097E-2,5.8194693E-2,4.5448024E-2,4.723347E-2,-8.6195976E-2,-9.956067E-2,5.126494E-2,4.820147E-2,-5.7086544E-3,-2.8642809E-2,1.3672696E-2,2.324789E-2,-4.6932936E-4,1.3795239E-2,3.9073545E-2,2.7421683E-2,4.6357956E-2,-9.948106E-2,1.6858218E-2,2.3560328E-2,4.7829527E-2,3.794334E-2,5.549075E-2,-3.205734E-2,9.806652E-3,-2.2626366E-2,2.503849E-2,6.0520854E-2,1.01707885E-2,-9.582987E-2,9.883033E-3,2.8640201E-2,-2.2824472E-2,-7.789294E-2,1.0312346E-2,-3.2229345E-2,-6.567125E-4,5.067503E-2,-8.3621725E-2,-1.0678015E-2,3.43218E-2,2.6715785E-2,-2.2183191E-2,5.0258315E-3,2.6326492E-2,-7.772316E-3,1.9401236E-2,-4.4911977E-2,1.4346065E-2,2.5693947E-2,4.0402528E-2,-6.8567703E-3,-2.9270096E-2,-1.3304013E-2,1.1359773E-2,2.5659604E-2,-3.3940993E-2,4.832071E-2,-1.5585686E-2,1.9237414E-3,3.943371E-2,-4.142293E-2,-2.1793334E-2,-6.72342E-2,-4.3886587E-2,-3.9145425E-2,-5.6745387E-3,8.680022E-3,-1.9727036E-2,-6.831956E-4,-1.6439883E-2,-3.998449E-2,-8.453923E-2,5.5966925E-2,-2.4055695E-2,1.5543282E-2,-3.0569648E-2,-3.0933002E-2,7.563859E-3,3.6341663E-2,1.5972195E-2,-1.4282492E-2,1.3968691E-2,-4.1787323E-2,-8.3067566E-2,-2.232377E-2,-7.761972E-2,-3.862884E-3,3.1420972E-2,-4.6970427E-2,-1.3755314E-2,-3.3708688E-2,-7.223824E-2,-1.7108845E-2,2.2980282E-2,-5.4722305E-2,-3.9339907E-2,-3.221304E-2,-6.5212674E-2,8.301388E-2,-7.6763324E-2,-5.2498426E-2,-6.40135E-2,-4.494645E-2,5.4538576E-3,-5.4529577E-2,-3.1844866E-2,-6.263768E-2,-3.098149E-2,-6.631759E-2,4.838023E-3,4.6137214E-2,-4.88531E-2],"split_indices":[118,118,118,118,111,111,118,118,111,40,109,112,109,112,111,30,16,82,40,77,113,42,115,117,109,117,7,121,118,117,2,48,16,40,80,42,109,16,16,40,52,118,119,56,40,45,16,2,115,117,109,112,78,18,112,82,9,79,111,32,79,118,117,119,0,117,90,113,112,42,55,13,17,109,117,120,115,2,109,17,116,16,110,47,8,7,43,17,0,16,2,40,0,115,40,109,40,112,8,117,20,15,115,16,120,18,111,118,80,3,40,0,52,2,20,45,77,106,112,0,119,118,43,39,80,108,15,0,0,0,0,0,0,0,0,0,0,0,0,0,0,0,0,0,0,0,0,0,0,0,0,0,0,0,0,0,0,0,0,0,0,0,0,0,0,0,0,0,0,0,0,0,0,0,0,0,0,0,0,0,0,0,0,0,0,0,0,0,0,0,0,0,0,0,0,0,0,0,0,0,0,0,0,0,0,0,0,0,0,0,0,0,0,0,0,0,0,0,0,0,0,0,0,0,0,0,0,0,0,0,0,0,0,0,0,0,0,0,0,0,0,0,0,0,0,0,0],"split_type":[0,0,0,0,0,0,0,0,0,0,0,0,0,0,0,0,0,0,0,0,0,0,0,0,0,0,0,0,0,0,0,0,0,0,0,0,0,0,0,0,0,0,0,0,0,0,0,0,0,0,0,0,0,0,0,0,0,0,0,0,0,0,0,0,0,0,0,0,0,0,0,0,0,0,0,0,0,0,0,0,0,0,0,0,0,0,0,0,0,0,0,0,0,0,0,0,0,0,0,0,0,0,0,0,0,0,0,0,0,0,0,0,0,0,0,0,0,0,0,0,0,0,0,0,0,0,0,0,0,0,0,0,0,0,0,0,0,0,0,0,0,0,0,0,0,0,0,0,0,0,0,0,0,0,0,0,0,0,0,0,0,0,0,0,0,0,0,0,0,0,0,0,0,0,0,0,0,0,0,0,0,0,0,0,0,0,0,0,0,0,0,0,0,0,0,0,0,0,0,0,0,0,0,0,0,0,0,0,0,0,0,0,0,0,0,0,0,0,0,0,0,0,0,0,0,0,0,0,0,0,0,0,0,0,0,0,0,0,0,0,0,0,0,0,0,0,0],"sum_hessian":[1.1259156E5,5.0506156E4,6.2085402E4,2.8737287E4,2.176887E4,3.448137E4,2.7604031E4,1.3070894E4,1.5666393E4,1.059381E4,1.1175061E4,1.8633879E4,1.5847492E4,1.7384047E4,1.0219984E4,4.1859155E3,8.884979E3,8.400421E3,7.265972E3,3.070783E3,7.523027E3,4.4940264E3,6.6810337E3,7.551295E3,1.1082584E4,7.6911895E3,8.156303E3,6.3614175E3,1.1022629E4,6.8098125E3,3.4101716E3,9.524171E1,4.0906736E3,8.824182E3,6.079662E1,2.405127E3,5.9952935E3,2.4887832E3,4.777189E3,2.598968E3,4.7181494E2,5.7413296E3,1.7816973E3,9.818201E2,3.5122063E3,1.2767777E3,5.404256E3,6.1178403E3,1.4334546E3,9.425048E3,1.6575364E3,7.2258906E3,4.652989E2,3.2142632E3,4.94204E3,4.218658E3,2.1427593E3,3.8741155E3,7.1485137E3,9.5520306E2,5.8546094E3,2.5072002E3,9.0297144E2,8.756679E1,7.674926E0,1.858652E3,2.2320217E3,4.549047E3,4.275135E3,2.6948605E1,3.384801E1,2.9045724E2,2.11467E3,1.6115736E3,4.38372E3,1.9933268E3,4.9545636E2,1.0671241E3,3.7100647E3,9.7829614E2,1.6206718E3,4.2748813E2,4.4326824E1,2.6611724E3,3.0801575E3,1.6698372E3,1.1186017E2,9.730763E2,8.743844E0,4.8647443E2,3.0257317E3,1.2610673E3,1.5710451E1,3.0276035E2,5.1014956E3,3.3518137E3,2.7660264E3,1.329497E3,1.03957664E2,6.495256E2,8.775522E3,1.114979E3,5.425574E2,1.6695352E3,5.5563555E3,3.3182794E2,1.3347096E2,8.340538E2,2.3802092E3,1.9270299E3,3.01501E3,1.1808253E3,3.037833E3,6.902812E2,1.452478E3,3.5161023E3,3.5801312E2,4.3425244E3,2.8059893E3,2.8043442E0,9.5239874E2,5.4466064E3,4.0800305E2,1.3743918E3,1.1328083E3,4.1139893E2,4.9157248E2,8.236307E1,5.2037187E0,4.0170376E1,1.8184816E3,2.2275686E3,4.453132E0,9.61112E2,3.587935E3,2.1963752E3,2.0787598E3,2.170383E1,5.2447753E0,2.6952356E1,6.895656E0,2.5067146E2,3.9785778E1,1.5265805E2,1.9620118E3,1.2149664E3,3.9660727E2,8.8600665E2,3.4977134E3,1.1522776E3,8.4104913E2,1.2685806E1,4.8277057E2,7.1227106E2,3.548531E2,1.0838148E3,2.62625E3,1.3543095E2,8.428652E2,1.4978942E3,1.22777695E2,1.196915E2,3.0779663E2,2.3721098E1,2.0605726E1,2.5607046E3,1.00467674E2,2.8560396E1,3.051597E3,5.0793268E2,1.1619044E3,1.0586773E2,5.9924364E0,5.7094517E1,9.1598175E2,1.24633446E2,3.6184097E2,2.0123656E3,1.01336615E3,3.661504E2,8.949169E2,9.4561775E1,2.0819856E2,1.4850193E3,3.6164763E3,2.7311912E3,6.2062244E2,6.4098334E2,2.1250432E3,5.0700096E1,1.2787969E3,5.4431637E1,4.9526024E1,2.078643E2,4.4166125E2,1.3012179E3,7.4743047E3,4.02514E2,7.1246497E2,3.081459E2,2.3441145E2,1.3839365E3,2.8559866E2,1.272661E3,4.2836943E3,2.375102E2,9.431774E1,3.28337E1,1.0063726E2,1.3360982E2,7.004439E2,2.1672472E2,2.1634846E3,1.2960768E3,6.309531E2,4.6605197E2,2.548958E3,1.05971E3,1.211154E2,2.9589524E3,7.8880424E1,4.1935657E2,2.709246E2,2.0637184E2,1.2461062E3,3.3794114E3,1.3669096E2,2.5709433E2,1.00918785E2,3.1603955E3,1.182129E3,2.4673186E3,3.386708E2,2.8114364E0,9.495873E2,3.487613E3,1.9589934E3,3.2991925E2,7.8083786E1,5.4802374E2,8.263681E2,9.510226E2,1.8178581E2,7.0621544E1,3.4077737E2,2.0308432E1,4.7126407E2],"tree_param":{"num_deleted":"0","num_feature":"124","num_nodes":"247","size_leaf_vector":"1"}},{"base_weights":[8.795192E-4,5.0659037E-1,-5.1662797E-1,7.7438134E-1,2.1794713E-1,-2.4635758E-1,-8.181719E-1,9.552122E-1,6.295532E-1,4.4215493E-2,3.8318276E-1,-4.1351417E-1,-4.793375E-2,-6.7725337E-1,-1.0224878E0,1.1339617E0,8.695732E-1,4.918666E-1,7.945929E-1,-2.6036736E-1,1.40993E-1,2.2764161E-1,5.689913E-1,-6.8530774E-1,-3.1405684E-1,-1.8319218E-1,1.799892E-1,-9.356828E-1,-5.94108E-1,-1.1144506E0,-8.636926E-1,1.2210442E0,9.9955624E-1,8.7964433E-1,-6.6168576E-1,1.8763664E-1,5.519826E-1,6.727389E-1,9.395411E-1,-6.0341245E-1,-1.5988775E-1,-4.130653E-2,3.3330822E-1,7.2528124E-2,3.6092356E-1,3.53707E-1,6.9700617E-1,-8.5687155E-1,-4.8443377E-1,-5.488921E-1,-1.8860668E-1,-1.6883465E-2,-3.76874E-1,-3.6234567E-1,2.7301726E-1,-1.118864E0,-6.7510486E-1,-7.078967E-1,-3.7580186E-1,-1.3824975E0,-1.069119E0,-3.6805177E-1,-9.041957E-1,1.0845432E0,1.3067402E0,-8.556151E-2,1.005794E0,6.6171044E-1,9.3334466E-1,-5.99999E-2,-9.3090266E-2,-9.4796914E-1,2.4649623E-1,1.8611592E-1,6.025984E-1,2.046851E-1,7.2374785E-1,6.590156E-1,1.0245671E0,-6.51022E-1,1.2610879E0,-8.324526E-2,-6.4657515E-1,6.399081E-2,-4.0529528E-1,-1.858144E-2,4.003125E-1,-3.5386616E-1,1.374981E-1,-3.725367E-2,4.89154E-1,6.536345E-1,2.2729413E-1,4.0365022E-1,7.663439E-1,-1.0623587E0,-7.157123E-1,-3.2274267E-1,-9.110425E-1,-4.200613E-1,-8.0333585E-1,-4.767358E-2,-6.0888964E-1,-2.4597786E-1,1.199044E-1,-4.8019725E-1,-1.377805E-1,-2.5391552E-1,-1.4155364E0,1.19801685E-2,4.3284437E-1,-9.4620544E-1,-1.2884238E0,-8.602772E-1,-5.2932452E-2,-7.6643413E-1,-2.9092336E-1,-2.394756E-1,-7.3566395E-1,-6.802954E-1,-1.4610881E0,-1.3384992E0,-1.0045861E0,-1.1999326E0,3.2302182E-2,-8.4928787E-1,-1.2766403E0,5.5414837E-2,-1.21946605E-2,-7.2837904E-2,6.555732E-2,2.220994E-2,5.180771E-2,4.1888732E-2,1.3414459E-2,4.112191E-2,5.0940085E-2,2.3997704E-2,-5.6141187E-2,-9.9107414E-2,-2.0397743E-2,-1.6742248E-2,1.6497685E-2,5.0415786E-4,2.7351454E-2,3.1824946E-2,2.1310414E-3,2.3795396E-2,-1.4065528E-2,-9.729774E-2,3.6495976E-2,-9.914614E-2,3.4753438E-2,3.062633E-2,5.31165E-2,-2.706339E-3,-4.0535312E-2,-6.558093E-2,8.485454E-2,3.6179826E-3,-1.723552E-2,-8.60127E-3,-5.7351034E-2,-4.7871503E-3,1.7670332E-2,-3.5669085E-2,-1.0539996E-2,3.0351395E-2,-7.8554675E-3,1.67184E-2,3.718954E-2,1.7575866E-2,-2.885218E-2,-3.949107E-2,8.33669E-3,2.1620716E-3,-5.7810742E-2,-1.27952E-2,2.6493225E-2,-5.6611646E-2,3.613557E-2,1.4646555E-2,-3.014237E-2,2.3606677E-2,-3.7150238E-2,4.224133E-2,2.3234544E-2,-5.5949092E-2,-1.631265E-2,-2.8370786E-2,-4.885631E-2,-2.0520328E-2,1.1558607E-2,-1.8848505E-2,-6.355487E-2,-3.084982E-2,-1.2767642E-2,-7.495523E-2,-3.507338E-2,2.188104E-3,-2.3131592E-2,-3.3796754E-2,-7.8236795E-4,-3.3293467E-2,-5.5083274E-3,-1.5100877E-2,1.30540375E-2,-1.7264852E-4,-2.8083215E-2,-1.5487365E-2,1.324262E-2,-4.3634515E-2,-3.3513387E-3,-4.1537143E-5,-9.534085E-2,-4.319925E-3,3.0103698E-2,5.5769025E-3,2.7026517E-2,-5.543164E-2,-3.621446E-2,3.473785E-2,-6.567349E-2,-1.6616153E-2,-4.7707938E-2,-1.3889685E-2,5.6680124E-2,-4.3685768E-2,-2.8941272E-2,-3.7795976E-3,-4.7653105E-2,-2.2283435E-2,5.213658E-3,-5.5752724E-2,-2.372391E-2,-6.1360087E-2,3.89736E-2,6.982833E-2,-7.363738E-2,-6.7813054E-2,5.9869688E-2,-5.217969E-2,-2.7073948E-2,-7.469604E-2,1.4001775E-2,-2.5025627E-2,4.169066E-2,2.4717297E-2,-4.396453E-2,-6.9353975E-2,-1.7450678E-3],"categories":[],"categories_nodes":[],"categories_segments":[],"categories_sizes":[],"default_left":[0,0,0,0,0,0,0,0,0,0,0,0,0,0,0,0,0,0,0,0,0,0,0,0,0,0,0,0,0,0,0,0,0,0,0,0,0,0,0,0,0,0,0,0,0,0,0,0,0,0,0,0,0,0,0,0,0,0,0,0,0,0,0,0,0,0,0,0,0,0,0,0,0,0,0,0,0,0,0,0,0,0,0,0,0,0,0,0,0,0,0,0,0,0,0,0,0,0,0,0,0,0,0,0,0,0,0,0,0,0,0,0,0,0,0,0,0,0,0,0,0,0,0,0,0,0,0,0,0,0,0,0,0,0,0,0,0,0,0,0,0,0,0,0,0,0,0,0,0,0,0,0,0,0,0,0,0,0,0,0,0,0,0,0,0,0,0,0,0,0,0,0,0,0,0,0,0,0,0,0,0,0,0,0,0,0,0,0,0,0,0,0,0,0,0,0,0,0,0,0,0,0,0,0,0,0,0,0,0,0,0,0,0,0,0,0,0,0,0,0,0,0,0,0,0,0,0,0,0,0,0,0,0,0,0,0,0,0,0,0,0,0,0,0,0,0,0,0,0,0,0],"id":5,"left_children":[1,3,5,7,9,11,13,15,17,19,21,23,25,27,29,31,33,35,37,39,41,43,45,47,49,51,53,55,57,59,61,63,65,67,69,71,73,75,77,79,81,83,85,87,89,91,93,95,97,99,101,103,105,107,109,111,113,115,117,119,121,123,125,127,129,-1,131,133,135,137,-1,139,141,143,145,147,149,151,153,155,157,159,161,163,165,167,169,171,173,175,177,179,181,183,185,187,189,191,193,195,197,199,201,203,205,207,209,211,213,215,217,219,221,223,225,227,229,231,233,235,237,239,241,243,245,247,249,-1,-1,-1,-1,-1,-1,-1,-1,-1,-1,-1,-1,-1,-1,-1,-1,-1,-1,-1,-1,-1,-1,-1,-1,-1,-1,-1,-1,-1,-1,-1,-1,-1,-1,-1,-1,-1,-1,-1,-1,-1,-1,-1,-1,-1,-1,-1,-1,-1,-1,-1,-1,-1,-1,-1,-1,-1,-1,-1,-1,-1,-1,-1,-1,-1,-1,-1,-1,-1,-1,-1,-1,-1,-1,-1,-1,-1,-1,-1,-1,-1,-1,-1,-1,-1,-1,-1,-1,-1,-1,-1,-1,-1,-1,-1,-1,-1,-1,-1,-1,-1,-1,-1,-1,-1,-1,-1,-1,-1,-1,-1,-1,-1,-1,-1,-1,-1,-1,-1,-1,-1,-1,-1,-1],"loss_changes":[2.9366854E4,4.386593E3,4.519624E3,7.704004E2,7.8408716E2,9.7005786E2,7.540137E2,1.9940137E2,3.7114062E2,3.9254944E2,4.044641E2,4.2889868E2,4.1233832E2,3.3283936E2,1.5525781E2,4.836963E1,1.3713281E2,1.629668E2,1.306831E2,1.1058896E2,3.543143E2,1.5754984E2,1.7553833E2,1.461156E2,3.423263E2,2.7036496E2,2.5142223E2,1.7944336E2,2.9141113E2,8.079492E1,7.851465E1,2.8605469E1,2.99823E1,1.02336426E2,4.2078156E1,9.866881E1,1.3775146E2,9.6369385E1,8.025586E1,6.5366E1,9.2640305E1,1.9890144E2,1.15963196E2,9.766681E1,2.093194E2,9.0107056E1,8.103003E1,6.572046E1,1.3496838E2,1.3231555E2,4.4881543E2,1.4158186E2,9.5728455E1,8.298113E1,1.7741699E2,6.363452E1,1.7978131E2,1.8815039E2,1.9730243E2,5.2869263E1,9.940967E1,9.9420494E1,7.3154785E1,3.1690796E1,2.1050049E1,0E0,2.7981323E1,1.2047876E2,6.6032715E1,2.3464964E1,0E0,3.983412E1,6.807801E1,5.756768E1,1.2411304E2,5.2683624E1,6.1476562E1,7.681784E1,3.983618E1,6.759863E1,2.2915833E1,8.742044E1,8.006065E1,1.8613046E2,6.962277E1,6.835272E1,9.3328125E1,7.359538E1,8.305174E1,9.007462E1,9.418683E1,8.782547E1,9.150895E1,6.0548782E1,7.6153564E1,3.844983E1,5.223413E1,6.921884E1,1.0305286E2,8.7052216E1,9.528015E1,2.1537569E2,7.567377E1,9.624713E1,1.685888E2,1.0514368E2,8.119542E1,7.659934E1,4.719217E1,9.386482E1,9.120151E1,3.8895996E1,5.6290527E1,5.9300232E1,9.611605E1,1.3568945E2,1.3561644E2,2.0707469E2,1.0901367E2,8.0882225E1,3.1274658E1,5.1940796E1,8.3973145E1,4.2612457E1,8.686414E1,1.2809692E2,6.3643433E1,0E0,0E0,0E0,0E0,0E0,0E0,0E0,0E0,0E0,0E0,0E0,0E0,0E0,0E0,0E0,0E0,0E0,0E0,0E0,0E0,0E0,0E0,0E0,0E0,0E0,0E0,0E0,0E0,0E0,0E0,0E0,0E0,0E0,0E0,0E0,0E0,0E0,0E0,0E0,0E0,0E0,0E0,0E0,0E0,0E0,0E0,0E0,0E0,0E0,0E0,0E0,0E0,0E0,0E0,0E0,0E0,0E0,0E0,0E0,0E0,0E0,0E0,0E0,0E0,0E0,0E0,0E0,0E0,0E0,0E0,0E0,0E0,0E0,0E0,0E0,0E0,0E0,0E0,0E0,0E0,0E0,0E0,0E0,0E0,0E0,0E0,0E0,0E0,0E0,0E0,0E0,0E0,0E0,0E0,0E0,0E0,0E0,0E0,0E0,0E0,0E0,0E0,0E0,0E0,0E0,0E0,0E0,0E0,0E0,0E0,0E0,0E0,0E0,0E0,0E0,0E0,0E0,0E0,0E0,0E0,0E0,0E0,0E0,0E0],"parents":[2147483647,0,0,1,1,2,2,3,3,4,4,5,5,6,6,7,7,8,8,9,9,10,10,11,11,12,12,13,13,14,14,15,15,16,16,17,17,18,18,19,19,20,20,21,21,22,22,23,23,24,24,25,25,26,26,27,27,28,28,29,29,30,30,31,31,32,32,33,33,34,34,35,35,36,36,37,37,38,38,39,39,40,40,41,41,42,42,43,43,44,44,45,45,46,46,47,47,48,48,49,49,50,50,51,51,52,52,53,53,54,54,55,55,56,56,57,57,58,58,59,59,60,60,61,61,62,62,63,63,64,64,66,66,67,67,68,68,69,69,71,71,72,72,73,73,74,74,75,75,76,76,77,77,78,78,79,79,80,80,81,81,82,82,83,83,84,84,85,85,86,86,87,87,88,88,89,89,90,90,91,91,92,92,93,93,94,94,95,95,96,96,97,97,98,98,99,99,100,100,101,101,102,102,103,103,104,104,105,105,106,106,107,107,108,108,109,109,110,110,111,111,112,112,113,113,114,114,115,115,116,116,117,117,118,118,119,119,120,120,121,121,122,122,123,123,124,124,125,125,126,126],"right_children":[2,4,6,8,10,12,14,16,18,20,22,24,26,28,30,32,34,36,38,40,42,44,46,48,50,52,54,56,58,60,62,64,66,68,70,72,74,76,78,80,82,84,86,88,90,92,94,96,98,100,102,104,106,108,110,112,114,116,118,120,122,124,126,128,130,-1,132,134,136,138,-1,140,142,144,146,148,150,152,154,156,158,160,162,164,166,168,170,172,174,176,178,180,182,184,186,188,190,192,194,196,198,200,202,204,206,208,210,212,214,216,218,220,222,224,226,228,230,232,234,236,238,240,242,244,246,248,250,-1,-1,-1,-1,-1,-1,-1,-1,-1,-1,-1,-1,-1,-1,-1,-1,-1,-1,-1,-1,-1,-1,-1,-1,-1,-1,-1,-1,-1,-1,-1,-1,-1,-1,-1,-1,-1,-1,-1,-1,-1,-1,-1,-1,-1,-1,-1,-1,-1,-1,-1,-1,-1,-1,-1,-1,-1,-1,-1,-1,-1,-1,-1,-1,-1,-1,-1,-1,-1,-1,-1,-1,-1,-1,-1,-1,-1,-1,-1,-1,-1,-1,-1,-1,-1,-1,-1,-1,-1,-1,-1,-1,-1,-1,-1,-1,-1,-1,-1,-1,-1,-1,-1,-1,-1,-1,-1,-1,-1,-1,-1,-1,-1,-1,-1,-1,-1,-1,-1,-1,-1,-1,-1,-1],"split_conditions":[-2.599969E-1,-8.254323E-1,2.9773572E-1,-1.3112627E0,6.66417E-2,6.666243E-2,6.795398E-1,-1.8405492E0,1.9999242E-1,-5E-1,1.2862617E-1,-5E-1,1E0,-1E0,1.3333677E-1,-1.5764617E0,1.0639703E0,-5.6122446E-1,7.959878E-1,-5.094622E-1,2.1893815E-3,-1.2470822E-1,-8.32935E-2,8.812261E-2,-3.5561976E-1,2.9485976E-2,-1E0,3.448276E-2,1E0,-8.4997785E-1,-5.462804E-1,2.7003568E-7,-6.000393E-1,2.5804406E-1,-7.965454E-1,-1.1472359E0,-9.3392506E-2,-6.5376544E-1,-2.3070988E-1,1.107848E0,6.530683E-2,1.6355861E-2,-4.8919752E-1,-1.7504106E0,-4.6464142E-1,-7.1193075E-1,-5E-1,-2.0563523E-1,7.109644E-1,1.6355861E-2,1.311824E-1,-2.3070574E-1,7.333073E-1,6.948686E-1,-2.1220629E-1,-1.637089E-1,6.25261E-1,4.1917732E-1,5.2040815E-1,-9.418487E-1,0E0,2.4999563E-1,2.1486081E-1,4.3969696E1,-1.0652043E0,-8.556151E-2,-3E0,6.7918557E-1,6.66417E-2,5E-1,-9.3090266E-2,-4.1E-1,-4.91677E-1,5.581863E-1,6.71E-2,-7.276896E-1,-2.0333334E1,-6.904762E-1,-6.7794746E-1,-7.1193075E-1,-1.7180197E0,6.8687044E-2,-1.20977126E-1,1E0,5E-1,-7.2416556E-1,1E0,-3.9467132E-1,-9.224144E-1,4.48E-2,-8.1774414E-1,-7.612841E-1,1.315E0,1.048269E0,1.6355861E-2,8.8308793E-1,9.3364194E-2,9.747964E-1,-6.501387E-1,-3.8358167E-1,-6.3265306E-1,1.7640952E0,4.17E-2,-5.6558645E-1,0E0,-9.090497E-1,1.9397411E-1,-1E0,-9E-3,2E0,-4.1142857E-1,2.1907715E-1,-6.16E1,-4.02944E-1,1.0608763E0,1.9999567E-1,5.1345074E-1,1.396952E-1,-5.343758E-5,5E-1,-2.5E0,9.596918E-1,1.0258567E0,9.347104E-1,1E0,-1.4411767E-1,7.5205255E-1,5.5414837E-2,-1.21946605E-2,-7.2837904E-2,6.555732E-2,2.220994E-2,5.180771E-2,4.1888732E-2,1.3414459E-2,4.112191E-2,5.0940085E-2,2.3997704E-2,-5.6141187E-2,-9.9107414E-2,-2.0397743E-2,-1.6742248E-2,1.6497685E-2,5.0415786E-4,2.7351454E-2,3.1824946E-2,2.1310414E-3,2.3795396E-2,-1.4065528E-2,-9.729774E-2,3.6495976E-2,-9.914614E-2,3.4753438E-2,3.062633E-2,5.31165E-2,-2.706339E-3,-4.0535312E-2,-6.558093E-2,8.485454E-2,3.6179826E-3,-1.723552E-2,-8.60127E-3,-5.7351034E-2,-4.7871503E-3,1.7670332E-2,-3.5669085E-2,-1.0539996E-2,3.0351395E-2,-7.8554675E-3,1.67184E-2,3.718954E-2,1.7575866E-2,-2.885218E-2,-3.949107E-2,8.33669E-3,2.1620716E-3,-5.7810742E-2,-1.27952E-2,2.6493225E-2,-5.6611646E-2,3.613557E-2,1.4646555E-2,-3.014237E-2,2.3606677E-2,-3.7150238E-2,4.224133E-2,2.3234544E-2,-5.5949092E-2,-1.631265E-2,-2.8370786E-2,-4.885631E-2,-2.0520328E-2,1.1558607E-2,-1.8848505E-2,-6.355487E-2,-3.084982E-2,-1.2767642E-2,-7.495523E-2,-3.507338E-2,2.188104E-3,-2.3131592E-2,-3.3796754E-2,-7.8236795E-4,-3.3293467E-2,-5.5083274E-3,-1.5100877E-2,1.30540375E-2,-1.7264852E-4,-2.8083215E-2,-1.5487365E-2,1.324262E-2,-4.3634515E-2,-3.3513387E-3,-4.1537143E-5,-9.534085E-2,-4.319925E-3,3.0103698E-2,5.5769025E-3,2.7026517E-2,-5.543164E-2,-3.621446E-2,3.473785E-2,-6.567349E-2,-1.6616153E-2,-4.7707938E-2,-1.3889685E-2,5.6680124E-2,-4.3685768E-2,-2.8941272E-2,-3.7795976E-3,-4.7653105E-2,-2.2283435E-2,5.213658E-3,-5.5752724E-2,-2.372391E-2,-6.1360087E-2,3.89736E-2,6.982833E-2,-7.363738E-2,-6.7813054E-2,5.9869688E-2,-5.217969E-2,-2.7073948E-2,-7.469604E-2,1.4001775E-2,-2.5025627E-2,4.169066E-2,2.4717297E-2,-4.396453E-2,-6.9353975E-2,-1.7450678E-3],"split_indices":[118,118,118,118,111,111,118,118,111,12,17,12,2,12,111,42,16,9,120,8,17,109,119,17,16,118,12,17,2,117,117,111,111,120,42,17,120,109,80,119,42,42,80,17,8,118,12,108,16,42,117,16,111,16,109,16,121,16,9,117,20,111,109,73,121,0,20,16,111,32,0,6,16,18,60,42,73,39,16,118,42,117,19,2,75,118,77,8,0,57,117,109,6,121,42,0,80,19,120,18,9,109,51,80,12,120,8,20,54,13,7,19,45,16,19,111,118,121,111,31,32,16,109,108,13,117,17,0,0,0,0,0,0,0,0,0,0,0,0,0,0,0,0,0,0,0,0,0,0,0,0,0,0,0,0,0,0,0,0,0,0,0,0,0,0,0,0,0,0,0,0,0,0,0,0,0,0,0,0,0,0,0,0,0,0,0,0,0,0,0,0,0,0,0,0,0,0,0,0,0,0,0,0,0,0,0,0,0,0,0,0,0,0,0,0,0,0,0,0,0,0,0,0,0,0,0,0,0,0,0,0,0,0,0,0,0,0,0,0,0,0,0,0,0,0,0,0,0,0,0,0],"split_type":[0,0,0,0,0,0,0,0,0,0,0,0,0,0,0,0,0,0,0,0,0,0,0,0,0,0,0,0,0,0,0,0,0,0,0,0,0,0,0,0,0,0,0,0,0,0,0,0,0,0,0,0,0,0,0,0,0,0,0,0,0,0,0,0,0,0,0,0,0,0,0,0,0,0,0,0,0,0,0,0,0,0,0,0,0,0,0,0,0,0,0,0,0,0,0,0,0,0,0,0,0,0,0,0,0,0,0,0,0,0,0,0,0,0,0,0,0,0,0,0,0,0,0,0,0,0,0,0,0,0,0,0,0,0,0,0,0,0,0,0,0,0,0,0,0,0,0,0,0,0,0,0,0,0,0,0,0,0,0,0,0,0,0,0,0,0,0,0,0,0,0,0,0,0,0,0,0,0,0,0,0,0,0,0,0,0,0,0,0,0,0,0,0,0,0,0,0,0,0,0,0,0,0,0,0,0,0,0,0,0,0,0,0,0,0,0,0,0,0,0,0,0,0,0,0,0,0,0,0,0,0,0,0,0,0,0,0,0,0,0,0,0,0,0,0,0,0,0,0,0,0],"sum_hessian":[1.1220979E5,5.675174E4,5.5458055E4,2.9438377E4,2.7313361E4,2.9246533E4,2.621152E4,1.3089444E4,1.6348932E4,1.3315002E4,1.3998359E4,1.5873372E4,1.3373161E4,1.5514995E4,1.0696524E4,4.235882E3,8.8535625E3,8.915249E3,7.4336836E3,3.2101553E3,1.0104847E4,7.6210073E3,6.3773525E3,4.2508643E3,1.1622508E4,8.392763E3,4.980399E3,3.7741301E3,1.1740865E4,6.7698755E3,3.9266487E3,2.5655527E3,1.6703291E3,8.796136E3,5.7427036E1,1.4716692E3,7.4435796E3,4.041633E3,3.3920503E3,7.261202E2,2.4840352E3,5.1879077E3,4.916939E3,3.522762E3,4.0982456E3,2.3794915E3,3.997861E3,2.2909385E3,1.9599258E3,4.045743E3,7.576765E3,4.5160527E3,3.8767102E3,7.287921E2,4.251607E3,2.2142563E3,1.5598737E3,7.71651E3,4.0243557E3,9.7502466E2,5.7948506E3,2.9740176E2,3.629247E3,9.947379E2,1.5708147E3,3.2072794E0,1.6671218E3,1.7415724E3,7.054563E3,3.8949505E1,1.8477531E1,7.1774994E1,1.3998942E3,9.052E2,6.5383794E3,3.9766858E2,3.6439644E3,7.910148E2,2.6010356E3,7.086752E2,1.7445004E1,2.1470874E3,3.369477E2,4.024496E3,1.1634116E3,7.866059E2,4.130333E3,4.6520444E2,3.0575574E3,9.9848645E2,3.099759E3,7.0429895E2,1.6751925E3,7.6559265E2,3.2322683E3,9.302443E2,1.3606942E3,1.4225244E3,5.374014E2,2.6875994E3,1.3581434E3,5.6749146E3,1.9018505E3,1.6880621E3,2.8279905E3,2.7062202E3,1.17049E3,6.618891E2,6.6903015E1,1.6149956E3,2.636611E3,1.1003629E3,1.1138934E3,1.2018066E3,3.5806705E2,6.765839E3,9.506706E2,2.9198838E3,1.1044719E3,9.911279E1,8.7591187E2,1.1161124E3,4.6787383E3,9.597716E1,2.014246E2,3.1658066E3,4.634403E2,9.774265E2,1.7311396E1,1.9759499E0,1.5688387E3,8.630453E1,1.5808174E3,1.2023612E3,5.3921106E2,3.074758E3,3.979805E3,2.619161E1,1.27578945E1,2.3705719E1,4.806928E1,1.753617E2,1.2245325E3,6.091295E2,2.9607053E2,6.165019E3,3.733606E2,2.5524376E2,1.4242482E2,7.679561E0,3.636285E3,9.922253E0,7.8109247E2,2.1981358E2,2.3812222E3,1.4985611E2,5.5881903E2,2.236992E0,1.5208013E1,1.3464827E3,8.0060474E2,1.7363823E2,1.6330946E2,2.5936714E3,1.4308248E3,4.4919904E2,7.142126E2,1.4198808E2,6.4461786E2,3.466728E3,6.636049E2,1.1167258E2,3.5353186E2,9.2654625E1,2.9649028E3,9.323752E2,6.611125E1,1.6032397E2,2.939435E3,2.5654476E1,6.786445E2,1.5530447E3,1.2214778E2,7.230002E2,4.2592503E1,2.563506E3,6.6876227E2,8.633157E2,6.692861E1,8.702075E2,4.9048672E2,1.2283774E3,1.9414691E2,2.1722968E2,3.2017178E2,1.2228008E3,1.4647986E3,1.7170023E2,1.1864431E3,4.650972E3,1.02394275E3,1.7086118E3,1.9323871E2,4.1160107E2,1.276461E3,7.0872974E2,2.1192607E3,3.9510608E2,2.311114E3,8.203462E2,3.5014383E2,1.5268634E2,5.0920273E2,1.750289E1,4.940013E1,1.3849539E3,2.3004176E2,6.623551E2,1.9742561E3,6.3303174E2,4.6733118E2,1.3558714E1,1.1003347E3,1.8212802E2,1.0196786E3,3.0166428E2,5.640277E1,4.302094E3,2.4637449E3,7.1821655E2,2.3245407E2,1.8249283E3,1.0949554E3,4.489995E2,6.5547235E2,7.221612E1,2.6896671E1,3.0766284E0,8.728352E2,1.1088114E3,7.301103E0,4.314106E3,3.646321E2,8.0063515E1,1.5913644E1,1.2121856E2,8.020605E1,6.880884E1,3.0969978E3,4.2548132E2,3.7959003E1],"tree_param":{"num_deleted":"0","num_feature":"124","num_nodes":"251","size_leaf_vector":"1"}},{"base_weights":[2.469344E-3,5.229436E-1,-4.5208374E-1,7.45351E-1,2.657821E-1,-2.1647206E-1,-7.837257E-1,1.0044284E0,6.4893466E-1,-2.5640186E-2,3.4362718E-1,-3.372967E-1,-1.6394872E-2,-6.510375E-1,-9.7859615E-1,1.1764838E0,9.351653E-1,4.975785E-1,7.565616E-1,-2.954637E-1,1.1337278E-1,1.7244548E-1,5.1776993E-1,-2.8933993E-1,-9.058539E-1,-3.9141002E-1,7.158473E-2,-7.638448E-1,-4.373855E-1,-9.395275E-1,-1.3509734E0,8.130985E-1,1.2193656E0,6.9869846E-1,9.947977E-1,5.869219E-1,2.436632E-1,4.7430795E-1,8.447334E-1,-1.22693025E-1,-8.3849084E-1,7.155985E-2,5.633393E-1,-1.7688327E-2,2.713088E-1,2.599765E-1,6.3486624E-1,-3.232825E-1,2.8083742E-1,-1.086666E0,-6.1230665E-1,-2.7881864E-1,-1.0243044E0,-2.7481455E-1,1.6466342E-1,-1.050914E0,-6.809566E-1,-7.555937E-1,-3.3980212E-1,-1.107225E0,-8.595828E-1,5.282553E-1,-1.3712677E0,-9.814187E-2,8.717413E-1,1.2234892E0,-8.4296204E-2,4.4186306E-1,8.5885346E-1,7.937533E-1,1.0648506E0,7.692343E-1,4.8657086E-1,3.4148782E-1,-2.4969064E-1,3.462971E-1,7.71431E-1,5.689221E-1,8.878115E-1,-4.33775E-1,9.586654E-2,-6.65433E-1,-1.761593E0,-2.4020012E-1,1.3038586E-1,-1.1324146E0,6.536558E-1,-3.7152064E-1,9.680313E-2,5.59423E-3,3.8076508E-1,-1.7725682E-1,3.880619E-1,5.056692E-1,7.719119E-1,-1.7632838E-1,-4.4909328E-1,5.849492E-1,-1.8938619E-1,-1.3479075E0,-8.941182E-1,-7.932463E-1,-2.2049601E-1,-1.423543E-1,-6.9655913E-1,-4.9314377E-1,-1.3322474E0,-6.118237E-1,-1.2348634E-1,-9.423996E-2,2.7482915E-1,-1.1373035E0,-6.915832E-1,-5.2326035E-1,-8.135309E-1,-8.155677E-1,5.4514194E-1,-3.8852608E-1,2.2377056E-1,-1.1584351E0,-6.87881E-1,-7.8549397E-1,-1.045986E0,9.267331E-2,-6.7347E-2,-1.5157338E0,-1.0483724E0,4.5820106E-2,-8.6576484E-2,-7.822062E-2,6.1354894E-2,2.417082E-2,-9.749611E-2,5.0102282E-2,2.7662436E-2,3.261201E-2,5.3509433E-2,5.3436022E-2,-9.0070434E-2,-5.2032392E-2,3.8924493E-2,1.6216462E-2,3.15068E-2,-1.9820748E-2,2.0641783E-2,2.9345617E-2,-2.431992E-2,-1.5658006E-2,2.0569196E-2,4.1694593E-2,-3.88955E-2,2.9530842E-2,-9.800034E-2,3.4153566E-2,4.6988647E-2,-5.344051E-2,-9.697551E-3,-7.31641E-2,7.789737E-3,1.9204143E-2,-3.9539028E-2,-9.650522E-2,1.4512776E-2,-3.828938E-2,5.9281345E-3,-9.967278E-3,1.0331611E-2,-9.327807E-2,6.2189527E-2,-8.446606E-2,3.5523523E-2,-1.6335413E-4,-3.392006E-2,-5.0327506E-2,6.457603E-3,-5.344249E-3,2.2033874E-2,-2.2107041E-3,2.1959916E-2,-1.7717889E-2,2.5996303E-2,-5.652079E-3,2.2105046E-2,-2.8700233E-2,2.7504155E-2,1.291765E-2,4.1914463E-2,-1.890389E-2,-4.2998125E-3,-1.3396059E-2,-2.8908238E-2,3.2941382E-2,-5.5803623E-2,-5.627212E-2,-4.3491623E-3,-7.136714E-2,-7.3472285E-3,-4.7614384E-2,2.1974321E-2,-2.7742485E-2,-6.987752E-2,-3.3122532E-2,1.5780954E-2,-3.7457857E-2,-1.5910905E-3,1.4521304E-2,-4.3893486E-2,-3.9773665E-2,5.0826926E-2,6.367508E-3,-7.222455E-2,-2.2550367E-2,-6.623736E-2,-4.934491E-2,-3.1541407E-3,8.011482E-3,-1.8897945E-2,-7.6043988E-3,1.8083794E-2,-5.7392206E-2,6.012265E-2,1.4076823E-2,-4.3817554E-2,-2.3563797E-2,-6.398623E-2,-3.883838E-2,-7.205773E-2,-5.2283656E-2,-2.5030985E-2,5.248065E-2,-4.4453602E-2,-8.906089E-2,-1.8405242E-2,1.6683048E-2,-6.0714968E-2,-5.9646755E-2,-3.3103056E-2,4.4065226E-2,-4.014791E-2,-4.291315E-2,-2.8187582E-2,-4.610889E-2,-6.6102944E-2,-7.87942E-2,-4.40271E-2,1.245056E-2,-6.1101194E-2],"categories":[],"categories_nodes":[],"categories_segments":[],"categories_sizes":[],"default_left":[0,0,0,0,0,0,0,0,0,0,0,0,0,0,0,0,0,0,0,0,0,0,0,0,0,0,0,0,0,0,0,0,0,0,0,0,0,0,0,0,0,0,0,0,0,0,0,0,0,0,0,0,0,0,0,0,0,0,0,0,0,0,0,0,0,0,0,0,0,0,0,0,0,0,0,0,0,0,0,0,0,0,0,0,0,0,0,0,0,0,0,0,0,0,0,0,0,0,0,0,0,0,0,0,0,0,0,0,0,0,0,0,0,0,0,0,0,0,0,0,0,0,0,0,0,0,0,0,0,0,0,0,0,0,0,0,0,0,0,0,0,0,0,0,0,0,0,0,0,0,0,0,0,0,0,0,0,0,0,0,0,0,0,0,0,0,0,0,0,0,0,0,0,0,0,0,0,0,0,0,0,0,0,0,0,0,0,0,0,0,0,0,0,0,0,0,0,0,0,0,0,0,0,0,0,0,0,0,0,0,0,0,0,0,0,0,0,0,0,0,0,0,0,0,0,0,0,0,0,0,0,0,0,0,0,0,0,0,0,0,0,0,0,0,0,0,0],"id":6,"left_children":[1,3,5,7,9,11,13,15,17,19,21,23,25,27,29,31,33,35,37,39,41,43,45,47,49,51,53,55,57,59,61,63,65,67,69,71,73,75,77,79,81,83,85,87,89,91,93,95,97,99,101,103,105,107,109,111,113,115,117,119,121,123,125,-1,127,129,-1,131,133,135,137,139,141,143,145,147,149,151,153,155,157,159,161,163,165,167,169,171,173,175,177,179,181,183,185,187,189,191,193,195,197,199,201,203,205,207,209,211,213,215,217,219,221,223,225,227,229,231,233,235,237,239,241,-1,-1,243,245,-1,-1,-1,-1,-1,-1,-1,-1,-1,-1,-1,-1,-1,-1,-1,-1,-1,-1,-1,-1,-1,-1,-1,-1,-1,-1,-1,-1,-1,-1,-1,-1,-1,-1,-1,-1,-1,-1,-1,-1,-1,-1,-1,-1,-1,-1,-1,-1,-1,-1,-1,-1,-1,-1,-1,-1,-1,-1,-1,-1,-1,-1,-1,-1,-1,-1,-1,-1,-1,-1,-1,-1,-1,-1,-1,-1,-1,-1,-1,-1,-1,-1,-1,-1,-1,-1,-1,-1,-1,-1,-1,-1,-1,-1,-1,-1,-1,-1,-1,-1,-1,-1,-1,-1,-1,-1,-1,-1,-1,-1,-1,-1,-1,-1,-1,-1,-1,-1,-1,-1],"loss_changes":[2.6450938E4,2.9809277E3,4.6632676E3,6.975029E2,5.4841846E2,8.435276E2,6.4032227E2,8.9214355E1,3.314795E2,1.9121942E2,5.6862915E2,5.929331E2,4.335369E2,3.5516748E2,1.4478711E2,3.284326E1,7.5566895E1,1.9198022E2,2.9584863E2,1.625222E2,6.326427E1,1.8087833E2,2.853025E2,3.8841223E2,8.913257E1,1.7763907E2,3.432092E2,2.2894922E2,1.580838E2,1.2090576E2,3.699353E1,3.95083E1,2.5305908E1,4.4560486E1,5.9949707E1,1.14226074E2,1.0655171E2,1.0759015E2,1.0724902E2,8.952829E1,6.563733E1,5.65127E1,4.4532104E1,1.3342387E2,1.8412012E2,1.6558598E2,1.1473779E2,3.5005432E2,1.6139879E2,