{"learner":{"attributes":{"scikit_learn":"{\"_estimator_type\": \"classifier\"}"},"feature_names":[],"feature_types":[],"gradient_booster":{"model":{"cats":{"enc":[],"feature_segments":[],"sorted_idx":[]},"gbtree_model_param":{"num_parallel_tree":"1","num_trees":"300"},"iteration_indptr":[0,1,2,3,4,5,6,7,8,9,10,11,12,13,14,15,16,17,18,19,20,21,22,23,24,25,26,27,28,29,30,31,32,33,34,35,36,37,38,39,40,41,42,43,44,45,46,47,48,49,50,51,52,53,54,55,56,57,58,59,60,61,62,63,64,65,66,67,68,69,70,71,72,73,74,75,76,77,78,79,80,81,82,83,84,85,86,87,88,89,90,91,92,93,94,95,96,97,98,99,100,101,102,103,104,105,106,107,108,109,110,111,112,113,114,115,116,117,118,119,120,121,122,123,124,125,126,127,128,129,130,131,132,133,134,135,136,137,138,139,140,141,142,143,144,145,146,147,148,149,150,151,152,153,154,155,156,157,158,159,160,161,162,163,164,165,166,167,168,169,170,171,172,173,174,175,176,177,178,179,180,181,182,183,184,185,186,187,188,189,190,191,192,193,194,195,196,197,198,199,200,201,202,203,204,205,206,207,208,209,210,211,212,213,214,215,216,217,218,219,220,221,222,223,224,225,226,227,228,229,230,231,232,233,234,235,236,237,238,239,240,241,242,243,244,245,246,247,248,249,250,251,252,253,254,255,256,257,258,259,260,261,262,263,264,265,266,267,268,269,270,271,272,273,274,275,276,277,278,279,280,281,282,283,284,285,286,287,288,289,290,291,292,293,294,295,296,297,298,299,300],"tree_info":[0,0,0,0,0,0,0,0,0,0,0,0,0,0,0,0,0,0,0,0,0,0,0,0,0,0,0,0,0,0,0,0,0,0,0,0,0,0,0,0,0,0,0,0,0,0,0,0,0,0,0,0,0,0,0,0,0,0,0,0,0,0,0,0,0,0,0,0,0,0,0,0,0,0,0,0,0,0,0,0,0,0,0,0,0,0,0,0,0,0,0,0,0,0,0,0,0,0,0,0,0,0,0,0,0,0,0,0,0,0,0,0,0,0,0,0,0,0,0,0,0,0,0,0,0,0,0,0,0,0,0,0,0,0,0,0,0,0,0,0,0,0,0,0,0,0,0,0,0,0,0,0,0,0,0,0,0,0,0,0,0,0,0,0,0,0,0,0,0,0,0,0,0,0,0,0,0,0,0,0,0,0,0,0,0,0,0,0,0,0,0,0,0,0,0,0,0,0,0,0,0,0,0,0,0,0,0,0,0,0,0,0,0,0,0,0,0,0,0,0,0,0,0,0,0,0,0,0,0,0,0,0,0,0,0,0,0,0,0,0,0,0,0,0,0,0,0,0,0,0,0,0,0,0,0,0,0,0,0,0,0,0,0,0,0,0,0,0,0,0,0,0,0,0,0,0,0,0,0,0,0,0,0,0,0,0,0,0,0,0,0,0,0,0,0,0,0,0,0,0],"trees":[{"base_weights":[-2.0264609E-2,7.584416E-1,-5.437275E-1,1.4065908E0,5.3503937E-1,-2.537704E-1,-8.9337164E-1,1.7491055E0,1.2639316E0,7.871356E-1,3.134146E-1,-5.1473152E-2,-4.0334344E-1,-7.607176E-1,-1.0916265E0,2.0833566E0,1.625604E0,1.1106185E0,1.4417913E0,5.300065E-1,9.344812E-1,5.2818435E-1,1.0259647E-1,-4.357819E-1,1.00426786E-1,-2.4114351E-1,-5.382107E-1,-5.6779146E-1,-8.6307377E-1,-1.0292945E0,-1.2211959E0,-5.6990154E-2,2.0988445E0,1.7506037E0,1.3567364E0,1.2370713E0,6.889529E-1,7.850589E-1,1.502878E0,6.496234E-1,1.618754E-1,1.18573E0,6.8982863E-1,1.4836739E-1,7.2388935E-1,1.8022403E-1,-2.5637004E-1,-7.342489E-1,-3.4228176E-1,-1.7780529E-1,2.292937E-1,-7.165324E-1,-1.9395559E-1,-8.3673924E-1,-4.5989737E-1,-8.3814627E-1,-4.792771E-1,-1.1085038E0,-7.883227E-1,-1.2994907E0,-9.988924E-1,-1.3257107E0,-1.1101388E0,9.999579E-2,2.121927E0,1.2353214E0,1.8381863E0,-6.378946E-2,1.3804979E0,9.813516E-1,1.3640509E0,4.0495723E-1,1.0734776E0,1.6047621E0,5.470442E-1,1.0915885E0,1.5670547E0,3.2597232E-1,7.510311E-1,-3.6886346E-1,3.027458E-1,9.847655E-1,1.3927066E0,9.916189E-1,5.6802636E-1,8.52011E-1,6.4934045E-2,2.7256313E-1,8.548671E-1,1.2029419E-2,2.991797E-1,-6.537008E-1,-1.02765106E-1,5.72471E-3,-8.074507E-1,-1.3736023E-1,-5.364866E-1,-7.693469E-2,-5.2507955E-1,-1.4062996E-1,3.188471E-1,-3.4398517E-1,-9.5498616E-1,-9.289328E-2,-4.7279695E-1,-9.3234015E-1,-6.1505187E-1,-6.0345554E-1,-3.1882837E-1,-1.0108066E0,-5.901066E-1,-4.3748763E-1,-9.6775085E-1,-1.1138784E0,1.2407763E0,-6.688346E-1,-9.0268457E-1,-1.3182372E0,5.602579E-1,-1.0289546E0,-6.358138E-1,-7.801033E-1,-1.3508525E0,-6.917657E-1,-1.1588455E0,-5.9245497E-2,5.5895794E-2,5.8541585E-2,1.07903E-1,7.215182E-2,1.562497E-2,9.971675E-2,8.466963E-2,-7.965477E-3,7.092551E-2,2.3907892E-2,5.393677E-2,7.741174E-2,6.2291276E-2,-7.300394E-3,3.2382105E-2,7.881932E-3,6.0447186E-2,9.0747245E-2,-5.9245497E-2,7.230078E-2,1.7739864E-2,-2.8481169E-2,5.8061253E-2,7.896643E-2,-1.3138106E-3,2.6371991E-2,-8.692377E-3,2.070603E-2,4.590855E-2,-2.9477892E-2,1.279141E-2,-2.0931995E-2,2.1296412E-2,3.1716697E-2,5.55362E-2,7.2762966E-2,4.220726E-2,-7.0967965E-2,5.0892282E-2,1.0018911E-2,3.585036E-2,5.1458456E-2,-6.24957E-3,-1.4701137E-2,1.1429644E-2,-1.0245484E-2,2.0023143E-2,4.8811488E-2,2.7374087E-2,-3.9673217E-2,2.3606762E-3,-4.1717532E-4,2.2636864E-2,1.0876021E-2,-3.8690727E-2,-2.9577726E-2,1.4597065E-3,1.5219509E-2,-7.122486E-2,6.824477E-3,-4.3626815E-2,-4.3246555E-3,-6.373832E-2,-2.8831897E-2,2.6151715E-2,-7.554287E-4,-3.2861333E-2,2.965551E-2,-2.9590745E-2,2.796738E-3,-2.5474904E-2,2.2098636E-2,-4.972591E-3,7.429782E-2,-2.218783E-2,1.05626166E-1,-4.989433E-2,-1.9901536E-2,2.3815248E-3,5.7903316E-2,-2.4681447E-2,1.2515036E-3,-4.8251495E-2,-2.1244498E-2,-5.4199386E-2,-4.7822453E-2,-2.8047657E-2,-7.876623E-3,-2.488325E-2,-5.7916563E-2,-2.1345211E-2,-3.3279378E-2,6.527876E-2,-1.759275E-2,-3.198705E-2,-7.1800366E-2,-4.053293E-2,-5.185129E-2,-6.404069E-2,1.0375867E-1,-4.1505817E-2,-3.1249097E-2,-5.1419806E-2,-5.662897E-2,-4.2239822E-2,8.2327634E-2,-6.6413954E-2,9.3534E-2,-5.5642225E-2,-3.745755E-2,-5.3014606E-2,-4.528185E-2,-9.988339E-3,-6.8543315E-2,1.3182749E-2,-7.095689E-2,-6.0338505E-2,-3.690547E-3,-6.0920265E-2,-6.9843315E-2,-5.3585526E-2],"categories":[],"categories_nodes":[],"categories_segments":[],"categories_sizes":[],"default_left":[0,0,0,0,0,0,0,0,0,0,0,0,0,0,0,0,0,0,0,0,0,0,0,0,0,0,0,0,0,0,0,0,0,0,0,0,0,0,0,0,0,0,0,0,0,0,0,0,0,0,0,0,0,0,0,0,0,0,0,0,0,0,0,0,0,0,0,0,0,0,0,0,0,0,0,0,0,0,0,0,0,0,0,0,0,0,0,0,0,0,0,0,0,0,0,0,0,0,0,0,0,0,0,0,0,0,0,0,0,0,0,0,0,0,0,0,0,0,0,0,0,0,0,0,0,0,0,0,0,0,0,0,0,0,0,0,0,0,0,0,0,0,0,0,0,0,0,0,0,0,0,0,0,0,0,0,0,0,0,0,0,0,0,0,0,0,0,0,0,0,0,0,0,0,0,0,0,0,0,0,0,0,0,0,0,0,0,0,0,0,0,0,0,0,0,0,0,0,0,0,0,0,0,0,0,0,0,0,0,0,0,0,0,0,0,0,0,0,0,0,0,0,0,0,0,0,0,0,0,0,0,0,0,0,0,0,0,0,0,0,0,0,0,0,0,0,0],"id":0,"left_children":[1,3,5,7,9,11,13,15,17,19,21,23,25,27,29,31,33,35,37,39,41,43,45,47,49,51,53,55,57,59,61,-1,63,65,67,69,71,73,75,77,79,81,83,85,87,89,91,93,95,97,99,101,103,105,107,109,111,113,115,117,119,121,123,125,127,129,131,-1,133,135,137,139,141,143,145,147,149,151,153,155,157,159,161,163,165,167,169,171,173,175,177,179,181,183,185,187,189,191,193,195,197,199,201,203,205,207,209,211,213,215,217,219,221,223,225,227,229,231,233,235,237,239,241,243,245,-1,-1,-1,-1,-1,-1,-1,-1,-1,-1,-1,-1,-1,-1,-1,-1,-1,-1,-1,-1,-1,-1,-1,-1,-1,-1,-1,-1,-1,-1,-1,-1,-1,-1,-1,-1,-1,-1,-1,-1,-1,-1,-1,-1,-1,-1,-1,-1,-1,-1,-1,-1,-1,-1,-1,-1,-1,-1,-1,-1,-1,-1,-1,-1,-1,-1,-1,-1,-1,-1,-1,-1,-1,-1,-1,-1,-1,-1,-1,-1,-1,-1,-1,-1,-1,-1,-1,-1,-1,-1,-1,-1,-1,-1,-1,-1,-1,-1,-1,-1,-1,-1,-1,-1,-1,-1,-1,-1,-1,-1,-1,-1,-1,-1,-1,-1,-1,-1,-1,-1,-1,-1],"loss_changes":[3.2587717E4,4.652703E3,4.84663E3,4.0027734E2,1.3351465E3,7.9081055E2,5.6915234E2,9.648779E1,1.5706348E2,4.2313037E2,5.759237E2,6.4866907E2,3.285713E2,2.559873E2,6.889258E1,3.4800537E1,5.7152344E1,1.6600684E2,1.0675098E2,1.7936035E2,4.3602734E2,4.682776E2,1.7896767E2,8.759314E1,2.855995E2,1.5293121E2,1.9140186E2,1.0740588E2,1.5477344E2,4.6928223E1,3.1213379E1,0E0,2.9614014E1,5.2139893E1,3.7201416E1,7.679175E1,7.8651245E1,4.4199097E1,6.322998E1,1.00702515E2,7.493933E1,1.4440869E2,1.318805E2,1.2581231E2,2.4557764E2,1.0563295E2,6.9634796E1,4.063028E1,9.539023E1,8.829248E1,1.8038104E2,5.4375E1,1.7492148E2,3.5531372E1,1.3146082E2,4.6933777E1,6.8904175E1,2.6360107E1,8.831006E1,2.1324097E1,5.6993652E1,1.877539E1,2.7143677E1,1.2349647E1,1.9433594E1,3.370755E1,1.9875244E1,0E0,3.3119263E1,3.878064E1,3.3024902E1,5.6007294E1,3.790323E1,3.2331757E1,3.0693867E1,3.945871E1,4.16167E1,7.415989E1,1.3145374E2,2.9154503E1,7.050879E1,7.7935425E1,5.793335E1,6.687091E1,1.4058636E2,3.945131E1,1.127309E2,5.7290413E1,1.1968042E2,6.205412E1,1.4604083E2,3.3469406E1,5.3218994E1,2.9697319E1,4.20495E1,6.7497086E1,5.268051E1,7.0138535E1,4.2693024E1,7.700667E1,2.2578082E2,4.482162E1,5.1444153E1,1.9547691E2,5.6677124E1,3.72146E1,4.5574234E1,4.7786743E1,9.456366E1,5.5749695E1,6.63875E1,5.3991943E1,1.8463638E1,2.4000244E1,1.0342454E1,4.9591553E1,4.325049E1,1.9599304E1,1.6539402E1,4.1959473E1,4.764334E1,4.108495E1,1.1869629E1,4.725744E1,2.394873E1,0E0,0E0,0E0,0E0,0E0,0E0,0E0,0E0,0E0,0E0,0E0,0E0,0E0,0E0,0E0,0E0,0E0,0E0,0E0,0E0,0E0,0E0,0E0,0E0,0E0,0E0,0E0,0E0,0E0,0E0,0E0,0E0,0E0,0E0,0E0,0E0,0E0,0E0,0E0,0E0,0E0,0E0,0E0,0E0,0E0,0E0,0E0,0E0,0E0,0E0,0E0,0E0,0E0,0E0,0E0,0E0,0E0,0E0,0E0,0E0,0E0,0E0,0E0,0E0,0E0,0E0,0E0,0E0,0E0,0E0,0E0,0E0,0E0,0E0,0E0,0E0,0E0,0E0,0E0,0E0,0E0,0E0,0E0,0E0,0E0,0E0,0E0,0E0,0E0,0E0,0E0,0E0,0E0,0E0,0E0,0E0,0E0,0E0,0E0,0E0,0E0,0E0,0E0,0E0,0E0,0E0,0E0,0E0,0E0,0E0,0E0,0E0,0E0,0E0,0E0,0E0,0E0,0E0,0E0,0E0,0E0,0E0],"parents":[2147483647,0,0,1,1,2,2,3,3,4,4,5,5,6,6,7,7,8,8,9,9,10,10,11,11,12,12,13,13,14,14,15,15,16,16,17,17,18,18,19,19,20,20,21,21,22,22,23,23,24,24,25,25,26,26,27,27,28,28,29,29,30,30,32,32,33,33,34,34,35,35,36,36,37,37,38,38,39,39,40,40,41,41,42,42,43,43,44,44,45,45,46,46,47,47,48,48,49,49,50,50,51,51,52,52,53,53,54,54,55,55,56,56,57,57,58,58,59,59,60,60,61,61,62,62,63,63,64,64,65,65,66,66,68,68,69,69,70,70,71,71,72,72,73,73,74,74,75,75,76,76,77,77,78,78,79,79,80,80,81,81,82,82,83,83,84,84,85,85,86,86,87,87,88,88,89,89,90,90,91,91,92,92,93,93,94,94,95,95,96,96,97,97,98,98,99,99,100,100,101,101,102,102,103,103,104,104,105,105,106,106,107,107,108,108,109,109,110,110,111,111,112,112,113,113,114,114,115,115,116,116,117,117,118,118,119,119,120,120,121,121,122,122,123,123,124,124],"right_children":[2,4,6,8,10,12,14,16,18,20,22,24,26,28,30,32,34,36,38,40,42,44,46,48,50,52,54,56,58,60,62,-1,64,66,68,70,72,74,76,78,80,82,84,86,88,90,92,94,96,98,100,102,104,106,108,110,112,114,116,118,120,122,124,126,128,130,132,-1,134,136,138,140,142,144,146,148,150,152,154,156,158,160,162,164,166,168,170,172,174,176,178,180,182,184,186,188,190,192,194,196,198,200,202,204,206,208,210,212,214,216,218,220,222,224,226,228,230,232,234,236,238,240,242,244,246,-1,-1,-1,-1,-1,-1,-1,-1,-1,-1,-1,-1,-1,-1,-1,-1,-1,-1,-1,-1,-1,-1,-1,-1,-1,-1,-1,-1,-1,-1,-1,-1,-1,-1,-1,-1,-1,-1,-1,-1,-1,-1,-1,-1,-1,-1,-1,-1,-1,-1,-1,-1,-1,-1,-1,-1,-1,-1,-1,-1,-1,-1,-1,-1,-1,-1,-1,-1,-1,-1,-1,-1,-1,-1,-1,-1,-1,-1,-1,-1,-1,-1,-1,-1,-1,-1,-1,-1,-1,-1,-1,-1,-1,-1,-1,-1,-1,-1,-1,-1,-1,-1,-1,-1,-1,-1,-1,-1,-1,-1,-1,-1,-1,-1,-1,-1,-1,-1,-1,-1,-1,-1],"split_conditions":[-3.837997E-1,-1.2796503E0,2.9773572E-1,-1.8405492E0,-7.7400094E-1,-2.1893815E-3,7.010504E-1,-4.7722464E0,-4.8172483E-3,-1.701399E-2,0E0,-5E-1,-5.1410228E-2,-1.423098E-2,1.0516602E0,-8.6819607E-1,-1.3441241E0,8.0602556E-1,-7.8800386E-1,7.5622505E-1,-1.423098E-2,-4.8172483E-3,1.4640413E-1,-4.0970832E-1,-2.2222222E-1,-8.0407923E-1,-1E0,0E0,-1E0,-8.4997785E-1,1.5137523E-1,-5.6990154E-2,-7.722037E-1,-1E0,-2.68E1,-2.457441E-1,1.09284855E-1,-1.9259871E0,-7.3508483E-1,-4.185757E-1,-1E0,7.5481737E-1,-1.319909E0,-4.2509288E-2,-5E-1,-8.32935E-2,-4.5841634E-1,-9.998973E-1,-3.1079552E-1,1.4416905E-1,-6.105578E-1,-9.2072654E-1,5.2040815E-1,3.6147323E-1,-2.9133467E-2,5E-1,3.5030304E1,7.917E-1,4.6724868E-1,3.533E-1,8.426703E-1,-7.1210885E-1,-8.814524E-1,9.885057E-1,-7.970404E-1,-9.976697E-1,-1.2242265E-1,-6.378946E-2,-8.185943E-1,-6.3706666E-1,-1.583194E0,3.0254668E-1,-5E-1,1E0,-6.8424565E-1,7.361026E-1,1.0639703E0,1E0,-1.2536183E-1,9.4332093E-1,-5.691855E-1,-4.6464142E-1,1.0904012E-2,-1.7594898E-1,-4.4297808E-1,6.7147547E-1,-5E-1,-4.442231E-1,1.2680028E-1,-1.7E-2,-5.809602E-1,-1.8097036E0,-1.2795238E-1,6E-4,-8.84E-2,1.4288828E0,1.7419889E0,1.1281247E0,-1.8151516E1,2.1849915E-2,5.2040815E-1,-1.5141802E0,-1.1580412E0,-4.6464142E-1,-1.875E-1,-1.8151516E1,1.2405379E0,-8.4997785E-1,5.2040815E-1,4.6065384E-1,4.1235194E-1,5.2040815E-1,-1.1494253E-1,2E0,5E-3,2.2179277E0,-3.885596E-1,-1.2822917E0,-7.3977655E-1,-6.299945E-1,4.3678162E-1,8.4415235E-2,9.3364194E-2,-4.118861E-1,-3.830734E-1,-5.9245497E-2,5.5895794E-2,5.8541585E-2,1.07903E-1,7.215182E-2,1.562497E-2,9.971675E-2,8.466963E-2,-7.965477E-3,7.092551E-2,2.3907892E-2,5.393677E-2,7.741174E-2,6.2291276E-2,-7.300394E-3,3.2382105E-2,7.881932E-3,6.0447186E-2,9.0747245E-2,-5.9245497E-2,7.230078E-2,1.7739864E-2,-2.8481169E-2,5.8061253E-2,7.896643E-2,-1.3138106E-3,2.6371991E-2,-8.692377E-3,2.070603E-2,4.590855E-2,-2.9477892E-2,1.279141E-2,-2.0931995E-2,2.1296412E-2,3.1716697E-2,5.55362E-2,7.2762966E-2,4.220726E-2,-7.0967965E-2,5.0892282E-2,1.0018911E-2,3.585036E-2,5.1458456E-2,-6.24957E-3,-1.4701137E-2,1.1429644E-2,-1.0245484E-2,2.0023143E-2,4.8811488E-2,2.7374087E-2,-3.9673217E-2,2.3606762E-3,-4.1717532E-4,2.2636864E-2,1.0876021E-2,-3.8690727E-2,-2.9577726E-2,1.4597065E-3,1.5219509E-2,-7.122486E-2,6.824477E-3,-4.3626815E-2,-4.3246555E-3,-6.373832E-2,-2.8831897E-2,2.6151715E-2,-7.554287E-4,-3.2861333E-2,2.965551E-2,-2.9590745E-2,2.796738E-3,-2.5474904E-2,2.2098636E-2,-4.972591E-3,7.429782E-2,-2.218783E-2,1.05626166E-1,-4.989433E-2,-1.9901536E-2,2.3815248E-3,5.7903316E-2,-2.4681447E-2,1.2515036E-3,-4.8251495E-2,-2.1244498E-2,-5.4199386E-2,-4.7822453E-2,-2.8047657E-2,-7.876623E-3,-2.488325E-2,-5.7916563E-2,-2.1345211E-2,-3.3279378E-2,6.527876E-2,-1.759275E-2,-3.198705E-2,-7.1800366E-2,-4.053293E-2,-5.185129E-2,-6.404069E-2,1.0375867E-1,-4.1505817E-2,-3.1249097E-2,-5.1419806E-2,-5.662897E-2,-4.2239822E-2,8.2327634E-2,-6.6413954E-2,9.3534E-2,-5.5642225E-2,-3.745755E-2,-5.3014606E-2,-4.528185E-2,-9.988339E-3,-6.8543315E-2,1.3182749E-2,-7.095689E-2,-6.0338505E-2,-3.690547E-3,-6.0920265E-2,-6.9843315E-2,-5.3585526E-2],"split_indices":[118,118,118,118,118,112,118,119,40,40,112,12,118,112,118,109,42,16,16,16,112,40,42,115,80,117,12,82,12,117,107,0,107,12,59,108,108,41,17,8,12,120,42,16,12,119,8,120,124,118,8,117,9,108,8,75,73,51,118,70,109,109,120,110,117,41,124,0,120,115,118,120,27,104,108,124,16,3,109,16,107,8,40,124,8,117,12,8,117,61,16,41,119,70,46,117,120,109,73,118,9,42,108,8,65,73,8,117,9,107,124,9,110,45,6,124,107,41,120,112,110,120,80,16,15,0,0,0,0,0,0,0,0,0,0,0,0,0,0,0,0,0,0,0,0,0,0,0,0,0,0,0,0,0,0,0,0,0,0,0,0,0,0,0,0,0,0,0,0,0,0,0,0,0,0,0,0,0,0,0,0,0,0,0,0,0,0,0,0,0,0,0,0,0,0,0,0,0,0,0,0,0,0,0,0,0,0,0,0,0,0,0,0,0,0,0,0,0,0,0,0,0,0,0,0,0,0,0,0,0,0,0,0,0,0,0,0,0,0,0,0,0,0,0,0,0,0],"split_type":[0,0,0,0,0,0,0,0,0,0,0,0,0,0,0,0,0,0,0,0,0,0,0,0,0,0,0,0,0,0,0,0,0,0,0,0,0,0,0,0,0,0,0,0,0,0,0,0,0,0,0,0,0,0,0,0,0,0,0,0,0,0,0,0,0,0,0,0,0,0,0,0,0,0,0,0,0,0,0,0,0,0,0,0,0,0,0,0,0,0,0,0,0,0,0,0,0,0,0,0,0,0,0,0,0,0,0,0,0,0,0,0,0,0,0,0,0,0,0,0,0,0,0,0,0,0,0,0,0,0,0,0,0,0,0,0,0,0,0,0,0,0,0,0,0,0,0,0,0,0,0,0,0,0,0,0,0,0,0,0,0,0,0,0,0,0,0,0,0,0,0,0,0,0,0,0,0,0,0,0,0,0,0,0,0,0,0,0,0,0,0,0,0,0,0,0,0,0,0,0,0,0,0,0,0,0,0,0,0,0,0,0,0,0,0,0,0,0,0,0,0,0,0,0,0,0,0,0,0,0,0,0,0,0,0,0,0,0,0,0,0,0,0,0,0,0,0],"sum_hessian":[7.9943555E4,3.213657E4,4.780698E4,8.236116E3,2.3900453E4,2.6135086E4,2.1671896E4,2.4184143E3,5.817702E3,1.1180351E4,1.2720102E4,1.1110073E4,1.5025013E4,1.2987013E4,8.684884E3,6.482051E2,1.7702094E3,3.1283462E3,2.6893562E3,4.0745515E3,7.1057993E3,6.300251E3,6.4198506E3,3.146789E3,7.9632847E3,6.822558E3,8.202454E3,4.504066E3,8.482946E3,5.869961E3,2.8149229E3,2.7527049E0,6.454524E2,1.2046453E3,5.65564E2,2.405138E3,7.232082E2,2.3004378E2,2.4593123E3,3.0747188E3,9.998329E2,3.503744E3,3.6020554E3,2.1429844E3,4.157267E3,5.278794E3,1.1410568E3,7.490027E2,2.3977864E3,2.5206523E3,5.4426323E3,6.147861E2,6.207772E3,1.7025787E3,6.4998755E3,1.1088302E3,3.3952356E3,1.9772421E3,6.5057046E3,5.8945636E2,5.280505E3,1.4445414E3,1.3703813E3,7.429355E0,6.38023E2,1.7720216E2,1.0274431E3,4.5878415E0,5.609762E2,8.009207E2,1.6042173E3,4.1716138E2,3.060468E2,5.0473812E1,1.7956996E2,3.343805E2,2.124932E3,7.3455176E2,2.340167E3,2.09376E2,7.904569E2,1.7806123E3,1.7231316E3,1.0337024E3,2.568353E3,2.261885E2,1.9167958E3,9.357881E2,3.2214788E3,2.1872642E3,3.0915298E3,3.172273E2,8.2382947E2,6.7507965E1,6.8149475E2,1.1675332E3,1.230253E3,1.9542383E3,5.66414E2,1.0606733E3,4.381959E3,2.4088416E2,3.739019E2,4.5573535E3,1.6504185E3,1.1873414E3,5.1523724E2,3.2198906E3,3.2799849E3,6.5194E2,4.5689023E2,3.129407E3,2.6582855E2,1.9732537E3,3.9884741E0,3.184897E3,3.3208074E3,5.838621E2,5.5942187E0,4.875028E3,4.0547675E2,6.50438E1,1.3794976E3,1.4448752E2,1.2258939E3,3.211489E0,4.2178664E0,2.4574617E1,6.134484E2,1.4418443E2,3.301772E1,4.881924E2,5.392507E2,1.3437954E1,5.4753827E2,1.3082774E2,6.7009296E2,6.224314E2,9.8178595E2,1.2768276E2,2.894786E2,3.9714493E1,2.663323E2,4.726232E1,3.211489E0,3.0487038E1,1.4908292E2,1.3164157E1,3.2121634E2,2.1086968E3,1.6235064E1,5.234886E2,2.1106319E2,7.7713745E2,1.5630295E3,1.5475839E2,5.4617607E1,1.1494035E2,6.7551654E2,4.7239328E2,1.308219E3,1.5452709E3,1.7786067E2,1.0552035E1,1.0231504E3,7.4131506E2,1.8270378E3,1.9142447E2,3.4764046E1,6.000016E2,1.3167942E3,1.9758083E2,7.382073E2,2.3080376E3,9.134411E2,9.0639534E1,2.0966245E3,1.0299127E3,2.0616172E3,3.8338142E1,2.7888916E2,1.7438994E2,6.494396E2,5.649715E1,1.1010819E1,4.3887955E1,6.3760675E2,1.118584E3,4.8949318E1,1.1857731E3,4.4479954E1,1.7670023E3,1.8723589E2,3.1456379E1,5.349576E2,6.924987E2,3.6817465E2,3.3854116E3,9.965472E2,1.1736031E1,2.2914812E2,4.491663E0,3.6941022E2,1.4364252E3,3.1209285E3,2.012736E1,1.6302911E3,3.9211304E1,1.1481301E3,3.679379E2,1.4729938E2,3.4371832E2,2.8761724E3,1.725556E3,1.5544288E3,5.1966205E2,1.3227797E2,4.4001877E2,1.6871466E1,2.2004792E3,9.2892773E2,6.473296E1,2.010956E2,1.356137E3,6.1711664E2,2.8415139E0,1.1469604E0,2.841127E3,3.4377008E2,6.642531E2,2.6565544E3,1.4207569E0,5.824414E2,3.070906E0,2.5233128E0,4.9351154E2,4.3815166E3,2.4981552E2,1.5566122E2,4.1334976E1,2.3708822E1,9.2992596E2,4.495716E2,6.700478E1,7.748274E1,3.2448624E2,9.0140765E2],"tree_param":{"num_deleted":"0","num_feature":"125","num_nodes":"247","size_leaf_vector":"1"}},{"base_weights":[-2.0502608E-2,7.1984607E-1,-5.2934134E-1,1.1906506E0,4.513705E-1,-2.6036713E-1,-8.8828945E-1,1.4907362E0,1.0001153E0,2.6061344E-1,7.101539E-1,-3.548713E-1,8.830167E-2,-7.583687E-1,-1.0665097E0,1.3054624E0,1.6851968E0,8.164232E-1,1.2145717E0,4.2417675E-1,1.3118683E-2,3.8808027E-1,9.178964E-1,-4.7011316E-1,-1.5417218E-1,-2.0426868E-1,2.8566137E-1,-8.4645647E-1,-5.848848E-1,-1.1434114E0,-9.256174E-1,1.6705393E0,1.1662306E0,1.8191661E0,1.439492E0,6.3597393E-1,9.8096293E-1,1.0122632E0,1.374872E0,6.1080766E-1,2.1094032E-1,1.9843647E-1,-1.281891E-1,2.54135E-1,6.445031E-1,6.358141E-1,1.1017995E0,-4.1940543E-1,-8.860383E-1,-5.507507E-1,-5.082391E-2,7.584877E-2,-3.0344412E-1,5.816957E-1,9.88822E-2,-7.8677094E-1,-1.0489243E0,-7.4020076E-1,-3.8376862E-1,-1.2412007E0,-1.0820338E0,-8.1310666E-1,-1.0371256E0,1.9144472E0,1.4913855E0,8.244227E-1,1.2459873E0,-6.355417E-2,1.8285555E0,-6.4280994E-2,1.4563102E0,3.145671E-1,8.278268E-1,1.0085572E0,-1.071729E0,1.0943265E0,5.604206E-1,1.1316828E0,1.5149995E0,2.955488E-1,8.285514E-1,6.2951523E-1,1.2259206E-1,-8.4277056E-2,3.720448E-1,-4.7923335E-1,-3.0248357E-2,8.5805845E-1,1.935056E-1,1.07641585E-1,8.585563E-1,-5.3456235E-1,7.113746E-1,1.0121794E0,1.5364101E0,-6.6551954E-1,-3.3295003E-1,-1.0229852E0,-6.02761E-1,-3.988192E-1,-7.8799266E-1,-3.7167963E-1,3.275014E-2,1.8986419E-1,-5.778826E-1,1.876805E-1,-3.615685E-1,-6.855191E-2,7.0231855E-1,-7.5986065E-2,3.772711E-1,-9.177475E-1,-7.1088773E-1,-1.057509E0,9.39055E-1,-1.1122121E0,-6.4239836E-1,-6.836426E-1,-4.309475E-2,-1.1987836E0,-1.4808707E0,-1.2853583E0,-1.0412698E0,-8.506719E-1,-1.4567162E-1,5.0603468E-2,-1.0542883E0,9.718978E-2,-1.6911784E-3,-2.1897754E-2,7.609803E-2,4.6103414E-2,-1.1402085E-2,6.294969E-2,-6.882186E-2,1.000459E-1,8.648973E-2,7.733854E-2,4.9760733E-2,2.592606E-2,-9.826656E-3,-5.0035067E-2,4.2442832E-2,4.2477842E-2,6.2086154E-2,-6.3806586E-2,5.544995E-2,4.8234813E-2,6.602197E-2,-2.0303523E-2,3.9186716E-2,5.7610657E-2,-6.641611E-2,6.366189E-2,8.3080105E-2,-6.0352255E-3,2.3788596E-2,1.8282497E-2,4.6669032E-2,-3.0740172E-2,3.765049E-2,2.4035666E-2,2.2916996E-3,1.8928278E-2,-1.7529823E-2,2.8657925E-4,2.5269095E-2,-2.8052304E-2,1.877224E-2,-1.9211223E-2,3.061121E-3,-4.7702864E-2,4.8528206E-2,4.484292E-3,2.108233E-2,1.7026784E-2,-2.7891949E-2,1.0744803E-2,4.8643198E-2,-1.3638491E-2,-7.4500434E-2,4.7958817E-2,2.4560422E-2,6.068626E-2,3.922099E-2,7.799464E-2,-6.3018836E-2,-4.5861926E-2,-2.7884627E-2,-6.691114E-3,-2.6830787E-2,-5.3777702E-2,-2.7887506E-2,-2.3157153E-2,-5.3805865E-2,-2.5533518E-2,4.7914307E-3,4.3071657E-2,-4.1503698E-2,9.82293E-3,-2.3397656E-2,9.919024E-3,-8.520502E-3,-1.1881406E-2,1.9919394E-2,-4.8418264E-3,-6.65047E-2,-2.4780294E-2,2.6025876E-2,-3.298129E-2,-1.19167E-2,4.026138E-3,-6.1463207E-2,4.6315327E-2,1.9611927E-2,-2.5231406E-2,1.5129736E-3,-4.7875782E-3,2.7237296E-2,-3.934139E-2,-5.4657556E-2,-3.435374E-2,-6.256416E-2,-5.4092415E-2,-2.3098646E-2,9.4350934E-2,-5.2977998E-2,-5.7196707E-2,1.4363703E-2,-4.1733176E-2,-2.5935655E-2,-1.819758E-5,-3.9337423E-2,3.6420252E-3,-4.4239674E-2,-6.312651E-2,-4.7985762E-2,-7.5007945E-2,-3.806414E-3,8.525182E-2,-6.478851E-2,-4.8084483E-2,-5.7584554E-2,-6.717971E-3,-4.37992E-2,6.9751455E-3,-7.122124E-2,-4.9318507E-2,6.888791E-2,-5.450743E-2,-2.865221E-2],"categories":[],"categories_nodes":[],"categories_segments":[],"categories_sizes":[],"default_left":[0,0,0,0,0,0,0,0,0,0,0,0,0,0,0,0,0,0,0,0,0,0,0,0,0,0,0,0,0,0,0,0,0,0,0,0,0,0,0,0,0,0,0,0,0,0,0,0,0,0,0,0,0,0,0,0,0,0,0,0,0,0,0,0,0,0,0,0,0,0,0,0,0,0,0,0,0,0,0,0,0,0,0,0,0,0,0,0,0,0,0,0,0,0,0,0,0,0,0,0,0,0,0,0,0,0,0,0,0,0,0,0,0,0,0,0,0,0,0,0,0,0,0,0,0,0,0,0,0,0,0,0,0,0,0,0,0,0,0,0,0,0,0,0,0,0,0,0,0,0,0,0,0,0,0,0,0,0,0,0,0,0,0,0,0,0,0,0,0,0,0,0,0,0,0,0,0,0,0,0,0,0,0,0,0,0,0,0,0,0,0,0,0,0,0,0,0,0,0,0,0,0,0,0,0,0,0,0,0,0,0,0,0,0,0,0,0,0,0,0,0,0,0,0,0,0,0,0,0,0,0,0,0,0,0,0,0,0,0,0,0,0,0,0,0,0,0,0,0,0,0],"id":1,"left_children":[1,3,5,7,9,11,13,15,17,19,21,23,25,27,29,31,33,35,37,39,41,43,45,47,49,51,53,55,57,59,61,63,65,67,69,71,73,75,77,79,81,83,85,87,89,91,93,95,97,99,101,103,105,107,109,111,113,115,117,119,121,123,125,127,129,131,133,-1,135,-1,137,139,141,143,145,147,149,151,153,155,157,159,161,163,165,167,169,171,173,175,177,179,181,183,185,187,189,191,193,195,197,199,201,203,205,207,209,211,213,215,217,219,221,223,225,227,229,231,233,235,237,239,241,243,245,247,249,-1,-1,-1,-1,-1,-1,-1,-1,-1,-1,-1,-1,-1,-1,-1,-1,-1,-1,-1,-1,-1,-1,-1,-1,-1,-1,-1,-1,-1,-1,-1,-1,-1,-1,-1,-1,-1,-1,-1,-1,-1,-1,-1,-1,-1,-1,-1,-1,-1,-1,-1,-1,-1,-1,-1,-1,-1,-1,-1,-1,-1,-1,-1,-1,-1,-1,-1,-1,-1,-1,-1,-1,-1,-1,-1,-1,-1,-1,-1,-1,-1,-1,-1,-1,-1,-1,-1,-1,-1,-1,-1,-1,-1,-1,-1,-1,-1,-1,-1,-1,-1,-1,-1,-1,-1,-1,-1,-1,-1,-1,-1,-1,-1,-1,-1,-1,-1,-1,-1,-1,-1,-1,-1,-1],"loss_changes":[3.0152574E4,4.120496E3,4.5796973E3,6.7545703E2,1.0248608E3,8.936022E2,4.696787E2,1.6338281E2,2.8440186E2,4.839469E2,5.8915137E2,4.9340186E2,3.3401605E2,1.7915283E2,9.1740234E1,1.17908936E2,7.107959E1,1.1532739E2,1.0693652E2,2.8632642E2,1.2462343E2,1.18552795E2,2.7710742E2,2.854673E2,3.1899976E2,6.476411E1,1.9093744E2,9.3367676E1,1.2347876E2,3.1886719E1,3.716333E1,2.5490723E1,4.55979E1,4.425586E1,3.8299194E1,1.1476672E2,1.1667822E2,5.4282715E1,6.169995E1,2.6321277E2,1.242162E2,1.0108305E2,9.2821785E1,8.3027695E1,1.3612296E2,1.8749274E2,1.2465869E2,2.5685913E2,5.6482666E1,5.768268E1,1.6561871E2,4.5587353E1,4.9204086E1,1.0484354E2,1.0319166E2,5.9218994E1,3.1227295E1,8.0586426E1,1.7656071E2,1.985962E1,2.6918457E1,3.779956E1,2.8389404E1,1.5570984E1,2.2995117E1,3.3767197E1,4.8965088E1,0E0,2.10708E1,0E0,3.142871E1,7.2955315E1,4.5744995E1,7.362134E1,1.3698067E1,3.541992E1,4.9874184E1,3.608728E1,3.9624023E1,1.1779434E2,1.0978723E2,9.0440125E1,7.630112E1,9.678538E1,6.230864E1,4.139174E1,6.841443E1,4.312758E1,4.8898636E1,5.2735256E1,6.2131653E1,3.183192E1,1.0798663E2,1.2250122E2,3.8221436E1,8.471106E1,3.6262347E2,2.3630981E1,3.1363052E1,5.4429794E1,4.4244415E1,6.9901184E1,1.6493465E2,4.647445E1,3.2748096E1,4.1833904E1,5.6388916E1,3.64318E1,7.791907E1,5.932848E1,6.4833206E1,4.9806152E1,4.827942E1,2.5076172E1,1.7434902E1,2.0918884E1,4.1699646E1,6.476248E1,7.9136086E1,2.6423828E1,8.44104E0,1.9804016E1,2.3894043E1,2.5841919E1,3.0029263E1,3.5120155E1,2.5163574E1,0E0,0E0,0E0,0E0,0E0,0E0,0E0,0E0,0E0,0E0,0E0,0E0,0E0,0E0,0E0,0E0,0E0,0E0,0E0,0E0,0E0,0E0,0E0,0E0,0E0,0E0,0E0,0E0,0E0,0E0,0E0,0E0,0E0,0E0,0E0,0E0,0E0,0E0,0E0,0E0,0E0,0E0,0E0,0E0,0E0,0E0,0E0,0E0,0E0,0E0,0E0,0E0,0E0,0E0,0E0,0E0,0E0,0E0,0E0,0E0,0E0,0E0,0E0,0E0,0E0,0E0,0E0,0E0,0E0,0E0,0E0,0E0,0E0,0E0,0E0,0E0,0E0,0E0,0E0,0E0,0E0,0E0,0E0,0E0,0E0,0E0,0E0,0E0,0E0,0E0,0E0,0E0,0E0,0E0,0E0,0E0,0E0,0E0,0E0,0E0,0E0,0E0,0E0,0E0,0E0,0E0,0E0,0E0,0E0,0E0,0E0,0E0,0E0,0E0,0E0,0E0,0E0,0E0,0E0,0E0,0E0,0E0,0E0,0E0],"parents":[2147483647,0,0,1,1,2,2,3,3,4,4,5,5,6,6,7,7,8,8,9,9,10,10,11,11,12,12,13,13,14,14,15,15,16,16,17,17,18,18,19,19,20,20,21,21,22,22,23,23,24,24,25,25,26,26,27,27,28,28,29,29,30,30,31,31,32,32,33,33,34,34,35,35,36,36,37,37,38,38,39,39,40,40,41,41,42,42,43,43,44,44,45,45,46,46,47,47,48,48,49,49,50,50,51,51,52,52,53,53,54,54,55,55,56,56,57,57,58,58,59,59,60,60,61,61,62,62,63,63,64,64,65,65,66,66,68,68,70,70,71,71,72,72,73,73,74,74,75,75,76,76,77,77,78,78,79,79,80,80,81,81,82,82,83,83,84,84,85,85,86,86,87,87,88,88,89,89,90,90,91,91,92,92,93,93,94,94,95,95,96,96,97,97,98,98,99,99,100,100,101,101,102,102,103,103,104,104,105,105,106,106,107,107,108,108,109,109,110,110,111,111,112,112,113,113,114,114,115,115,116,116,117,117,118,118,119,119,120,120,121,121,122,122,123,123,124,124,125,125,126,126],"right_children":[2,4,6,8,10,12,14,16,18,20,22,24,26,28,30,32,34,36,38,40,42,44,46,48,50,52,54,56,58,60,62,64,66,68,70,72,74,76,78,80,82,84,86,88,90,92,94,96,98,100,102,104,106,108,110,112,114,116,118,120,122,124,126,128,130,132,134,-1,136,-1,138,140,142,144,146,148,150,152,154,156,158,160,162,164,166,168,170,172,174,176,178,180,182,184,186,188,190,192,194,196,198,200,202,204,206,208,210,212,214,216,218,220,222,224,226,228,230,232,234,236,238,240,242,244,246,248,250,-1,-1,-1,-1,-1,-1,-1,-1,-1,-1,-1,-1,-1,-1,-1,-1,-1,-1,-1,-1,-1,-1,-1,-1,-1,-1,-1,-1,-1,-1,-1,-1,-1,-1,-1,-1,-1,-1,-1,-1,-1,-1,-1,-1,-1,-1,-1,-1,-1,-1,-1,-1,-1,-1,-1,-1,-1,-1,-1,-1,-1,-1,-1,-1,-1,-1,-1,-1,-1,-1,-1,-1,-1,-1,-1,-1,-1,-1,-1,-1,-1,-1,-1,-1,-1,-1,-1,-1,-1,-1,-1,-1,-1,-1,-1,-1,-1,-1,-1,-1,-1,-1,-1,-1,-1,-1,-1,-1,-1,-1,-1,-1,-1,-1,-1,-1,-1,-1,-1,-1,-1,-1,-1,-1],"split_conditions":[-3.837997E-1,-1.0890688E0,3.2487494E-1,-1.583194E0,1.99987E-1,4.666576E-1,7.010504E-1,1.999901E-1,1.99987E-1,-6.184751E-1,-1.2536183E-1,1E0,-1.2536183E-1,1.9999242E-1,1.3333677E-1,-4.3731704E0,-1.3441241E0,-4.1147023E-2,-3.498049E-2,0E0,-1.19321294E-1,1E0,-3.2356724E-1,1.5796752E0,-1E0,-1.8485706E-1,-2.8899837E-1,8.8013136E-1,-1.2536183E-1,0E0,9.196539E-1,4.7448066E-1,-1E0,-7.938085E-1,-8.6819607E-1,3.5026532E-1,3.4499178E0,4E0,-1.2536183E-1,0E0,-1.5457301E0,-8.32935E-2,-5.502988E-1,-1.7180197E0,0E0,-8.5183656E-1,1.399995E0,-5E-1,2.0774176E0,4.1235194E-1,-1.0863318E-2,1.97E-2,-9.998973E-1,-4.8508334E-1,1E0,0E0,1.359E-1,-1E0,1.9671315E-2,1.5111278E0,-8.4997785E-1,9.064422E-1,-6.94E-2,2.1440647E0,-7.42E-2,6.6886425E-1,2.866E-1,-6.355417E-2,-2.063895E0,-6.4280994E-2,8.695832E-1,-1.2226945E0,-6.0002995E-1,1E0,9E0,7.8146434E-1,-1E0,1.5408163E0,-2.1613546E-1,-5E-1,-6.666667E-1,-5.750877E-1,-9.8065555E-1,2.2561562E-1,0E0,9.747964E-1,-1E0,0E0,4.7692904E-1,5.732563E-1,0E0,1.6355861E-2,-7.49149E-1,-6.9942796E-1,-3.9272568E-1,0E0,1.7980465E-1,6.5362465E-1,4.7333923E-1,1.2928287E0,-8.205499E-1,-1.7168799E-1,2.1849915E-2,-2.622012E-1,-1.8376738E-2,2.3117532E-1,7.333144E-1,-5E-1,1.1653286E-2,-5E-1,-4.5910493E-1,5.713533E-6,1.006E-1,1E0,-2.5E-1,2.9448829E0,2.3469388E-1,-6.453202E-1,2.29E-2,7.486917E-1,3.019E-1,3.28543E-1,2.288597E0,-8.205499E-1,6E-4,-2.09E-2,1.086E-1,9.718978E-2,-1.6911784E-3,-2.1897754E-2,7.609803E-2,4.6103414E-2,-1.1402085E-2,6.294969E-2,-6.882186E-2,1.000459E-1,8.648973E-2,7.733854E-2,4.9760733E-2,2.592606E-2,-9.826656E-3,-5.0035067E-2,4.2442832E-2,4.2477842E-2,6.2086154E-2,-6.3806586E-2,5.544995E-2,4.8234813E-2,6.602197E-2,-2.0303523E-2,3.9186716E-2,5.7610657E-2,-6.641611E-2,6.366189E-2,8.3080105E-2,-6.0352255E-3,2.3788596E-2,1.8282497E-2,4.6669032E-2,-3.0740172E-2,3.765049E-2,2.4035666E-2,2.2916996E-3,1.8928278E-2,-1.7529823E-2,2.8657925E-4,2.5269095E-2,-2.8052304E-2,1.877224E-2,-1.9211223E-2,3.061121E-3,-4.7702864E-2,4.8528206E-2,4.484292E-3,2.108233E-2,1.7026784E-2,-2.7891949E-2,1.0744803E-2,4.8643198E-2,-1.3638491E-2,-7.4500434E-2,4.7958817E-2,2.4560422E-2,6.068626E-2,3.922099E-2,7.799464E-2,-6.3018836E-2,-4.5861926E-2,-2.7884627E-2,-6.691114E-3,-2.6830787E-2,-5.3777702E-2,-2.7887506E-2,-2.3157153E-2,-5.3805865E-2,-2.5533518E-2,4.7914307E-3,4.3071657E-2,-4.1503698E-2,9.82293E-3,-2.3397656E-2,9.919024E-3,-8.520502E-3,-1.1881406E-2,1.9919394E-2,-4.8418264E-3,-6.65047E-2,-2.4780294E-2,2.6025876E-2,-3.298129E-2,-1.19167E-2,4.026138E-3,-6.1463207E-2,4.6315327E-2,1.9611927E-2,-2.5231406E-2,1.5129736E-3,-4.7875782E-3,2.7237296E-2,-3.934139E-2,-5.4657556E-2,-3.435374E-2,-6.256416E-2,-5.4092415E-2,-2.3098646E-2,9.4350934E-2,-5.2977998E-2,-5.7196707E-2,1.4363703E-2,-4.1733176E-2,-2.5935655E-2,-1.819758E-5,-3.9337423E-2,3.6420252E-3,-4.4239674E-2,-6.312651E-2,-4.7985762E-2,-7.5007945E-2,-3.806414E-3,8.525182E-2,-6.478851E-2,-4.8084483E-2,-5.7584554E-2,-6.717971E-3,-4.37992E-2,6.9751455E-3,-7.122124E-2,-4.9318507E-2,6.888791E-2,-5.450743E-2,-2.865221E-2],"split_indices":[118,118,118,118,111,111,118,111,111,118,109,2,109,111,111,119,42,40,40,112,112,2,7,109,20,118,112,112,109,12,118,16,12,107,109,120,112,45,109,40,42,119,8,42,40,16,111,12,109,124,40,54,120,115,2,82,69,12,8,7,117,0,54,109,43,15,43,0,118,0,16,118,111,2,20,120,12,9,8,12,74,7,118,16,12,19,12,20,19,16,20,42,118,118,118,82,113,18,120,8,15,16,118,8,41,107,111,9,119,12,80,109,60,36,31,107,9,112,44,115,47,119,119,15,44,50,67,0,0,0,0,0,0,0,0,0,0,0,0,0,0,0,0,0,0,0,0,0,0,0,0,0,0,0,0,0,0,0,0,0,0,0,0,0,0,0,0,0,0,0,0,0,0,0,0,0,0,0,0,0,0,0,0,0,0,0,0,0,0,0,0,0,0,0,0,0,0,0,0,0,0,0,0,0,0,0,0,0,0,0,0,0,0,0,0,0,0,0,0,0,0,0,0,0,0,0,0,0,0,0,0,0,0,0,0,0,0,0,0,0,0,0,0,0,0,0,0,0,0,0,0],"split_type":[0,0,0,0,0,0,0,0,0,0,0,0,0,0,0,0,0,0,0,0,0,0,0,0,0,0,0,0,0,0,0,0,0,0,0,0,0,0,0,0,0,0,0,0,0,0,0,0,0,0,0,0,0,0,0,0,0,0,0,0,0,0,0,0,0,0,0,0,0,0,0,0,0,0,0,0,0,0,0,0,0,0,0,0,0,0,0,0,0,0,0,0,0,0,0,0,0,0,0,0,0,0,0,0,0,0,0,0,0,0,0,0,0,0,0,0,0,0,0,0,0,0,0,0,0,0,0,0,0,0,0,0,0,0,0,0,0,0,0,0,0,0,0,0,0,0,0,0,0,0,0,0,0,0,0,0,0,0,0,0,0,0,0,0,0,0,0,0,0,0,0,0,0,0,0,0,0,0,0,0,0,0,0,0,0,0,0,0,0,0,0,0,0,0,0,0,0,0,0,0,0,0,0,0,0,0,0,0,0,0,0,0,0,0,0,0,0,0,0,0,0,0,0,0,0,0,0,0,0,0,0,0,0,0,0,0,0,0,0,0,0,0,0,0,0,0,0,0,0,0,0],"sum_hessian":[8.003815E4,3.2602232E4,4.7435918E4,1.1838518E4,2.0763715E4,2.7117451E4,2.0318467E4,4.5949033E3,7.2436143E3,1.1954036E4,8.809678E3,2.1334791E4,5.7826597E3,1.1754683E4,8.563784E3,2.356982E3,2.2379216E3,3.9042488E3,3.3393655E3,7.196999E3,4.757037E3,3.4554268E3,5.354251E3,1.3551913E4,7.782879E3,2.3294285E3,3.4532312E3,7.7935615E3,3.961121E3,5.5353643E3,3.02842E3,6.476896E2,1.7092924E3,1.4441193E3,7.9380225E2,1.8644207E3,2.0398281E3,1.4794827E3,1.8598828E3,3.8369346E3,3.3600642E3,2.0578586E3,2.6991785E3,2.2710894E3,1.1843373E3,2.114837E3,3.2394143E3,1.2081054E4,1.4708595E3,1.608035E3,6.1748438E3,6.0914764E2,1.7202808E3,1.3350844E3,2.1181467E3,6.022943E3,1.7706183E3,2.2335435E3,1.7275776E3,2.1271243E3,3.4082397E3,1.5115608E3,1.516859E3,2.701752E2,3.7751434E2,3.255295E2,1.383763E3,3.9675138E0,1.4401519E3,4.4062004E0,7.8939606E2,6.97894E2,1.1665266E3,2.0132725E3,2.6555635E1,1.2508771E3,2.2860559E2,6.832278E2,1.176655E3,1.5684386E3,2.2684958E3,5.845355E2,2.7755288E3,7.831112E2,1.2747476E3,5.879445E2,2.111234E3,2.0599922E2,2.06509E3,3.3803146E2,8.463058E2,1.2788704E2,1.9869498E3,2.6883784E3,5.5103595E2,3.138872E3,8.942182E3,9.8976074E2,4.8109882E2,9.8190027E2,6.2613477E2,1.2752983E3,4.8995454E3,5.192894E2,8.985822E1,1.8181322E2,1.5384675E3,2.0897646E2,1.1261079E3,1.3014045E3,8.1674225E2,2.2053506E3,3.8175925E3,1.7634713E3,7.147038E0,4.6280353E2,1.7707399E3,9.182726E2,8.0930505E2,1.8123716E3,3.1475272E2,5.640946E2,2.844145E3,1.4307588E3,8.080198E1,2.3531738E1,1.4933273E3,2.6616803E2,4.007196E0,5.681457E0,3.718329E2,2.980051E2,2.7524416E1,1.377451E3,6.311858E0,5.1758246E2,9.2256934E2,6.579591E2,1.3143698E2,4.988241E2,1.9906987E2,1.2733949E1,1.1537927E3,1.1997699E3,8.1350256E2,2.4659117E1,1.8965201E0,7.984136E2,4.524635E2,4.2753235E1,1.8585236E2,6.781002E2,5.127568E0,4.4782837E2,7.2882666E2,4.7399765E2,1.0944409E3,4.1969763E2,1.8487983E3,5.2416233E1,5.321193E2,4.889639E2,2.286565E3,2.858699E2,4.972413E2,3.4045853E2,9.3428894E2,5.3689465E2,5.1049835E1,4.328764E2,1.6783575E3,1.1604634E1,1.9439459E2,1.4201967E3,6.4489355E2,2.507621E2,8.7269356E1,1.2806413E2,7.182417E2,1.013913E2,2.6495745E1,9.332266E2,1.0537231E3,1.42397E3,1.2644083E3,5.4688635E2,4.149548E0,9.3908936E2,2.1997827E3,4.522301E3,4.4198804E3,8.88099E2,1.0166176E2,3.730461E2,1.080527E2,8.007908E2,1.8110951E2,1.5092572E1,6.1104224E2,1.8464037E2,1.090658E3,2.699086E3,2.2004597E3,1.7020804E2,3.490814E2,5.5496464E1,3.4361755E1,5.9393776E1,1.2241944E2,4.4875287E2,1.0897146E3,1.8601631E2,2.2960154E1,6.526646E2,4.7344327E2,2.5775516E2,1.0436494E3,2.1367062E2,6.030716E2,1.2659456E3,9.39405E2,3.6586428E3,1.5894968E2,1.6934443E3,7.002702E1,4.8855896E0,2.2614484E0,4.5272427E2,1.0079253E1,6.9094226E2,1.0797976E3,1.2052973E2,7.9774286E2,7.1213E2,9.717505E1,1.4274635E3,3.8490808E2,3.1042245E2,4.330265E0,1.392522E0,5.627021E2,1.6585474E3,1.1855977E3,4.9047848E1,1.3817109E3,6.6796585E1,1.4005388E1,1.3354199E1,1.0177538E1,1.3885902E3,1.0473712E2],"tree_param":{"num_deleted":"0","num_feature":"125","num_nodes":"251","size_leaf_vector":"1"}},{"base_weights":[-2.1108786E-2,6.647935E-1,-5.084289E-1,9.8950255E-1,3.107063E-1,-2.2050434E-1,-8.1874555E-1,1.4000729E0,8.3838665E-1,1.0687327E-1,5.1470417E-1,-3.8989165E-1,-1.03569245E-2,-6.09262E-1,-9.249514E-1,1.2303332E0,1.5787053E0,6.584862E-1,1.0531797E0,3.7565432E-2,5.205863E-1,2.6398963E-1,6.8952864E-1,-5.102485E-1,-2.0129173E-1,-2.206564E-1,2.0031744E-1,-8.7697977E-1,-5.245588E-1,-1.0119498E0,-7.818551E-1,1.3987807E0,1.0283928E0,1.752198E0,1.4454684E0,9.248497E-1,5.6312E-1,8.371857E-1,1.1897417E0,1.9653887E-1,-1.21614E-1,6.1681956E-1,-7.7294596E-2,-1.2721446E-1,3.2720485E-1,-2.9829672E-1,7.526063E-1,-4.5536965E-1,-8.0024344E-1,-4.819373E-1,-7.091997E-2,4.711686E-3,-3.051996E-1,-5.5764887E-2,3.8009995E-1,-9.587959E-1,-4.0159154E-1,-6.3433E-1,-3.1235453E-1,-9.0659624E-1,-1.110883E0,-5.382287E-1,-8.474359E-1,9.6544474E-1,1.4750737E0,4.1901815E-1,1.1355447E0,-5.4456122E-2,1.7588753E0,1.0871406E0,1.5951515E0,3.1804952E-1,9.822731E-1,3.335282E-1,7.1280813E-1,4.3921673E-1,9.1608596E-1,6.364536E-1,1.2665087E0,-1.8763019E-1,3.5237473E-1,2.2332433E-1,-1.8682295E-1,8.542577E-1,3.8714695E-1,-5.67426E-1,3.6926648E-1,-4.9107587E-1,2.539451E-1,9.103461E-3,4.3837774E-1,-4.139231E-1,6.2339437E-1,4.0254545E-1,9.1787827E-1,4.9301356E-1,-5.15092E-1,-9.207396E-1,-6.003445E-1,-3.346459E-2,-5.7812166E-1,-4.2440382E-1,5.093194E-2,-1.1481233E-1,3.4019327E-1,-2.2136362E-1,-4.9759918E-1,-4.666893E-1,8.534922E-2,-9.452445E-2,4.8270372E-1,-1.0161251E0,-5.5803466E-1,-8.878151E-1,2.3476191E-1,-7.137249E-1,-1.5238349E-1,-3.7849975E-1,2.2388223E-1,-7.4499744E-1,-9.729383E-1,-1.0760295E0,-1.3047478E0,-3.907687E-1,-8.7215555E-1,-9.5910096E-1,-7.394005E-1,8.395786E-2,3.8054835E-2,-6.426347E-2,7.4311905E-2,2.8660625E-2,-5.5570837E-2,4.527228E-2,6.6019624E-2,-5.0856244E-2,8.8230915E-2,6.2098958E-2,2.3092158E-2,8.111165E-2,2.1098599E-2,-1.662853E-2,4.141232E-2,-6.955644E-2,4.9627557E-2,1.6494498E-3,2.369745E-2,4.648274E-2,2.5192631E-2,7.3931605E-4,4.057237E-2,5.2454513E-2,3.2551747E-2,2.1550415E-2,5.6234885E-2,5.0344385E-2,6.9881625E-2,-3.410724E-2,-2.4813537E-3,2.5188392E-3,2.5405074E-2,3.69035E-3,4.0598746E-2,-1.4884332E-2,1.1905573E-3,6.063505E-2,2.6976278E-2,-1.1990066E-2,2.5736913E-2,-5.6920137E-2,1.8582609E-2,7.463959E-3,8.43067E-2,-6.7635655E-2,-1.6179185E-2,7.546051E-2,4.8296778E-3,-1.3541964E-2,9.359202E-3,2.5790295E-2,-2.1967713E-3,3.1475782E-2,-2.7401436E-2,-3.8741257E-2,5.967915E-2,-2.0147485E-3,2.6814317E-2,5.4678764E-2,3.4113772E-2,3.842591E-2,-3.355027E-3,-3.5655487E-2,-2.239033E-2,-5.0986078E-2,-2.4371283E-2,-4.212324E-2,-1.7095769E-2,1.1082816E-2,-3.646137E-2,-2.5258094E-2,-5.635645E-2,-7.834493E-3,-3.241838E-2,-1.2456298E-2,7.576274E-3,-4.387798E-2,-3.205039E-3,7.654257E-2,8.051916E-3,-1.3505845E-2,5.2664196E-3,-3.560528E-3,-2.8823704E-2,-2.5467211E-2,6.742578E-2,-2.401066E-2,9.516053E-3,1.7658751E-2,-1.4479197E-2,3.9228722E-2,1.5606731E-2,-6.599898E-3,-5.21706E-2,-3.5899453E-2,3.1614047E-2,5.7246685E-3,-5.3255063E-2,-9.827311E-3,5.745594E-2,-4.8220806E-2,-3.0898882E-2,-3.5303984E-2,1.2602567E-3,-3.4959015E-2,-1.2242464E-2,-1.6923435E-2,3.0995155E-2,-3.9782595E-2,7.047839E-3,-5.220876E-2,-3.9052647E-2,-4.6690337E-2,-5.7751507E-2,-6.601647E-2,3.755747E-2,-3.937988E-3,-2.8458133E-2,4.9701836E-2,-4.623302E-2,-4.5076516E-2,-6.0874254E-2,-3.833104E-2,2.301136E-2],"categories":[],"categories_nodes":[],"categories_segments":[],"categories_sizes":[],"default_left":[0,0,0,0,0,0,0,0,0,0,0,0,0,0,0,0,0,0,0,0,0,0,0,0,0,0,0,0,0,0,0,0,0,0,0,0,0,0,0,0,0,0,0,0,0,0,0,0,0,0,0,0,0,0,0,0,0,0,0,0,0,0,0,0,0,0,0,0,0,0,0,0,0,0,0,0,0,0,0,0,0,0,0,0,0,0,0,0,0,0,0,0,0,0,0,0,0,0,0,0,0,0,0,0,0,0,0,0,0,0,0,0,0,0,0,0,0,0,0,0,0,0,0,0,0,0,0,0,0,0,0,0,0,0,0,0,0,0,0,0,0,0,0,0,0,0,0,0,0,0,0,0,0,0,0,0,0,0,0,0,0,0,0,0,0,0,0,0,0,0,0,0,0,0,0,0,0,0,0,0,0,0,0,0,0,0,0,0,0,0,0,0,0,0,0,0,0,0,0,0,0,0,0,0,0,0,0,0,0,0,0,0,0,0,0,0,0,0,0,0,0,0,0,0,0,0,0,0,0,0,0,0,0,0,0,0,0,0,0,0,0,0,0,0,0,0,0,0,0,0,0,0,0],"id":2,"left_children":[1,3,5,7,9,11,13,15,17,19,21,23,25,27,29,31,33,35,37,39,41,43,45,47,49,51,53,55,57,59,61,63,65,67,69,71,73,75,77,79,81,83,85,87,89,91,93,95,97,99,101,103,105,107,109,111,113,115,117,119,121,123,125,127,129,131,133,-1,135,137,139,141,143,145,147,149,151,153,155,157,159,161,163,165,167,169,171,173,175,177,179,181,183,185,187,189,191,193,195,197,199,201,203,205,207,209,211,213,215,217,219,221,223,225,227,229,231,233,235,237,239,241,243,245,247,249,251,-1,-1,-1,-1,-1,-1,-1,-1,-1,-1,-1,-1,-1,-1,-1,-1,-1,-1,-1,-1,-1,-1,-1,-1,-1,-1,-1,-1,-1,-1,-1,-1,-1,-1,-1,-1,-1,-1,-1,-1,-1,-1,-1,-1,-1,-1,-1,-1,-1,-1,-1,-1,-1,-1,-1,-1,-1,-1,-1,-1,-1,-1,-1,-1,-1,-1,-1,-1,-1,-1,-1,-1,-1,-1,-1,-1,-1,-1,-1,-1,-1,-1,-1,-1,-1,-1,-1,-1,-1,-1,-1,-1,-1,-1,-1,-1,-1,-1,-1,-1,-1,-1,-1,-1,-1,-1,-1,-1,-1,-1,-1,-1,-1,-1,-1,-1,-1,-1,-1,-1,-1,-1,-1,-1,-1,-1],"loss_changes":[2.672186E4,3.81763E3,4.1757725E3,1.0735137E3,6.605156E2,8.630343E2,4.9989258E2,1.393125E2,4.8865137E2,2.2786514E2,3.4781934E2,3.0462292E2,4.7949677E2,1.7121265E2,1.8500586E2,7.9973145E1,4.9855957E1,1.7460913E2,1.692124E2,1.7230882E2,6.565625E1,8.0747086E1,2.916565E2,1.3004272E2,1.9136871E2,1.0319711E2,2.4893442E2,7.0326904E1,1.3382166E2,9.569922E1,8.977246E1,4.1624023E1,7.08418E1,2.0503418E1,6.7326904E1,6.2967163E1,1.7432214E2,6.988782E1,1.4925098E2,2.0401686E2,7.6575294E1,5.323819E1,3.5006596E1,6.318759E1,9.936075E1,3.0252655E1,2.5400342E2,3.9064832E2,3.0822998E1,7.154974E1,1.5392543E2,5.932408E1,6.3420288E1,1.2940541E2,1.5474176E2,3.505359E1,8.333794E1,1.4494812E2,6.97287E1,4.7505127E1,3.0896973E1,5.877307E1,5.2948486E1,2.7573456E1,3.5971924E1,3.955564E1,3.8288574E1,0E0,1.7383545E1,3.6462616E1,2.8102783E1,5.288211E1,4.1840088E1,8.466177E1,1.3880847E2,5.8806046E1,6.5142944E1,4.2894714E1,1.0417383E2,6.710307E1,1.1397043E2,4.759253E1,6.684235E1,5.3740692E1,4.0212395E1,4.1274414E1,2.4023079E1,3.318433E1,4.3848083E1,3.637745E1,7.777652E1,3.5422684E1,2.6254475E1,8.363939E1,1.2285254E2,6.3141785E1,8.608154E1,3.4279907E1,3.0544601E1,5.2358456E1,5.414987E1,5.4824554E1,8.026791E1,4.2138493E1,8.265405E1,4.375038E1,4.0133545E1,4.4854088E1,9.8731445E1,4.9485367E1,1.342536E2,3.255481E1,3.7818382E1,2.7222328E1,4.6430492E1,7.7521484E1,5.2865734E1,7.475755E1,4.836513E1,5.9064392E1,4.2736572E1,4.4512207E1,2.4177124E1,4.6407967E1,3.6872467E1,3.138733E1,7.431555E1,0E0,0E0,0E0,0E0,0E0,0E0,0E0,0E0,0E0,0E0,0E0,0E0,0E0,0E0,0E0,0E0,0E0,0E0,0E0,0E0,0E0,0E0,0E0,0E0,0E0,0E0,0E0,0E0,0E0,0E0,0E0,0E0,0E0,0E0,0E0,0E0,0E0,0E0,0E0,0E0,0E0,0E0,0E0,0E0,0E0,0E0,0E0,0E0,0E0,0E0,0E0,0E0,0E0,0E0,0E0,0E0,0E0,0E0,0E0,0E0,0E0,0E0,0E0,0E0,0E0,0E0,0E0,0E0,0E0,0E0,0E0,0E0,0E0,0E0,0E0,0E0,0E0,0E0,0E0,0E0,0E0,0E0,0E0,0E0,0E0,0E0,0E0,0E0,0E0,0E0,0E0,0E0,0E0,0E0,0E0,0E0,0E0,0E0,0E0,0E0,0E0,0E0,0E0,0E0,0E0,0E0,0E0,0E0,0E0,0E0,0E0,0E0,0E0,0E0,0E0,0E0,0E0,0E0,0E0,0E0,0E0,0E0,0E0,0E0,0E0,0E0],"parents":[2147483647,0,0,1,1,2,2,3,3,4,4,5,5,6,6,7,7,8,8,9,9,10,10,11,11,12,12,13,13,14,14,15,15,16,16,17,17,18,18,19,19,20,20,21,21,22,22,23,23,24,24,25,25,26,26,27,27,28,28,29,29,30,30,31,31,32,32,33,33,34,34,35,35,36,36,37,37,38,38,39,39,40,40,41,41,42,42,43,43,44,44,45,45,46,46,47,47,48,48,49,49,50,50,51,51,52,52,53,53,54,54,55,55,56,56,57,57,58,58,59,59,60,60,61,61,62,62,63,63,64,64,65,65,66,66,68,68,69,69,70,70,71,71,72,72,73,73,74,74,75,75,76,76,77,77,78,78,79,79,80,80,81,81,82,82,83,83,84,84,85,85,86,86,87,87,88,88,89,89,90,90,91,91,92,92,93,93,94,94,95,95,96,96,97,97,98,98,99,99,100,100,101,101,102,102,103,103,104,104,105,105,106,106,107,107,108,108,109,109,110,110,111,111,112,112,113,113,114,114,115,115,116,116,117,117,118,118,119,119,120,120,121,121,122,122,123,123,124,124,125,125,126,126],"right_children":[2,4,6,8,10,12,14,16,18,20,22,24,26,28,30,32,34,36,38,40,42,44,46,48,50,52,54,56,58,60,62,64,66,68,70,72,74,76,78,80,82,84,86,88,90,92,94,96,98,100,102,104,106,108,110,112,114,116,118,120,122,124,126,128,130,132,134,-1,136,138,140,142,144,146,148,150,152,154,156,158,160,162,164,166,168,170,172,174,176,178,180,182,184,186,188,190,192,194,196,198,200,202,204,206,208,210,212,214,216,218,220,222,224,226,228,230,232,234,236,238,240,242,244,246,248,250,252,-1,-1,-1,-1,-1,-1,-1,-1,-1,-1,-1,-1,-1,-1,-1,-1,-1,-1,-1,-1,-1,-1,-1,-1,-1,-1,-1,-1,-1,-1,-1,-1,-1,-1,-1,-1,-1,-1,-1,-1,-1,-1,-1,-1,-1,-1,-1,-1,-1,-1,-1,-1,-1,-1,-1,-1,-1,-1,-1,-1,-1,-1,-1,-1,-1,-1,-1,-1,-1,-1,-1,-1,-1,-1,-1,-1,-1,-1,-1,-1,-1,-1,-1,-1,-1,-1,-1,-1,-1,-1,-1,-1,-1,-1,-1,-1,-1,-1,-1,-1,-1,-1,-1,-1,-1,-1,-1,-1,-1,-1,-1,-1,-1,-1,-1,-1,-1,-1,-1,-1,-1,-1,-1,-1,-1,-1],"split_conditions":[-3.7490022E-1,-8.6744094E-1,2.6286802E-1,-1.583194E0,6.66417E-2,6.666243E-2,4.6724868E-1,1.999901E-1,1.99987E-1,1E0,-1.2536183E-1,9.742748E-2,-1.2536183E-1,-1E0,1.3333294E-1,-1.8405492E0,-1.9352033E0,-1.3112627E0,-4.1147023E-2,0E0,2.48E-2,-1.3358368E-1,-8.250103E-1,1.5796752E0,-5E-1,-1.7008843E-1,-3.2356724E-1,8.884183E-1,1E0,7.463544E-1,-2.1765317E-1,-5.199644E-1,-7.243526E-1,-1.10885E0,5.303942E-1,-6.8445385E-1,-1.701399E-2,-8.057504E-1,-7.03398E-1,-5E-1,-7.7400094E-1,0E0,2.3536254E-1,2.803785E-1,-6.1507773E-1,1.1794715E0,0E0,-6.3438123E-1,1E0,-7.304994E-2,-7.017776E-2,5.5378485E-1,8.099334E-2,-4.532407E-1,-4.1147023E-2,9.364095E-1,2.1893815E-3,4.1917732E-1,8.000048E-1,-8.812261E-2,1.7555261E0,8.600531E-1,3.510956E-2,-3.8194618E-1,-1.946E-1,-2.4770425E-1,7.418243E-1,-5.4456122E-2,-7.6568335E-1,4.8842594E-1,8.72E-2,-9.639323E-2,-1.612396E0,-4.0733683E-1,-2.4083197E-2,1.159745E-1,3.987097E-1,1E0,-1.2932871E-1,-6.2144476E-1,0E0,1E0,2.6017836E-1,2.1240886E-1,-2.4665096E-1,8.16E-2,1.6666666E0,0E0,-3.19E-2,-3.1635802E-2,1.5107591E0,-3.37E-2,-1.7807843E-1,-4.8508334E-1,-2.1893815E-3,1.109474E0,-5E-1,7.126437E-1,-5.1375866E-1,1.6666667E-1,1.791555E-1,-7.3827244E-2,-2.970679E-1,-8.2721037E-1,5.966135E-1,1.3999969E0,-2.27E-2,2.0666034E0,-1E0,-2.7693427E-1,-3.136289E-1,-3.8533115E0,2.062318E-1,-2.14E-2,4.2303616E-1,-3.7271512E-1,-5.316358E-1,-3.5129896E-1,-2.607195E-1,2.1440647E0,1E0,-1.1275818E-4,3.474E-1,3.455166E-2,-1.75E0,2E-3,1.533315E0,8.395786E-2,3.8054835E-2,-6.426347E-2,7.4311905E-2,2.8660625E-2,-5.5570837E-2,4.527228E-2,6.6019624E-2,-5.0856244E-2,8.8230915E-2,6.2098958E-2,2.3092158E-2,8.111165E-2,2.1098599E-2,-1.662853E-2,4.141232E-2,-6.955644E-2,4.9627557E-2,1.6494498E-3,2.369745E-2,4.648274E-2,2.5192631E-2,7.3931605E-4,4.057237E-2,5.2454513E-2,3.2551747E-2,2.1550415E-2,5.6234885E-2,5.0344385E-2,6.9881625E-2,-3.410724E-2,-2.4813537E-3,2.5188392E-3,2.5405074E-2,3.69035E-3,4.0598746E-2,-1.4884332E-2,1.1905573E-3,6.063505E-2,2.6976278E-2,-1.1990066E-2,2.5736913E-2,-5.6920137E-2,1.8582609E-2,7.463959E-3,8.43067E-2,-6.7635655E-2,-1.6179185E-2,7.546051E-2,4.8296778E-3,-1.3541964E-2,9.359202E-3,2.5790295E-2,-2.1967713E-3,3.1475782E-2,-2.7401436E-2,-3.8741257E-2,5.967915E-2,-2.0147485E-3,2.6814317E-2,5.4678764E-2,3.4113772E-2,3.842591E-2,-3.355027E-3,-3.5655487E-2,-2.239033E-2,-5.0986078E-2,-2.4371283E-2,-4.212324E-2,-1.7095769E-2,1.1082816E-2,-3.646137E-2,-2.5258094E-2,-5.635645E-2,-7.834493E-3,-3.241838E-2,-1.2456298E-2,7.576274E-3,-4.387798E-2,-3.205039E-3,7.654257E-2,8.051916E-3,-1.3505845E-2,5.2664196E-3,-3.560528E-3,-2.8823704E-2,-2.5467211E-2,6.742578E-2,-2.401066E-2,9.516053E-3,1.7658751E-2,-1.4479197E-2,3.9228722E-2,1.5606731E-2,-6.599898E-3,-5.21706E-2,-3.5899453E-2,3.1614047E-2,5.7246685E-3,-5.3255063E-2,-9.827311E-3,5.745594E-2,-4.8220806E-2,-3.0898882E-2,-3.5303984E-2,1.2602567E-3,-3.4959015E-2,-1.2242464E-2,-1.6923435E-2,3.0995155E-2,-3.9782595E-2,7.047839E-3,-5.220876E-2,-3.9052647E-2,-4.6690337E-2,-5.7751507E-2,-6.601647E-2,3.755747E-2,-3.937988E-3,-2.8458133E-2,4.9701836E-2,-4.623302E-2,-4.5076516E-2,-6.0874254E-2,-3.833104E-2,2.301136E-2],"split_indices":[118,118,118,118,111,111,118,111,111,77,109,17,109,12,111,118,118,118,40,112,43,40,16,109,12,124,7,108,2,118,124,120,123,6,120,107,40,113,16,12,118,27,19,123,16,108,40,117,2,16,109,123,118,18,40,19,17,16,111,112,109,118,123,40,60,107,120,0,115,80,60,40,18,107,112,108,124,2,109,108,40,38,19,16,120,53,116,56,53,80,124,52,18,115,112,109,12,110,107,27,118,118,80,109,123,111,68,111,12,124,112,17,40,44,118,7,80,19,108,109,106,117,56,117,32,48,111,0,0,0,0,0,0,0,0,0,0,0,0,0,0,0,0,0,0,0,0,0,0,0,0,0,0,0,0,0,0,0,0,0,0,0,0,0,0,0,0,0,0,0,0,0,0,0,0,0,0,0,0,0,0,0,0,0,0,0,0,0,0,0,0,0,0,0,0,0,0,0,0,0,0,0,0,0,0,0,0,0,0,0,0,0,0,0,0,0,0,0,0,0,0,0,0,0,0,0,0,0,0,0,0,0,0,0,0,0,0,0,0,0,0,0,0,0,0,0,0,0,0,0,0,0,0],"split_type":[0,0,0,0,0,0,0,0,0,0,0,0,0,0,0,0,0,0,0,0,0,0,0,0,0,0,0,0,0,0,0,0,0,0,0,0,0,0,0,0,0,0,0,0,0,0,0,0,0,0,0,0,0,0,0,0,0,0,0,0,0,0,0,0,0,0,0,0,0,0,0,0,0,0,0,0,0,0,0,0,0,0,0,0,0,0,0,0,0,0,0,0,0,0,0,0,0,0,0,0,0,0,0,0,0,0,0,0,0,0,0,0,0,0,0,0,0,0,0,0,0,0,0,0,0,0,0,0,0,0,0,0,0,0,0,0,0,0,0,0,0,0,0,0,0,0,0,0,0,0,0,0,0,0,0,0,0,0,0,0,0,0,0,0,0,0,0,0,0,0,0,0,0,0,0,0,0,0,0,0,0,0,0,0,0,0,0,0,0,0,0,0,0,0,0,0,0,0,0,0,0,0,0,0,0,0,0,0,0,0,0,0,0,0,0,0,0,0,0,0,0,0,0,0,0,0,0,0,0,0,0,0,0,0,0,0,0,0,0,0,0,0,0,0,0,0,0,0,0,0,0,0,0],"sum_hessian":[7.994277E4,3.3205594E4,4.6737184E4,1.7320424E4,1.5885169E4,2.4244164E4,2.249302E4,4.657658E3,1.2662765E4,7.946557E3,7.938612E3,1.3423458E4,1.0820706E4,7.5694824E3,1.4923537E4,2.3923203E3,2.2653381E3,6.893317E3,5.7694478E3,6.8072534E3,1.1393036E3,3.2624565E3,4.6761553E3,8.193191E3,5.2302666E3,5.4151475E3,5.4055586E3,1.8170515E3,5.7524307E3,9.277196E3,5.6463403E3,1.3010935E3,1.0912268E3,9.787367E2,1.2866013E3,1.8150564E3,5.0782607E3,2.2375469E3,3.5319011E3,3.4057131E3,3.4015405E3,9.8132117E2,1.5798244E2,4.5370636E2,2.8087502E3,2.8044983E2,4.3957056E3,6.8915933E3,1.3015986E3,1.6581477E3,3.572119E3,1.4774994E3,3.9376482E3,2.229932E3,3.1756267E3,1.5493805E3,2.6767102E2,3.7899417E3,1.962489E3,4.4977407E3,4.7794556E3,1.1995042E3,4.4468364E3,1.9682176E2,1.1042717E3,1.639201E2,9.273067E2,1.914618E0,9.768221E2,3.8152567E2,9.050757E2,1.5748035E2,1.657576E3,2.0054805E3,3.07278E3,3.7129916E2,1.8662477E3,4.3146487E2,3.1004363E3,9.827696E2,2.4229436E3,5.404224E2,2.8611182E3,4.811664E2,5.0015472E2,7.51879E1,8.279454E1,2.319728E2,2.2173355E2,7.276865E2,2.0810635E3,2.4967851E2,3.0771326E1,1.4108456E3,2.9848599E3,4.0784317E2,6.48375E3,8.0983563E2,4.9176303E2,2.9306058E2,1.3650872E3,9.150731E2,2.657046E3,1.0898646E3,3.8763477E2,2.7440913E3,1.1935568E3,5.694336E2,1.6604984E3,5.644897E2,2.6111372E3,1.3541349E3,1.952456E2,1.5151024E2,1.16160774E2,3.2534878E3,5.364541E2,1.7472576E3,2.152314E2,1.312625E3,3.1851157E3,4.0566848E3,7.227706E2,8.3357355E2,3.6593057E2,2.1828118E3,2.2640247E3,4.220346E1,1.546183E2,3.988582E0,1.1002832E3,1.4948468E2,1.443542E1,4.1571814E2,5.115886E2,1.6530976E0,9.75169E2,3.0501135E2,7.651431E1,8.842804E2,2.0795258E1,6.936805E1,8.81123E1,6.567932E0,1.6510082E3,6.390254E2,1.3664551E3,1.5062241E3,1.566556E3,1.7397102E2,1.9732816E2,1.2406989E3,6.255488E2,3.05006E2,1.2645887E2,1.043338E3,2.0570981E3,2.13561E2,7.6920856E2,8.2478235E2,1.5981611E3,4.3185626E2,1.0856617E2,1.8742338E3,9.868844E2,2.2362756E2,2.5753885E2,8.442659E1,4.1572815E2,4.6626114E1,2.8561785E1,7.189722E1,1.0897322E1,3.6602203E1,1.9537059E2,2.3741941E1,1.9799161E2,2.827238E2,4.4496277E2,1.7931334E3,2.879301E2,2.8014126E1,2.2166438E2,8.809567E0,2.196176E1,3.2741464E2,1.0834309E3,1.7077169E3,1.2771431E3,2.7312732E2,1.3471585E2,1.641956E3,4.841794E3,6.581427E2,1.5169295E2,2.5272598E2,2.3903705E2,2.149314E2,7.812919E1,1.2066506E3,1.5843652E2,4.1759854E2,4.9747458E2,6.6674695E2,1.9902988E3,6.692641E1,1.0229382E3,4.971116E1,3.3792358E2,2.3879092E3,3.5618216E2,1.86619E2,1.0069378E3,5.5706274E2,1.2370846E1,2.5939066E2,1.4011077E3,1.7106094E2,3.9342874E2,9.4142206E2,1.6697151E3,4.0716255E1,1.3134187E3,1.7246642E2,2.2779196E1,2.2824339E1,1.286859E2,7.946273E1,3.6698048E1,8.9667847E2,2.3568093E3,1.2955234E2,4.0690173E2,5.127458E2,1.2345118E3,8.899852E1,1.2623287E2,1.241731E3,7.0894E1,2.3195486E3,8.655671E2,1.4532513E3,2.6034336E3,7.176891E2,5.0815578E0,3.037536E2,5.2981995E2,9.522912E0,3.5640768E2,1.788749E3,3.940627E2,2.2141453E3,4.987931E1],"tree_param":{"num_deleted":"0","num_feature":"125","num_nodes":"253","size_leaf_vector":"1"}},{"base_weights":[-1.2975194E-2,5.729521E-1,-5.3479636E-1,9.10077E-1,2.3911734E-1,-2.7974427E-1,-7.8868634E-1,1.1783539E0,7.023311E-1,8.250034E-2,4.5949897E-1,-4.3024972E-1,-8.826276E-2,-6.675142E-1,-9.756407E-1,1.4376738E0,1.0569245E0,5.062077E-1,9.4564867E-1,2.4872226E-1,-7.5768754E-2,1.9975828E-1,6.477954E-1,-2.7293748E-1,-5.275494E-1,9.439071E-2,-2.6062664E-1,-7.549854E-1,-4.965112E-1,-1.054867E0,-8.141368E-1,1.2214E0,1.56309E0,8.7631834E-1,1.2089199E0,5.826357E-2,5.7142115E-1,7.757327E-1,1.1411115E0,-6.766612E-2,4.1921303E-1,1.7707925E-2,-3.8956824E-1,-2.2125696E-3,3.5028765E-1,4.6511E-1,9.039356E-1,-1.6471884E-1,-6.4179075E-1,-4.8096287E-1,-7.7094E-1,-1.6213617E-1,2.7387267E-1,3.4383053E-3,-3.2044572E-1,-6.12407E-1,-8.2870954E-1,-6.7783386E-1,-2.708673E-1,-9.89153E-1,-1.1545063E0,-6.9342107E-1,-9.686908E-1,-6.9498636E-2,1.2366437E0,-2.5471497E-1,1.5781109E0,-4.8711503E-1,9.007312E-1,8.95806E-1,1.2785336E0,2.874104E-1,-2.219485E-1,3.0043444E-1,6.639419E-1,2.9429984E-1,8.3479446E-1,7.817279E-1,1.260893E0,-3.3766776E-1,1.0628458E-1,6.8686795E-1,2.8255525E-1,-3.4802157E-1,7.376641E-2,-3.0217633E-1,-9.7570175E-1,-1.7665869E-1,3.03897E-1,-3.8415843E-1,4.17553E-1,3.2466936E-1,7.8492653E-1,7.639265E-1,1.2553711E0,-6.3406397E-3,-2.9876235E-1,6.9409156E-1,-6.9096756E-1,4.3255538E-1,-5.36378E-1,-8.6889786E-1,-5.3391355E-1,-6.0952824E-1,2.9331853E-3,6.174317E-1,1.276663E-1,-5.470993E-1,8.0806404E-2,-3.656216E-2,-3.757265E-1,-8.4240085E-1,-5.1189953E-1,-7.9294205E-1,-1.0536036E0,-7.377208E-1,-3.3055535E-1,-5.4964626E-1,3.6398783E-2,-2.3924735E-1,-1.0027388E0,-1.1912144E0,-7.3016065E-1,-7.6007414E-1,-4.0827078E-1,-1.06261946E-1,-9.954446E-1,6.2420286E-2,-6.6340216E-2,-7.2565086E-2,5.3128373E-2,8.4548846E-2,6.778236E-2,-5.6387175E-2,2.9756308E-2,4.6757232E-2,8.32833E-3,2.4517061E-2,5.265827E-2,5.5098068E-2,7.070789E-2,-5.8979508E-2,2.0915749E-2,-2.2601953E-2,1.5803244E-2,-2.295436E-3,2.18707E-2,4.0925182E-2,2.413037E-2,2.136513E-2,-4.4706993E-2,3.184667E-2,4.846465E-2,-1.9792025E-3,4.5141168E-2,4.893985E-2,6.947782E-2,-3.1441674E-2,-8.799938E-3,2.3407565E-2,-2.4567684E-3,2.5112549E-2,5.230185E-2,1.8341674E-2,-8.755452E-3,-3.7730098E-2,8.4738685E-3,6.2576676E-4,4.1626133E-2,5.7079964E-3,-2.012989E-2,-2.868086E-2,-6.8552904E-2,-5.2449998E-2,-5.3726295E-3,-1.6598018E-2,2.3002429E-2,-6.530421E-2,-8.123751E-3,9.865328E-4,2.746958E-2,-4.0422412E-4,2.2959886E-2,4.2850878E-2,-2.7863544E-3,5.3252257E-2,3.0665487E-2,6.611522E-2,-1.2193869E-2,4.276743E-3,-2.0196911E-2,-9.303039E-3,-3.5654735E-2,-2.8222231E-2,7.147855E-2,-1.3411288E-2,-3.8861204E-2,8.224687E-3,5.014003E-2,-1.9584866E-2,-3.1936776E-2,6.144573E-2,-4.433418E-2,-3.6921203E-2,-2.1894376E-3,5.9948295E-2,-3.304944E-2,-5.7603274E-3,2.7729744E-2,4.380278E-2,1.758109E-2,1.1460251E-2,-1.9261926E-2,-3.4166917E-2,1.0837721E-1,-1.24700405E-2,1.2953366E-2,1.2321013E-2,-1.4344918E-2,-1.9719535E-2,2.2211066E-2,-4.5445163E-2,4.9985987E-3,-2.4079522E-2,-5.7084072E-2,-4.2244207E-2,-2.7993077E-2,-5.3635824E-2,2.0387834E-2,-5.883239E-2,-3.4738325E-2,-6.646086E-2,-9.162469E-3,-3.5063703E-2,-1.1815938E-2,-3.2701723E-2,9.845398E-3,6.438834E-2,-2.9457122E-2,-4.7956023E-2,-5.9269834E-2,-6.271397E-2,-5.1104862E-2,-4.209293E-2,1.3351363E-2,-2.261943E-2,-4.2798135E-2,3.8225275E-2,-2.6530504E-2,-4.4054497E-2,5.5918872E-2,-5.144624E-2,-1.338604E-2],"categories":[],"categories_nodes":[],"categories_segments":[],"categories_sizes":[],"default_left":[0,0,0,0,0,0,0,0,0,0,0,0,0,0,0,0,0,0,0,0,0,0,0,0,0,0,0,0,0,0,0,0,0,0,0,0,0,0,0,0,0,0,0,0,0,0,0,0,0,0,0,0,0,0,0,0,0,0,0,0,0,0,0,0,0,0,0,0,0,0,0,0,0,0,0,0,0,0,0,0,0,0,0,0,0,0,0,0,0,0,0,0,0,0,0,0,0,0,0,0,0,0,0,0,0,0,0,0,0,0,0,0,0,0,0,0,0,0,0,0,0,0,0,0,0,0,0,0,0,0,0,0,0,0,0,0,0,0,0,0,0,0,0,0,0,0,0,0,0,0,0,0,0,0,0,0,0,0,0,0,0,0,0,0,0,0,0,0,0,0,0,0,0,0,0,0,0,0,0,0,0,0,0,0,0,0,0,0,0,0,0,0,0,0,0,0,0,0,0,0,0,0,0,0,0,0,0,0,0,0,0,0,0,0,0,0,0,0,0,0,0,0,0,0,0,0,0,0,0,0,0,0,0,0,0,0,0,0,0,0,0,0,0,0,0,0,0,0,0,0,0,0,0],"id":3,"left_children":[1,3,5,7,9,11,13,15,17,19,21,23,25,27,29,31,33,35,37,39,41,43,45,47,49,51,53,55,57,59,61,63,65,67,69,71,73,75,77,79,81,83,85,87,89,91,93,95,97,99,101,103,105,107,109,111,113,115,117,119,121,123,125,-1,127,129,131,133,135,137,139,141,143,145,147,149,151,153,155,157,159,161,163,165,167,169,171,173,175,177,179,181,183,185,187,189,191,193,195,197,199,201,203,205,207,209,211,213,215,217,219,221,223,225,227,229,231,233,235,237,239,241,243,245,247,249,251,-1,-1,-1,-1,-1,-1,-1,-1,-1,-1,-1,-1,-1,-1,-1,-1,-1,-1,-1,-1,-1,-1,-1,-1,-1,-1,-1,-1,-1,-1,-1,-1,-1,-1,-1,-1,-1,-1,-1,-1,-1,-1,-1,-1,-1,-1,-1,-1,-1,-1,-1,-1,-1,-1,-1,-1,-1,-1,-1,-1,-1,-1,-1,-1,-1,-1,-1,-1,-1,-1,-1,-1,-1,-1,-1,-1,-1,-1,-1,-1,-1,-1,-1,-1,-1,-1,-1,-1,-1,-1,-1,-1,-1,-1,-1,-1,-1,-1,-1,-1,-1,-1,-1,-1,-1,-1,-1,-1,-1,-1,-1,-1,-1,-1,-1,-1,-1,-1,-1,-1,-1,-1,-1,-1,-1,-1],"loss_changes":[2.439383E4,4.2295615E3,2.7324775E3,1.0413408E3,6.5179333E2,6.067057E2,4.784248E2,2.5540625E2,5.0253857E2,2.9048056E2,3.8356897E2,1.8028564E2,2.9176874E2,1.9160205E2,1.05526855E2,6.859717E1,1.5159326E2,1.7052515E2,1.5532178E2,2.9052304E2,1.6592911E2,1.0028586E2,2.1238025E2,1.7979044E2,8.219824E1,2.0722505E2,7.531601E1,8.8726074E1,1.7764258E2,3.5358887E1,5.0461548E1,3.9880615E1,4.5229248E1,8.514575E1,6.4615234E1,4.7778343E1,1.2758069E2,7.138574E1,9.307764E1,8.864683E1,1.2781561E2,8.939919E1,6.62088E1,7.532557E1,9.3530655E1,1.1906366E2,9.214368E1,7.400035E1,6.761731E1,3.0978076E2,2.6661133E1,1.3684491E2,1.3292429E2,3.759485E1,6.0991547E1,6.6542725E1,4.415381E1,4.9860474E1,1.660403E2,3.405493E1,3.354663E1,2.9003235E1,2.7567627E1,0E0,3.0409668E1,2.410712E1,3.859424E1,3.2157745E1,6.301892E1,3.4708984E1,5.7492676E1,7.908224E1,4.1596672E1,6.1647713E1,1.0606775E2,4.4138756E1,5.908313E1,5.462393E1,5.806421E1,3.469837E1,6.459854E1,7.7865234E1,8.949187E1,1.2206662E2,1.7569458E2,4.7344482E1,2.5921646E1,5.4132843E1,5.09956E1,3.2302803E1,9.082367E1,8.271265E1,4.9130127E1,6.0830627E1,5.4261536E1,5.8441017E1,8.802562E1,3.4855312E1,3.5751984E1,5.3377815E1,8.513245E1,3.1872314E1,3.4470627E1,4.727092E1,8.83446E1,5.401306E1,9.688721E1,4.1703236E1,4.5615078E1,4.5034058E1,4.996768E1,5.5211365E1,3.7984375E1,5.7996338E1,2.1787964E1,3.790808E1,5.2150185E1,4.811499E1,1.02405945E2,3.3463947E1,2.5201904E1,2.0389893E1,2.0106339E1,3.646112E1,4.2640865E1,3.6289925E1,2.8064453E1,0E0,0E0,0E0,0E0,0E0,0E0,0E0,0E0,0E0,0E0,0E0,0E0,0E0,0E0,0E0,0E0,0E0,0E0,0E0,0E0,0E0,0E0,0E0,0E0,0E0,0E0,0E0,0E0,0E0,0E0,0E0,0E0,0E0,0E0,0E0,0E0,0E0,0E0,0E0,0E0,0E0,0E0,0E0,0E0,0E0,0E0,0E0,0E0,0E0,0E0,0E0,0E0,0E0,0E0,0E0,0E0,0E0,0E0,0E0,0E0,0E0,0E0,0E0,0E0,0E0,0E0,0E0,0E0,0E0,0E0,0E0,0E0,0E0,0E0,0E0,0E0,0E0,0E0,0E0,0E0,0E0,0E0,0E0,0E0,0E0,0E0,0E0,0E0,0E0,0E0,0E0,0E0,0E0,0E0,0E0,0E0,0E0,0E0,0E0,0E0,0E0,0E0,0E0,0E0,0E0,0E0,0E0,0E0,0E0,0E0,0E0,0E0,0E0,0E0,0E0,0E0,0E0,0E0,0E0,0E0,0E0,0E0,0E0,0E0,0E0,0E0],"parents":[2147483647,0,0,1,1,2,2,3,3,4,4,5,5,6,6,7,7,8,8,9,9,10,10,11,11,12,12,13,13,14,14,15,15,16,16,17,17,18,18,19,19,20,20,21,21,22,22,23,23,24,24,25,25,26,26,27,27,28,28,29,29,30,30,31,31,32,32,33,33,34,34,35,35,36,36,37,37,38,38,39,39,40,40,41,41,42,42,43,43,44,44,45,45,46,46,47,47,48,48,49,49,50,50,51,51,52,52,53,53,54,54,55,55,56,56,57,57,58,58,59,59,60,60,61,61,62,62,64,64,65,65,66,66,67,67,68,68,69,69,70,70,71,71,72,72,73,73,74,74,75,75,76,76,77,77,78,78,79,79,80,80,81,81,82,82,83,83,84,84,85,85,86,86,87,87,88,88,89,89,90,90,91,91,92,92,93,93,94,94,95,95,96,96,97,97,98,98,99,99,100,100,101,101,102,102,103,103,104,104,105,105,106,106,107,107,108,108,109,109,110,110,111,111,112,112,113,113,114,114,115,115,116,116,117,117,118,118,119,119,120,120,121,121,122,122,123,123,124,124,125,125,126,126],"right_children":[2,4,6,8,10,12,14,16,18,20,22,24,26,28,30,32,34,36,38,40,42,44,46,48,50,52,54,56,58,60,62,64,66,68,70,72,74,76,78,80,82,84,86,88,90,92,94,96,98,100,102,104,106,108,110,112,114,116,118,120,122,124,126,-1,128,130,132,134,136,138,140,142,144,146,148,150,152,154,156,158,160,162,164,166,168,170,172,174,176,178,180,182,184,186,188,190,192,194,196,198,200,202,204,206,208,210,212,214,216,218,220,222,224,226,228,230,232,234,236,238,240,242,244,246,248,250,252,-1,-1,-1,-1,-1,-1,-1,-1,-1,-1,-1,-1,-1,-1,-1,-1,-1,-1,-1,-1,-1,-1,-1,-1,-1,-1,-1,-1,-1,-1,-1,-1,-1,-1,-1,-1,-1,-1,-1,-1,-1,-1,-1,-1,-1,-1,-1,-1,-1,-1,-1,-1,-1,-1,-1,-1,-1,-1,-1,-1,-1,-1,-1,-1,-1,-1,-1,-1,-1,-1,-1,-1,-1,-1,-1,-1,-1,-1,-1,-1,-1,-1,-1,-1,-1,-1,-1,-1,-1,-1,-1,-1,-1,-1,-1,-1,-1,-1,-1,-1,-1,-1,-1,-1,-1,-1,-1,-1,-1,-1,-1,-1,-1,-1,-1,-1,-1,-1,-1,-1,-1,-1,-1,-1,-1,-1],"split_conditions":[-2.599969E-1,-8.254323E-1,2.908937E-1,-1.3112627E0,1.99987E-1,6.666243E-2,7.010504E-1,-1.8405492E0,1.9999242E-1,0E0,-1.2536183E-1,-8.812261E-2,1.2680028E-1,1.9999242E-1,1.9996507E-1,-7.1908104E-1,6.664973E-2,-9.3392506E-2,7.679504E-1,0E0,1.6355861E-2,-4.506972E-2,2.047965E-1,3.0812317E-1,1.5796752E0,-3.2356724E-1,-8.6812836E-1,-1.423098E-2,-1.2536183E-1,2.361879E0,9.5350754E-1,-8.651559E-1,-7.642272E-1,-1.0639703E0,-6.666667E-1,5E-3,-5.4058766E-1,-6.569768E-1,-2.3070988E-1,-6.7918557E-1,-6.184751E-1,-8.0407923E-1,3.45E-2,2.5203568E-1,-1.7504106E0,-7.617377E-2,7.999977E-1,-4.648477E-1,-1.1072056E0,-6.3438123E-1,2.0774176E0,-3.9363745E-1,-7.3977655E-1,-5.7345617E-1,-1.7672841E-1,0E0,1.7555261E0,2E0,1.9671315E-2,-8.2430214E-1,1E0,7.3784274E-1,-1.612396E0,-6.9498636E-2,4.166E-1,1.5E0,-3.8768709E0,-6.999417E-1,1.1186216E0,0E0,-1.2731096E-1,-6.8324345E-1,-5.50282E-4,-3.935185E-2,-2.4083197E-2,6.619325E-1,-3.498049E-2,0E0,-1.2536183E-1,-3.7816653E-1,-2.4034975E-1,3.3044738E-1,4.930994E-3,2.0774176E0,1.073693E0,-1.5925889E0,9E-4,-1.5271862E-1,-6.020085E-1,-6.178136E-1,0E0,-1.0863318E-2,1.2405445E-1,-2.3478888E-1,1.27E-2,1.8833402E-1,1.1281247E0,4.4444446E-2,0E0,-6.670168E-2,-5.0386816E-1,0E0,1E0,-1.4260328E0,1E0,-1.4285715E-1,6.3333335E0,8.072036E-1,-7.827039E-2,-2.2286423E-2,1.2217914E0,1.2392535E0,2.1E1,3.8569432E-1,5.5E0,-2.313629E0,0E0,7.999977E-1,0E0,-5.833333E-1,9E0,6.8002224E-1,1.6479299E0,-2.4575807E-1,1.9999242E-1,-1.67657E0,1.0280187E0,6.2420286E-2,-6.6340216E-2,-7.2565086E-2,5.3128373E-2,8.4548846E-2,6.778236E-2,-5.6387175E-2,2.9756308E-2,4.6757232E-2,8.32833E-3,2.4517061E-2,5.265827E-2,5.5098068E-2,7.070789E-2,-5.8979508E-2,2.0915749E-2,-2.2601953E-2,1.5803244E-2,-2.295436E-3,2.18707E-2,4.0925182E-2,2.413037E-2,2.136513E-2,-4.4706993E-2,3.184667E-2,4.846465E-2,-1.9792025E-3,4.5141168E-2,4.893985E-2,6.947782E-2,-3.1441674E-2,-8.799938E-3,2.3407565E-2,-2.4567684E-3,2.5112549E-2,5.230185E-2,1.8341674E-2,-8.755452E-3,-3.7730098E-2,8.4738685E-3,6.2576676E-4,4.1626133E-2,5.7079964E-3,-2.012989E-2,-2.868086E-2,-6.8552904E-2,-5.2449998E-2,-5.3726295E-3,-1.6598018E-2,2.3002429E-2,-6.530421E-2,-8.123751E-3,9.865328E-4,2.746958E-2,-4.0422412E-4,2.2959886E-2,4.2850878E-2,-2.7863544E-3,5.3252257E-2,3.0665487E-2,6.611522E-2,-1.2193869E-2,4.276743E-3,-2.0196911E-2,-9.303039E-3,-3.5654735E-2,-2.8222231E-2,7.147855E-2,-1.3411288E-2,-3.8861204E-2,8.224687E-3,5.014003E-2,-1.9584866E-2,-3.1936776E-2,6.144573E-2,-4.433418E-2,-3.6921203E-2,-2.1894376E-3,5.9948295E-2,-3.304944E-2,-5.7603274E-3,2.7729744E-2,4.380278E-2,1.758109E-2,1.1460251E-2,-1.9261926E-2,-3.4166917E-2,1.0837721E-1,-1.24700405E-2,1.2953366E-2,1.2321013E-2,-1.4344918E-2,-1.9719535E-2,2.2211066E-2,-4.5445163E-2,4.9985987E-3,-2.4079522E-2,-5.7084072E-2,-4.2244207E-2,-2.7993077E-2,-5.3635824E-2,2.0387834E-2,-5.883239E-2,-3.4738325E-2,-6.646086E-2,-9.162469E-3,-3.5063703E-2,-1.1815938E-2,-3.2701723E-2,9.845398E-3,6.438834E-2,-2.9457122E-2,-4.7956023E-2,-5.9269834E-2,-6.271397E-2,-5.1104862E-2,-4.209293E-2,1.3351363E-2,-2.261943E-2,-4.2798135E-2,3.8225275E-2,-2.6530504E-2,-4.4054497E-2,5.5918872E-2,-5.144624E-2,-1.338604E-2],"split_indices":[118,118,118,118,111,111,118,118,111,112,109,112,117,111,111,113,111,120,120,40,42,8,108,117,109,7,120,112,109,119,118,107,7,113,74,6,8,109,80,113,118,117,63,19,17,7,111,120,41,117,109,18,120,8,118,82,109,76,8,112,14,108,18,0,50,106,119,41,7,4,40,18,113,80,112,0,40,82,109,108,40,108,40,109,109,41,67,40,113,119,40,40,108,124,53,113,109,116,28,111,120,14,23,42,23,39,73,18,17,113,19,107,59,109,76,17,42,111,29,27,59,107,118,112,111,18,109,0,0,0,0,0,0,0,0,0,0,0,0,0,0,0,0,0,0,0,0,0,0,0,0,0,0,0,0,0,0,0,0,0,0,0,0,0,0,0,0,0,0,0,0,0,0,0,0,0,0,0,0,0,0,0,0,0,0,0,0,0,0,0,0,0,0,0,0,0,0,0,0,0,0,0,0,0,0,0,0,0,0,0,0,0,0,0,0,0,0,0,0,0,0,0,0,0,0,0,0,0,0,0,0,0,0,0,0,0,0,0,0,0,0,0,0,0,0,0,0,0,0,0,0,0,0],"split_type":[0,0,0,0,0,0,0,0,0,0,0,0,0,0,0,0,0,0,0,0,0,0,0,0,0,0,0,0,0,0,0,0,0,0,0,0,0,0,0,0,0,0,0,0,0,0,0,0,0,0,0,0,0,0,0,0,0,0,0,0,0,0,0,0,0,0,0,0,0,0,0,0,0,0,0,0,0,0,0,0,0,0,0,0,0,0,0,0,0,0,0,0,0,0,0,0,0,0,0,0,0,0,0,0,0,0,0,0,0,0,0,0,0,0,0,0,0,0,0,0,0,0,0,0,0,0,0,0,0,0,0,0,0,0,0,0,0,0,0,0,0,0,0,0,0,0,0,0,0,0,0,0,0,0,0,0,0,0,0,0,0,0,0,0,0,0,0,0,0,0,0,0,0,0,0,0,0,0,0,0,0,0,0,0,0,0,0,0,0,0,0,0,0,0,0,0,0,0,0,0,0,0,0,0,0,0,0,0,0,0,0,0,0,0,0,0,0,0,0,0,0,0,0,0,0,0,0,0,0,0,0,0,0,0,0,0,0,0,0,0,0,0,0,0,0,0,0,0,0,0,0,0,0],"sum_hessian":[7.978178E4,3.7582332E4,4.219945E4,1.869816E4,1.8884172E4,2.1052594E4,2.1146854E4,8.1582134E3,1.0539947E4,1.10399E4,7.8442715E3,1.1786833E4,9.265761E3,1.2833532E4,8.313321E3,2.598379E3,5.5598345E3,5.837653E3,4.7022944E3,5.3843853E3,5.655515E3,3.2975757E3,4.546696E3,4.505779E3,7.281054E3,4.498823E3,4.766937E3,8.488231E3,4.345301E3,5.5736284E3,2.7396926E3,9.57668E2,1.6407108E3,2.5438784E3,3.015956E3,7.4210486E2,5.0955483E3,2.5181943E3,2.1841E3,1.8856647E3,3.4987207E3,4.358207E3,1.2973081E3,1.4085956E3,1.88898E3,2.6555266E3,1.8911692E3,3.4848096E3,1.0209692E3,6.113809E3,1.1672454E3,1.8519694E3,2.646854E3,8.805935E2,3.8863438E3,2.8962866E3,5.591945E3,2.4081548E3,1.9371461E3,3.3651667E3,2.2084617E3,1.5413188E3,1.1983738E3,5.034479E0,9.5263354E2,1.3315699E1,1.6273951E3,4.4414593E1,2.4994639E3,5.510899E2,2.464866E3,4.0823776E2,3.3386713E2,1.2980118E3,3.7975361E3,2.758259E2,2.2423684E3,5.478617E2,1.6362384E3,7.3847784E2,1.1471869E3,1.1812073E3,2.3175134E3,5.785431E2,3.779664E3,1.1302975E3,1.6701068E2,8.9753186E2,5.1106375E2,1.5809435E2,1.7308856E3,1.8466324E3,8.088941E2,1.3546578E3,5.3651135E2,1.5978859E3,1.8869238E3,3.5784122E1,9.8518506E2,3.4927127E2,5.7645376E3,8.2402704E2,3.4321832E2,4.9841333E2,1.353556E3,7.891854E2,1.8576687E3,1.0775521E2,7.7283826E2,6.337105E2,3.2526333E3,8.785338E2,2.0177528E3,4.828533E3,7.634118E2,2.0529983E3,3.5515637E2,1.0152409E3,9.219052E2,6.0212032E1,3.3049546E3,2.030966E3,1.774958E2,1.247949E3,2.933699E2,3.620634E1,1.1621675E3,9.4879315E2,3.8404217E0,6.924194E0,6.3915052E0,1.0752639E3,5.521312E2,2.7873146E1,1.6541447E1,2.3872874E3,1.1217631E2,1.5522942E2,3.9586047E2,1.0747501E3,1.390116E3,3.2787613E1,3.7545016E2,2.3396698E2,9.990014E1,3.6806085E2,9.29951E2,2.0482136E3,1.7493228E3,2.486401E2,2.7185795E1,9.097571E2,1.3326115E3,7.048445E1,4.7737726E2,5.1522034E2,1.1210181E3,2.6261642E2,4.7586142E2,3.440703E2,8.031166E2,7.8176807E2,3.9943927E2,1.9572815E3,3.6023196E2,3.2373663E2,2.5480649E2,3.4982798E3,2.8138434E2,2.1962395E2,9.106735E2,8.401588E1,8.29948E1,6.4930244E1,8.326016E2,1.0053878E2,4.1052496E2,2.969764E1,1.283967E2,4.3112305E2,1.2997626E3,5.319074E2,1.3147251E3,7.449876E2,6.3906494E1,4.4964316E2,9.050147E2,5.136957E2,2.2815691E1,1.2985957E3,2.9929022E2,1.4845609E3,4.023629E2,1.3284512E1,2.2499613E1,1.6764905E2,8.17536E2,2.384628E2,1.10808464E2,2.39047E3,3.3740676E3,6.3550863E0,8.1767194E2,2.4181252E2,1.01405815E2,1.3172954E1,4.852404E2,1.1154672E3,2.3808891E2,3.9883603E2,3.9034943E2,1.5511448E3,3.0652383E2,1.0331828E2,4.4369283E0,2.7080502E2,5.0203326E2,2.9746683E2,3.362437E2,3.18075E3,7.1883316E1,8.206563E2,5.7877476E1,1.9267883E3,9.096457E1,3.9464426E3,8.8209076E2,7.538187E2,9.593043E0,1.8064923E2,1.8723491E3,4.462145E1,3.105349E2,6.833237E2,3.319172E2,1.7331459E2,7.4859064E2,1.0725092E1,4.9486942E1,2.6729172E3,6.3203754E2,1.4746437E3,5.5632227E2,1.5975676E2,1.7739052E1,2.978693E2,9.500797E2,2.7216503E1,2.661534E2,2.2347582E1,1.3858759E1,1.1106559E3,5.151162E1],"tree_param":{"num_deleted":"0","num_feature":"125","num_nodes":"253","size_leaf_vector":"1"}},{"base_weights":[-1.387675E-2,6.380833E-1,-4.289576E-1,9.7071016E-1,4.0998855E-1,-1.7355862E-1,-7.541962E-1,1.2153697E0,8.240954E-1,2.488208E-1,6.2327814E-1,-3.3036378E-1,1.8055428E-2,-6.259526E-1,-9.358605E-1,1.4119211E0,1.0900025E0,5.260198E-1,9.037044E-1,3.5320592E-1,2.939376E-2,3.5923946E-1,7.913817E-1,-5.831196E-1,-2.3656856E-1,-1.8144436E-1,2.136926E-1,-4.3620968E-1,-7.313292E-1,-1.013909E0,-7.908925E-1,8.4693277E-1,1.4771837E0,9.4756067E-1,1.30025E0,-2.7362275E-1,5.779042E-1,8.102759E-1,1.1257408E0,2.1710724E-1,5.62727E-1,-5.023269E-1,7.5575344E-2,3.6485862E-2,4.6130595E-1,5.949963E-1,9.4737965E-1,-4.5900354E-1,-8.366241E-1,-2.1029957E-2,-3.8553903E-1,5.891062E-2,-2.532909E-1,-2.9412357E-2,3.7965828E-1,-5.489667E-1,-1.425159E-1,-9.6070206E-1,-6.6273564E-1,-9.741531E-1,-1.2475263E0,-8.296407E-1,-3.4072524E-1,1.0469308E0,-1.5978992E-1,1.5097558E0,8.0957526E-1,1.1000205E0,7.379826E-1,6.522264E-1,1.3426346E0,-6.8551224E-1,8.137222E-1,7.93746E-1,3.5596174E-1,5.8759445E-1,8.920149E-1,8.0778116E-1,1.229353E0,-7.0925295E-2,3.2101357E-1,6.828555E-1,1.6664566E-1,5.69306E-1,-6.184023E-1,-2.024503E-1,1.7547077E-1,-1.8771799E-1,3.604465E-1,3.3563784E-1,7.3227936E-1,-2.5473812E-1,6.42142E-1,6.338799E-1,1.057048E0,-7.176969E-1,-3.3421734E-1,-8.612911E-1,3.83003E-1,-3.8887495E-1,9.221784E-2,-7.463445E-1,-3.2608277E-1,-7.531458E-1,1.2552229E-1,-1.4968616E-1,-3.839597E-1,-3.9786693E-1,1.0576796E-1,-8.860466E-2,5.047338E-1,-7.9338396E-1,-4.392867E-1,2.6580927E-1,-3.197301E-1,-9.6625E-1,7.1392626E-2,-5.286063E-1,-7.5668615E-1,-1.0885493E0,-9.0686595E-1,9.439512E-2,-1.254691E0,-7.547094E-1,-1.0252979E0,-5.7350314E-1,3.9689338E-1,-7.1655475E-2,5.70528E-2,-3.8367778E-2,4.331503E-2,-3.05203E-2,7.5936124E-2,-5.686061E-4,6.922723E-2,5.945563E-2,4.0096637E-2,3.0539235E-2,6.172366E-2,-4.468596E-2,4.3515313E-2,6.0610693E-2,7.872E-2,3.1963538E-3,-5.86733E-2,6.879078E-2,-3.4944277E-2,-3.0636946E-2,4.2544156E-2,2.3266168E-3,2.9935796E-2,-1.1102106E-2,3.2649897E-2,5.2495282E-2,3.6608513E-2,4.304177E-2,-3.7787516E-2,5.0564356E-2,6.946124E-2,1.1395908E-2,-1.769457E-2,5.7650465E-3,2.526022E-2,3.7909262E-2,1.3423599E-2,-2.6344089E-2,1.34777175E-2,7.546348E-2,-4.3025605E-2,-3.924173E-2,1.8131524E-2,1.3755523E-2,-1.6442528E-2,8.0139417E-4,2.1779967E-2,-4.4153728E-2,-8.390127E-5,5.0137855E-2,6.1587268E-3,6.590207E-3,2.7968422E-2,4.60789E-2,2.0346519E-2,-3.2504823E-2,3.9678026E-2,1.1387133E-2,3.768962E-2,-7.3799804E-2,3.3179913E-2,5.6277405E-2,2.1399634E-2,-4.9349707E-2,-2.3613015E-2,-2.340594E-2,-5.337608E-3,-1.7073946E-2,-4.617623E-2,4.8367217E-2,-6.4785205E-2,-1.4216431E-3,-2.7722975E-2,-1.11271115E-2,8.643657E-3,-2.0885015E-2,-4.518081E-2,2.008651E-2,-1.9402301E-2,-5.9591737E-2,-7.061758E-3,-2.9182925E-3,1.9962175E-2,-2.840359E-2,-5.262015E-3,2.0794287E-2,-2.0418003E-2,-3.0887125E-2,-1.0450825E-3,-1.0382314E-4,2.8411001E-2,-1.2556113E-2,1.5921412E-2,1.6512329E-2,3.885244E-2,-5.2960128E-2,-3.2687772E-2,-2.483118E-2,4.6588625E-3,-2.7953268E-3,4.1087408E-2,-8.5995495E-3,-3.037802E-2,-4.024E-2,-5.1830776E-2,-2.8939134E-2,-8.014529E-3,-4.309551E-2,-3.0069921E-2,-3.1484142E-2,-5.7318103E-2,-4.2738054E-2,-5.6677062E-2,-2.297546E-2,-6.430405E-2,-3.5830904E-2,-6.081737E-2,-4.7407635E-2,-6.782021E-2,3.7317093E-2,-3.520576E-2,-6.8562746E-2,4.5003727E-2],"categories":[],"categories_nodes":[],"categories_segments":[],"categories_sizes":[],"default_left":[0,0,0,0,0,0,0,0,0,0,0,0,0,0,0,0,0,0,0,0,0,0,0,0,0,0,0,0,0,0,0,0,0,0,0,0,0,0,0,0,0,0,0,0,0,0,0,0,0,0,0,0,0,0,0,0,0,0,0,0,0,0,0,0,0,0,0,0,0,0,0,0,0,0,0,0,0,0,0,0,0,0,0,0,0,0,0,0,0,0,0,0,0,0,0,0,0,0,0,0,0,0,0,0,0,0,0,0,0,0,0,0,0,0,0,0,0,0,0,0,0,0,0,0,0,0,0,0,0,0,0,0,0,0,0,0,0,0,0,0,0,0,0,0,0,0,0,0,0,0,0,0,0,0,0,0,0,0,0,0,0,0,0,0,0,0,0,0,0,0,0,0,0,0,0,0,0,0,0,0,0,0,0,0,0,0,0,0,0,0,0,0,0,0,0,0,0,0,0,0,0,0,0,0,0,0,0,0,0,0,0,0,0,0,0,0,0,0,0,0,0,0,0,0,0,0,0,0,0,0,0,0,0,0,0,0,0,0,0,0,0,0,0,0,0,0,0,0,0,0,0],"id":4,"left_children":[1,3,5,7,9,11,13,15,17,19,21,23,25,27,29,31,33,35,37,39,41,43,45,47,49,51,53,55,57,59,61,63,65,67,69,71,73,75,77,79,81,83,85,87,89,91,93,95,97,99,101,103,105,107,109,111,113,115,117,119,121,123,125,127,129,131,133,135,137,139,141,143,145,147,149,151,153,155,157,159,161,163,165,167,169,171,173,175,177,179,181,183,185,187,189,191,193,195,197,199,201,203,205,207,209,211,213,215,217,219,221,223,225,227,229,231,-1,233,235,237,239,-1,241,243,245,247,249,-1,-1,-1,-1,-1,-1,-1,-1,-1,-1,-1,-1,-1,-1,-1,-1,-1,-1,-1,-1,-1,-1,-1,-1,-1,-1,-1,-1,-1,-1,-1,-1,-1,-1,-1,-1,-1,-1,-1,-1,-1,-1,-1,-1,-1,-1,-1,-1,-1,-1,-1,-1,-1,-1,-1,-1,-1,-1,-1,-1,-1,-1,-1,-1,-1,-1,-1,-1,-1,-1,-1,-1,-1,-1,-1,-1,-1,-1,-1,-1,-1,-1,-1,-1,-1,-1,-1,-1,-1,-1,-1,-1,-1,-1,-1,-1,-1,-1,-1,-1,-1,-1,-1,-1,-1,-1,-1,-1,-1,-1,-1,-1,-1,-1,-1,-1,-1,-1,-1,-1,-1,-1,-1,-1],"loss_changes":[2.1556998E4,2.3506377E3,4.042795E3,4.511338E2,6.317986E2,8.1918665E2,4.9816992E2,1.1479053E2,1.8662305E2,2.3987427E2,3.5088867E2,3.553302E2,4.7897498E2,2.5065723E2,9.9410645E1,6.641504E1,8.522339E1,6.920938E1,1.2814551E2,2.0224811E2,8.296799E1,1.0143027E2,1.4750757E2,1.2728125E2,3.5118402E2,1.0494142E2,2.5000137E2,1.4842926E2,1.2631494E2,5.2223633E1,5.3864624E1,3.890007E1,3.4522217E1,5.4293213E1,3.1073608E1,4.627948E1,7.4603516E1,7.924243E1,5.9622803E1,1.2883054E2,1.328255E2,3.3938995E1,8.63613E1,5.3886665E1,7.942279E1,8.59892E1,9.188135E1,8.776251E1,4.0414795E1,1.862912E2,1.3849707E2,7.577529E1,6.32731E1,1.252952E2,2.1570831E2,8.650922E1,9.0205025E1,2.5964722E1,7.7913086E1,3.6895996E1,2.1086182E1,4.1119263E1,4.2760677E1,3.9129852E1,2.1082172E1,3.0700684E1,3.712763E1,2.5505615E1,4.530301E1,2.5508974E1,3.106543E1,2.7349648E1,2.5196533E1,6.4144226E1,5.8001747E1,6.260971E1,8.00874E1,3.840442E1,4.690796E1,9.663504E1,1.1979108E2,6.670538E1,4.6640743E1,3.746403E1,4.0140762E1,4.9712715E1,9.485424E1,5.6733006E1,4.6116135E1,7.2900055E1,4.5224792E1,4.7486614E1,9.375305E1,4.487967E1,8.538843E1,5.8108734E1,5.601967E1,4.194287E1,2.7842623E1,6.281169E1,8.684758E1,4.687433E1,2.5063904E2,2.8342087E1,6.515018E1,4.8490463E1,4.053308E1,5.5950233E1,9.17943E1,5.1483173E1,1.3783252E2,3.6510376E1,6.839307E1,6.755891E1,3.6846466E1,2.020044E1,0E0,4.727765E1,5.9161133E1,4.75E1,3.5702393E1,0E0,2.0173706E1,3.552771E1,1.885492E1,3.30555E1,5.4627514E1,0E0,0E0,0E0,0E0,0E0,0E0,0E0,0E0,0E0,0E0,0E0,0E0,0E0,0E0,0E0,0E0,0E0,0E0,0E0,0E0,0E0,0E0,0E0,0E0,0E0,0E0,0E0,0E0,0E0,0E0,0E0,0E0,0E0,0E0,0E0,0E0,0E0,0E0,0E0,0E0,0E0,0E0,0E0,0E0,0E0,0E0,0E0,0E0,0E0,0E0,0E0,0E0,0E0,0E0,0E0,0E0,0E0,0E0,0E0,0E0,0E0,0E0,0E0,0E0,0E0,0E0,0E0,0E0,0E0,0E0,0E0,0E0,0E0,0E0,0E0,0E0,0E0,0E0,0E0,0E0,0E0,0E0,0E0,0E0,0E0,0E0,0E0,0E0,0E0,0E0,0E0,0E0,0E0,0E0,0E0,0E0,0E0,0E0,0E0,0E0,0E0,0E0,0E0,0E0,0E0,0E0,0E0,0E0,0E0,0E0,0E0,0E0,0E0,0E0,0E0,0E0,0E0,0E0,0E0,0E0,0E0,0E0,0E0,0E0],"parents":[2147483647,0,0,1,1,2,2,3,3,4,4,5,5,6,6,7,7,8,8,9,9,10,10,11,11,12,12,13,13,14,14,15,15,16,16,17,17,18,18,19,19,20,20,21,21,22,22,23,23,24,24,25,25,26,26,27,27,28,28,29,29,30,30,31,31,32,32,33,33,34,34,35,35,36,36,37,37,38,38,39,39,40,40,41,41,42,42,43,43,44,44,45,45,46,46,47,47,48,48,49,49,50,50,51,51,52,52,53,53,54,54,55,55,56,56,57,57,58,58,59,59,60,60,61,61,62,62,63,63,64,64,65,65,66,66,67,67,68,68,69,69,70,70,71,71,72,72,73,73,74,74,75,75,76,76,77,77,78,78,79,79,80,80,81,81,82,82,83,83,84,84,85,85,86,86,87,87,88,88,89,89,90,90,91,91,92,92,93,93,94,94,95,95,96,96,97,97,98,98,99,99,100,100,101,101,102,102,103,103,104,104,105,105,106,106,107,107,108,108,109,109,110,110,111,111,112,112,113,113,114,114,115,115,117,117,118,118,119,119,120,120,122,122,123,123,124,124,125,125,126,126],"right_children":[2,4,6,8,10,12,14,16,18,20,22,24,26,28,30,32,34,36,38,40,42,44,46,48,50,52,54,56,58,60,62,64,66,68,70,72,74,76,78,80,82,84,86,88,90,92,94,96,98,100,102,104,106,108,110,112,114,116,118,120,122,124,126,128,130,132,134,136,138,140,142,144,146,148,150,152,154,156,158,160,162,164,166,168,170,172,174,176,178,180,182,184,186,188,190,192,194,196,198,200,202,204,206,208,210,212,214,216,218,220,222,224,226,228,230,232,-1,234,236,238,240,-1,242,244,246,248,250,-1,-1,-1,-1,-1,-1,-1,-1,-1,-1,-1,-1,-1,-1,-1,-1,-1,-1,-1,-1,-1,-1,-1,-1,-1,-1,-1,-1,-1,-1,-1,-1,-1,-1,-1,-1,-1,-1,-1,-1,-1,-1,-1,-1,-1,-1,-1,-1,-1,-1,-1,-1,-1,-1,-1,-1,-1,-1,-1,-1,-1,-1,-1,-1,-1,-1,-1,-1,-1,-1,-1,-1,-1,-1,-1,-1,-1,-1,-1,-1,-1,-1,-1,-1,-1,-1,-1,-1,-1,-1,-1,-1,-1,-1,-1,-1,-1,-1,-1,-1,-1,-1,-1,-1,-1,-1,-1,-1,-1,-1,-1,-1,-1,-1,-1,-1,-1,-1,-1,-1,-1,-1,-1,-1],"split_conditions":[-4.4871166E-1,-1.0701395E0,2.7716222E-1,-1.583194E0,1.99987E-1,6.666243E-2,6.684858E-1,-4.0918994E0,-5E-1,-6.184751E-1,-1.2536183E-1,-5E-1,-1.2536183E-1,0E0,1.333374E-1,-5.7933164E-1,3.9998206E-1,-8.687749E-1,4.666576E-1,0E0,-4.16E-2,0E0,-1.906954E-1,5.9391487E-2,-2.1893815E-3,-4.0448824E-1,-3.2356724E-1,5.435299E-1,-1E0,1.7555261E0,8.117608E-1,3.3842525E-1,1.1281247E0,6.4011556E-1,-1.0065682E0,1.55E-2,-4.243874E-2,-4.7011954E-1,-1.2536183E-1,-5E-1,5.3281057E-1,-6.221568E-1,-1.701399E-2,2.3007968E-1,1E0,-7.7864903E-1,-9.029809E-2,-3.9225498E-1,2E0,-1.2536183E-1,-8.4997785E-1,-8.2721037E-1,-2.1997798E-2,-3.9363745E-1,-5E-1,-1E0,1.0204081E-2,7.917E-1,4.1587448E-1,0E0,-2.5E0,1.0516602E0,-1.8145333E-1,-4.16E-2,1E0,-8.6819607E-1,6.7778206E-1,4.5679012E-1,6.974431E-1,-5E-1,-4.1147023E-2,-1.25E0,7.05E-2,-5.833333E-1,5.643314E-1,-9.5457035E-1,-1.2796503E0,5.46E-2,-4.1147023E-2,4.9002615E-1,2.4083197E-2,7.7285165E-1,-5.376146E-1,-9.4153695E-2,6.9988114E-1,1.23125605E-1,1E0,-1.25E0,5.2040815E-1,-2.2231394E-1,-6.517588E-1,-3.2680035E-1,-5E-1,-7.721486E-1,6.6047597E-1,-5.502988E-1,1E0,-1.1203704E0,1E0,-2.1823694E-1,-5.958833E-1,-9.233986E-1,-6.3438123E-1,1.2233167E0,1E0,-9.984568E-1,-1.5E0,7.333144E-1,1E0,5.051998E-1,2.8899837E-1,-1.5005817E-1,1E0,1E0,1E0,-3.9022833E-1,7.1392626E-2,1E0,1.3333677E-1,5.0647534E-2,1.3858145E0,9.439512E-2,-1.0105504E0,2.420976E0,2.04E-2,-2.8861523E0,-6.666667E-1,-7.1655475E-2,5.70528E-2,-3.8367778E-2,4.331503E-2,-3.05203E-2,7.5936124E-2,-5.686061E-4,6.922723E-2,5.945563E-2,4.0096637E-2,3.0539235E-2,6.172366E-2,-4.468596E-2,4.3515313E-2,6.0610693E-2,7.872E-2,3.1963538E-3,-5.86733E-2,6.879078E-2,-3.4944277E-2,-3.0636946E-2,4.2544156E-2,2.3266168E-3,2.9935796E-2,-1.1102106E-2,3.2649897E-2,5.2495282E-2,3.6608513E-2,4.304177E-2,-3.7787516E-2,5.0564356E-2,6.946124E-2,1.1395908E-2,-1.769457E-2,5.7650465E-3,2.526022E-2,3.7909262E-2,1.3423599E-2,-2.6344089E-2,1.34777175E-2,7.546348E-2,-4.3025605E-2,-3.924173E-2,1.8131524E-2,1.3755523E-2,-1.6442528E-2,8.0139417E-4,2.1779967E-2,-4.4153728E-2,-8.390127E-5,5.0137855E-2,6.1587268E-3,6.590207E-3,2.7968422E-2,4.60789E-2,2.0346519E-2,-3.2504823E-2,3.9678026E-2,1.1387133E-2,3.768962E-2,-7.3799804E-2,3.3179913E-2,5.6277405E-2,2.1399634E-2,-4.9349707E-2,-2.3613015E-2,-2.340594E-2,-5.337608E-3,-1.7073946E-2,-4.617623E-2,4.8367217E-2,-6.4785205E-2,-1.4216431E-3,-2.7722975E-2,-1.11271115E-2,8.643657E-3,-2.0885015E-2,-4.518081E-2,2.008651E-2,-1.9402301E-2,-5.9591737E-2,-7.061758E-3,-2.9182925E-3,1.9962175E-2,-2.840359E-2,-5.262015E-3,2.0794287E-2,-2.0418003E-2,-3.0887125E-2,-1.0450825E-3,-1.0382314E-4,2.8411001E-2,-1.2556113E-2,1.5921412E-2,1.6512329E-2,3.885244E-2,-5.2960128E-2,-3.2687772E-2,-2.483118E-2,4.6588625E-3,-2.7953268E-3,4.1087408E-2,-8.5995495E-3,-3.037802E-2,-4.024E-2,-5.1830776E-2,-2.8939134E-2,-8.014529E-3,-4.309551E-2,-3.0069921E-2,-3.1484142E-2,-5.7318103E-2,-4.2738054E-2,-5.6677062E-2,-2.297546E-2,-6.430405E-2,-3.5830904E-2,-6.081737E-2,-4.7407635E-2,-6.782021E-2,3.7317093E-2,-3.520576E-2,-6.8562746E-2,4.5003727E-2],"split_indices":[118,118,118,118,111,111,118,119,12,118,109,12,109,112,111,7,111,8,111,119,51,40,107,118,112,112,7,108,12,109,109,15,109,16,17,54,124,8,109,12,113,120,40,8,2,16,40,108,77,109,117,109,118,18,12,12,9,51,118,82,32,118,115,51,77,109,19,80,108,12,40,11,54,27,120,17,118,52,40,16,17,112,115,124,18,16,2,11,9,16,118,7,12,120,113,8,2,80,3,118,115,117,117,7,2,80,32,111,23,17,17,19,29,2,3,120,0,77,111,41,7,0,117,124,46,17,74,0,0,0,0,0,0,0,0,0,0,0,0,0,0,0,0,0,0,0,0,0,0,0,0,0,0,0,0,0,0,0,0,0,0,0,0,0,0,0,0,0,0,0,0,0,0,0,0,0,0,0,0,0,0,0,0,0,0,0,0,0,0,0,0,0,0,0,0,0,0,0,0,0,0,0,0,0,0,0,0,0,0,0,0,0,0,0,0,0,0,0,0,0,0,0,0,0,0,0,0,0,0,0,0,0,0,0,0,0,0,0,0,0,0,0,0,0,0,0,0,0,0,0,0],"split_type":[0,0,0,0,0,0,0,0,0,0,0,0,0,0,0,0,0,0,0,0,0,0,0,0,0,0,0,0,0,0,0,0,0,0,0,0,0,0,0,0,0,0,0,0,0,0,0,0,0,0,0,0,0,0,0,0,0,0,0,0,0,0,0,0,0,0,0,0,0,0,0,0,0,0,0,0,0,0,0,0,0,0,0,0,0,0,0,0,0,0,0,0,0,0,0,0,0,0,0,0,0,0,0,0,0,0,0,0,0,0,0,0,0,0,0,0,0,0,0,0,0,0,0,0,0,0,0,0,0,0,0,0,0,0,0,0,0,0,0,0,0,0,0,0,0,0,0,0,0,0,0,0,0,0,0,0,0,0,0,0,0,0,0,0,0,0,0,0,0,0,0,0,0,0,0,0,0,0,0,0,0,0,0,0,0,0,0,0,0,0,0,0,0,0,0,0,0,0,0,0,0,0,0,0,0,0,0,0,0,0,0,0,0,0,0,0,0,0,0,0,0,0,0,0,0,0,0,0,0,0,0,0,0,0,0,0,0,0,0,0,0,0,0,0,0,0,0,0,0,0,0],"sum_hessian":[7.965695E4,3.098649E4,4.867046E4,1.2603604E4,1.8382887E4,2.7263154E4,2.1407307E4,4.7199756E3,7.883628E3,1.0472062E4,7.910825E3,1.4993044E4,1.227011E4,1.255131E4,8.855996E3,1.8341388E3,2.885837E3,1.6633269E3,6.2203013E3,7.095841E3,3.3762202E3,3.0785364E3,4.8322886E3,4.0565073E3,1.0936536E4,6.0751187E3,6.1949917E3,4.483457E3,8.067853E3,5.752791E3,3.1032056E3,1.9137256E2,1.6427662E3,1.7236074E3,1.1622295E3,1.0108784E2,1.5622391E3,4.3813613E3,1.8389398E3,4.302864E3,2.792977E3,2.6901273E2,3.1072075E3,7.399695E2,2.338567E3,2.1413552E3,2.6909336E3,2.7251045E3,1.331403E3,4.470097E3,6.466439E3,1.3981005E3,4.677018E3,2.5137288E3,3.6812632E3,3.2390344E3,1.2444224E3,1.8542706E3,6.213582E3,4.9205977E3,8.3219354E2,2.85649E3,2.467154E2,1.5962177E2,3.1750795E1,1.5651426E3,7.762362E1,9.9531E2,7.282975E2,7.235584E1,1.0898737E3,7.358368E1,2.7504158E1,7.906986E2,7.715405E2,1.1786245E3,3.2027368E3,4.541293E2,1.3848105E3,1.14081E3,3.1620537E3,2.1424607E3,6.505163E2,2.590916E1,2.4310356E2,8.2105316E2,2.2861545E3,4.3756433E2,3.0240515E2,1.5991672E3,7.393998E2,1.123317E2,2.0290234E3,6.9914014E2,1.9917933E3,8.852167E2,1.8398877E3,1.305297E3,2.610592E1,1.0516746E3,3.4184226E3,9.132009E2,5.5532383E3,1.05208405E2,1.2928921E3,2.6098586E3,2.0671594E3,6.741867E2,1.839542E3,7.760703E2,2.9051929E3,1.00134515E3,2.2376895E3,3.7647464E2,8.679477E2,1.8505677E3,3.702868E0,2.562224E3,3.6513582E3,1.8167428E3,3.1038547E3,1.298848E0,8.308947E2,2.0689841E3,7.8750586E2,1.8770264E2,5.9012756E1,5.316454E0,1.5430531E2,2.010088E1,1.1649917E1,6.308977E0,1.5588336E3,3.2376427E1,4.524719E1,7.639827E2,2.3132727E2,5.815406E2,1.4675691E2,8.562074E0,6.379377E1,7.014046E2,3.8846902E2,2.9359674E1,4.4224003E1,2.0118464E1,7.385696E0,3.0487797E1,7.602108E2,3.39713E2,4.3182748E2,8.791543E1,1.0907091E3,1.6084148E3,1.594322E3,4.3966003E2,1.4469244E1,5.8888904E2,7.959215E2,5.5493353E2,5.858765E2,1.4945258E3,1.667528E3,1.8121964E3,3.3026428E2,8.3521835E1,5.6699445E2,1.5598879E1,1.0310283E1,2.0801396E2,3.5089607E1,1.7158824E2,6.494649E2,1.4180427E3,8.6811176E2,9.1567665E1,3.4599667E2,8.0705086E1,2.2170004E2,8.3762415E2,7.61543E2,4.6627383E2,2.7312598E2,8.18445E1,3.0487206E1,4.3129126E2,1.5977322E3,9.034896E0,6.901052E2,1.7954869E3,1.9630641E2,4.206505E2,4.6456616E2,1.1574663E3,6.824214E2,1.4025848E2,1.1650386E3,1.9679453E1,6.4264674E0,3.3141873E2,7.202558E2,6.969178E2,2.721505E3,2.9675015E2,6.164508E2,4.3525864E2,5.1179795E3,6.0725536E1,4.4482872E1,7.738201E2,5.1907196E2,2.494942E2,2.3603645E3,6.071963E1,2.0064398E3,4.254136E2,2.4877309E2,1.4924875E3,3.470545E2,5.5489734E2,2.2117297E2,1.7719922E3,1.1332006E3,3.425768E2,6.587684E2,2.0202155E3,2.1747389E2,2.3904266E2,1.3743196E2,5.7460754E2,2.9334012E2,5.654986E2,1.2850692E3,2.2545154E3,3.0770874E2,2.1738154E3,1.4775427E3,2.0461165E2,1.6121311E3,2.527614E3,5.762407E2,3.214799E1,7.987467E2,1.9136357E3,1.5534848E2,6.418285E2,1.4567737E2,1.6477901E1,1.7122475E2,1.2691259E1,4.63215E1],"tree_param":{"num_deleted":"0","num_feature":"125","num_nodes":"251","size_leaf_vector":"1"}},{"base_weights":[-1.4299212E-2,5.115648E-1,-4.952837E-1,8.317182E-1,2.1483833E-1,-2.7762476E-1,-7.89893E-1,1.1492487E0,7.188925E-1,3.8149044E-2,3.907392E-1,-4.285992E-1,-8.819337E-2,-6.727602E-1,-9.3151754E-1,1.34533E0,1.0186985E0,5.6308883E-1,9.014668E-1,-2.5713283E-1,1.3692312E-1,2.176758E-1,6.0681796E-1,-6.616859E-1,-3.3881417E-1,-2.1625015E-1,1.415071E-1,-7.6382077E-1,-4.928526E-1,-1.0118117E0,-7.87882E-1,8.9538026E-1,1.3946542E0,8.7778807E-1,1.2274843E0,7.2274786E-1,4.4246647E-1,6.8216676E-1,1.0128987E0,-1.9814389E-2,-3.882361E-1,-4.1922472E-2,3.3404815E-1,5.4734092E-2,3.6239132E-1,3.041403E-1,7.488037E-1,-7.957599E-1,-5.086455E-1,-5.934174E-1,-2.4632137E-1,-1.6643375E-2,-3.9287326E-1,4.0161523E-1,-8.418638E-2,-1.0116234E0,-6.882026E-1,-7.830676E-1,-3.9848614E-1,-9.7607595E-1,-1.2163706E0,1.670785E-1,-8.0089414E-1,1.0026114E0,-2.1447076E-1,-6.310077E-1,1.4027513E0,1.3257895E-1,9.2027724E-1,1.2653208E0,4.374129E-1,7.8345054E-1,3.5202128E-1,2.2540174E-1,5.7529414E-1,2.0531645E-1,7.4048626E-1,8.023264E-1,1.160682E0,2.3928955E-1,-3.2523793E-1,-4.1543183E-1,1.1045047E0,-1.7459662E-1,2.145004E-1,-1.9948699E-2,4.06189E-1,-2.7861935E-1,1.2677734E-1,9.1434374E-2,5.913771E-1,7.39019E-1,1.7521827E-1,8.8629377E-1,4.949421E-1,-9.6687E-1,-6.8783176E-1,-3.7583545E-1,-8.4648E-1,-7.8269565E-1,-4.5115787E-1,-4.1096756E-1,-6.6881455E-2,-2.3822999E-1,1.22128166E-1,-4.7312254E-1,-1.8663895E-1,-1.8318933E-1,5.158056E-1,-3.214674E-1,1.15624346E-1,-8.4327185E-1,-1.1621053E0,-7.6648754E-1,-5.392893E-1,-8.324243E-1,6.6247606E-1,-3.5895777E-1,-9.440417E-1,-9.3620276E-1,-1.1853782E0,-6.864049E-1,-1.2686341E0,-6.314585E-1,1.403014E0,-9.876003E-1,-7.066314E-1,-6.473261E-2,5.2760303E-2,-7.419609E-2,3.543822E-2,7.0741884E-2,-6.906813E-2,5.650093E-2,7.270928E-2,-4.2333763E-2,3.923195E-2,3.994502E-2,5.704018E-2,-6.428799E-2,6.366228E-2,-5.6575965E-2,4.492103E-2,7.3775545E-2,3.7735663E-2,5.111087E-3,3.5014436E-2,1.9526249E-2,1.337745E-4,1.9225877E-2,4.2210046E-2,2.4601337E-2,-1.4535787E-2,5.038519E-2,3.278067E-2,4.443146E-2,2.0011013E-2,-1.5577534E-2,5.91848E-2,6.737146E-3,4.491743E-2,-1.8831361E-2,9.323393E-2,-3.0745957E-2,-1.1396485E-2,7.31325E-2,-5.9628066E-2,-1.5428714E-2,5.158245E-3,2.3106178E-2,-1.1782175E-3,2.9772922E-2,-8.986212E-3,1.6515307E-2,4.114163E-2,-2.6705993E-2,1.1870428E-2,-1.966165E-2,9.398449E-3,7.623686E-3,-4.31601E-2,9.905988E-3,3.6681976E-2,-2.285568E-2,4.1568205E-2,1.3248864E-2,-1.7785702E-2,2.1292439E-2,4.9232237E-2,2.8331945E-2,-2.3799323E-2,-2.3911828E-2,-5.0762516E-2,-3.5305254E-2,5.5443134E-2,-2.6194865E-2,-3.80701E-3,-2.1289872E-2,-5.4020375E-2,-2.1616757E-2,-4.8422154E-2,6.0833353E-3,-2.8044371E-2,-3.6095925E-2,-1.6050396E-2,-2.5560131E-2,3.8810472E-3,-3.0354593E-2,-5.466319E-3,-1.4501716E-2,1.3539602E-2,-1.7173274E-3,-2.6449848E-2,-1.6325595E-2,7.728249E-3,4.3163843E-2,-1.5483401E-2,1.855021E-2,4.7716852E-2,-2.024842E-2,5.988858E-3,-2.6113678E-2,1.26575595E-2,-4.2880826E-2,7.0456915E-2,6.03186E-2,-5.917544E-2,-4.0291574E-2,-1.6311556E-2,-3.683309E-2,-1.2788399E-2,-4.7192413E-2,-2.2547109E-2,1.0253455E-1,-4.4472072E-2,-2.4107782E-2,-9.208883E-3,-2.0109012E-3,-5.5503726E-2,-4.817326E-2,-3.164834E-2,3.5934966E-2,-6.0477134E-2,-3.8131136E-2,9.481739E-2,9.021192E-2,-6.386413E-2,8.732112E-2,-5.424389E-2,1.0594914E-1,-5.4586228E-2,1.5887927E-2,-5.0366767E-2,-2.6750658E-2,-4.039057E-2],"categories":[],"categories_nodes":[],"categories_segments":[],"categories_sizes":[],"default_left":[0,0,0,0,0,0,0,0,0,0,0,0,0,0,0,0,0,0,0,0,0,0,0,0,0,0,0,0,0,0,0,0,0,0,0,0,0,0,0,0,0,0,0,0,0,0,0,0,0,0,0,0,0,0,0,0,0,0,0,0,0,0,0,0,0,0,0,0,0,0,0,0,0,0,0,0,0,0,0,0,0,0,0,0,0,0,0,0,0,0,0,0,0,0,0,0,0,0,0,0,0,0,0,0,0,0,0,0,0,0,0,0,0,0,0,0,0,0,0,0,0,0,0,0,0,0,0,0,0,0,0,0,0,0,0,0,0,0,0,0,0,0,0,0,0,0,0,0,0,0,0,0,0,0,0,0,0,0,0,0,0,0,0,0,0,0,0,0,0,0,0,0,0,0,0,0,0,0,0,0,0,0,0,0,0,0,0,0,0,0,0,0,0,0,0,0,0,0,0,0,0,0,0,0,0,0,0,0,0,0,0,0,0,0,0,0,0,0,0,0,0,0,0,0,0,0,0,0,0,0,0,0,0,0,0,0,0,0,0,0,0,0,0,0,0,0,0,0,0,0,0,0,0,0,0],"id":5,"left_children":[1,3,5,7,9,11,13,15,17,19,21,23,25,27,29,31,33,35,37,39,41,43,45,47,49,51,53,55,57,59,61,63,65,67,69,71,73,75,77,79,81,83,85,87,89,91,93,95,97,99,101,103,105,107,109,111,113,115,117,119,121,123,125,127,129,131,133,135,137,139,141,143,145,147,149,151,153,155,157,159,161,163,165,167,169,171,173,175,177,179,181,183,185,187,189,191,193,195,197,199,201,203,205,207,209,211,213,215,217,219,221,223,225,227,229,231,233,235,237,239,241,243,245,247,249,251,253,-1,-1,-1,-1,-1,-1,-1,-1,-1,-1,-1,-1,-1,-1,-1,-1,-1,-1,-1,-1,-1,-1,-1,-1,-1,-1,-1,-1,-1,-1,-1,-1,-1,-1,-1,-1,-1,-1,-1,-1,-1,-1,-1,-1,-1,-1,-1,-1,-1,-1,-1,-1,-1,-1,-1,-1,-1,-1,-1,-1,-1,-1,-1,-1,-1,-1,-1,-1,-1,-1,-1,-1,-1,-1,-1,-1,-1,-1,-1,-1,-1,-1,-1,-1,-1,-1,-1,-1,-1,-1,-1,-1,-1,-1,-1,-1,-1,-1,-1,-1,-1,-1,-1,-1,-1,-1,-1,-1,-1,-1,-1,-1,-1,-1,-1,-1,-1,-1,-1,-1,-1,-1,-1,-1,-1,-1,-1,-1],"loss_changes":[2.008196E4,3.6029775E3,2.658876E3,6.527705E2,6.118198E2,6.8205457E2,2.916494E2,1.2102295E2,3.8247314E2,2.8650745E2,3.6876782E2,2.775271E2,3.1120978E2,1.576626E2,9.115625E1,4.1094482E1,8.348706E1,1.3963159E2,1.5075781E2,7.660388E1,2.5951562E2,1.2918124E2,1.882926E2,7.5302246E1,2.255304E2,2.3947256E2,2.2236607E2,1.1928833E2,8.854907E1,3.6171387E1,3.57146E1,2.2979095E1,2.9057129E1,5.4328247E1,3.399536E1,7.0069214E1,1.1929767E2,5.8002563E1,1.2688672E2,6.9502846E1,6.4846924E1,1.3136354E2,8.942905E1,6.195993E1,1.7998456E2,7.849596E1,1.0375708E2,3.5622314E1,7.711145E1,6.839087E1,2.0770535E2,9.81192E1,5.9555298E1,1.1760382E2,9.6216835E1,3.6893433E1,5.6815918E1,5.72818E1,5.2507385E1,3.5240234E1,2.0067871E1,3.9691483E1,4.9021606E1,2.2462158E1,2.1768438E1,1.3510923E1,2.235962E1,6.0640644E1,4.263086E1,2.3923584E1,4.0324852E1,5.2290405E1,3.83489E1,5.7890297E1,1.3147028E2,3.2748676E1,4.158899E1,5.8538208E1,8.2068115E1,3.262193E1,4.606356E1,5.8151123E1,2.531601E1,9.472213E1,7.763039E1,5.8486515E1,9.169336E1,6.058281E1,6.756317E1,7.764551E1,8.782855E1,3.5766846E1,5.1706596E1,8.721716E1,7.343588E1,1.742273E1,4.045587E1,5.500746E1,4.7384613E1,7.0784424E1,9.183133E1,1.0233411E2,2.1613501E2,5.835824E1,1.2030794E2,6.356891E1,4.83075E1,3.8412857E1,9.3147705E1,3.4226204E1,9.680861E1,2.4123901E1,4.131006E1,5.542993E1,9.465732E1,3.227533E1,5.9582047E1,4.914792E1,2.4708054E1,2.9675049E1,3.2765625E1,1.5233322E1,2.0560303E1,2.8391716E1,3.0433197E1,2.4671387E1,3.2226562E1,0E0,0E0,0E0,0E0,0E0,0E0,0E0,0E0,0E0,0E0,0E0,0E0,0E0,0E0,0E0,0E0,0E0,0E0,0E0,0E0,0E0,0E0,0E0,0E0,0E0,0E0,0E0,0E0,0E0,0E0,0E0,0E0,0E0,0E0,0E0,0E0,0E0,0E0,0E0,0E0,0E0,0E0,0E0,0E0,0E0,0E0,0E0,0E0,0E0,0E0,0E0,0E0,0E0,0E0,0E0,0E0,0E0,0E0,0E0,0E0,0E0,0E0,0E0,0E0,0E0,0E0,0E0,0E0,0E0,0E0,0E0,0E0,0E0,0E0,0E0,0E0,0E0,0E0,0E0,0E0,0E0,0E0,0E0,0E0,0E0,0E0,0E0,0E0,0E0,0E0,0E0,0E0,0E0,0E0,0E0,0E0,0E0,0E0,0E0,0E0,0E0,0E0,0E0,0E0,0E0,0E0,0E0,0E0,0E0,0E0,0E0,0E0,0E0,0E0,0E0,0E0,0E0,0E0,0E0,0E0,0E0,0E0,0E0,0E0,0E0,0E0,0E0,0E0],"parents":[2147483647,0,0,1,1,2,2,3,3,4,4,5,5,6,6,7,7,8,8,9,9,10,10,11,11,12,12,13,13,14,14,15,15,16,16,17,17,18,18,19,19,20,20,21,21,22,22,23,23,24,24,25,25,26,26,27,27,28,28,29,29,30,30,31,31,32,32,33,33,34,34,35,35,36,36,37,37,38,38,39,39,40,40,41,41,42,42,43,43,44,44,45,45,46,46,47,47,48,48,49,49,50,50,51,51,52,52,53,53,54,54,55,55,56,56,57,57,58,58,59,59,60,60,61,61,62,62,63,63,64,64,65,65,66,66,67,67,68,68,69,69,70,70,71,71,72,72,73,73,74,74,75,75,76,76,77,77,78,78,79,79,80,80,81,81,82,82,83,83,84,84,85,85,86,86,87,87,88,88,89,89,90,90,91,91,92,92,93,93,94,94,95,95,96,96,97,97,98,98,99,99,100,100,101,101,102,102,103,103,104,104,105,105,106,106,107,107,108,108,109,109,110,110,111,111,112,112,113,113,114,114,115,115,116,116,117,117,118,118,119,119,120,120,121,121,122,122,123,123,124,124,125,125,126,126],"right_children":[2,4,6,8,10,12,14,16,18,20,22,24,26,28,30,32,34,36,38,40,42,44,46,48,50,52,54,56,58,60,62,64,66,68,70,72,74,76,78,80,82,84,86,88,90,92,94,96,98,100,102,104,106,108,110,112,114,116,118,120,122,124,126,128,130,132,134,136,138,140,142,144,146,148,150,152,154,156,158,160,162,164,166,168,170,172,174,176,178,180,182,184,186,188,190,192,194,196,198,200,202,204,206,208,210,212,214,216,218,220,222,224,226,228,230,232,234,236,238,240,242,244,246,248,250,252,254,-1,-1,-1,-1,-1,-1,-1,-1,-1,-1,-1,-1,-1,-1,-1,-1,-1,-1,-1,-1,-1,-1,-1,-1,-1,-1,-1,-1,-1,-1,-1,-1,-1,-1,-1,-1,-1,-1,-1,-1,-1,-1,-1,-1,-1,-1,-1,-1,-1,-1,-1,-1,-1,-1,-1,-1,-1,-1,-1,-1,-1,-1,-1,-1,-1,-1,-1,-1,-1,-1,-1,-1,-1,-1,-1,-1,-1,-1,-1,-1,-1,-1,-1,-1,-1,-1,-1,-1,-1,-1,-1,-1,-1,-1,-1,-1,-1,-1,-1,-1,-1,-1,-1,-1,-1,-1,-1,-1,-1,-1,-1,-1,-1,-1,-1,-1,-1,-1,-1,-1,-1,-1,-1,-1,-1,-1,-1,-1],"split_conditions":[-2.599969E-1,-8.524003E-1,3.6676323E-1,-1.583194E0,6.66417E-2,6.666243E-2,7.010504E-1,-4.0918994E0,1.99987E-1,-5E-1,1.2862617E-1,-5E-1,1E0,4.488232E-2,1.3333677E-1,-6.048956E-1,3.9998206E-1,-1.1740627E0,-1.2536183E-1,-6.184751E-1,2.1893815E-3,-1.2536183E-1,-4.8172483E-3,3.448276E-2,-3.9395115E-1,2.9485976E-2,1E0,-1E0,0E0,1.7555261E0,-1.0161853E0,6.380983E-1,-8.6819607E-1,-7.45E-1,6.8E-2,8.8416564E-1,0E0,-7.6869726E-1,-4.1147023E-2,4.9800524E-1,2.9133167E0,1E0,-4.8919752E-1,0E0,-3.2680035E-1,-7.360661E-1,1.311824E-1,-2.457441E-1,7.109644E-1,-1.0204082E-1,-8.102903E-2,-2.3070574E-1,7.333144E-1,0E0,-1.2536183E-1,-2.0511763E-1,1.9999567E-1,2.1440647E0,5.8E-3,1.5408163E0,-9.418487E-1,-7.278028E-1,-2.2402611E-1,-4.84E-2,8.413812E-1,-6.1E-1,0E0,3.1315398E-1,7.5481737E-1,-8.7450916E-1,-1.5271828E0,-2.0564685E0,-1.5271862E-1,6.172789E-1,1E0,-1.0701395E0,-1.7019286E0,2E0,-9.8954463E-1,1E0,5.63E-2,0E0,1E0,-2.5514904E-1,1E0,-7.2416556E-1,1E0,5.435299E-1,-2.1253421E0,2.78E-2,0E0,-7.639702E-1,8.1648093E-1,-5E-1,1.2E1,0E0,6.132E-1,-2.6668262E-1,-6.501387E-1,-3.7582804E-2,1.0204081E-2,-9.025725E-1,-1.701399E-2,-5.6558645E-1,0E0,-9.090497E-1,1.9397411E-1,-7.2557217E-1,5.522715E-1,2E0,-5E-1,1E0,-6.86E1,1E0,8.540837E-2,3.046932E-1,-3.830734E-1,1.99987E-1,-2.78E-2,5.8410496E-1,-1.0830926E0,5.66E-1,-1.2822917E0,-2.941704E-1,-7.6929426E-1,-2.312E-1,4.0816326E-2,-6.473261E-2,5.2760303E-2,-7.419609E-2,3.543822E-2,7.0741884E-2,-6.906813E-2,5.650093E-2,7.270928E-2,-4.2333763E-2,3.923195E-2,3.994502E-2,5.704018E-2,-6.428799E-2,6.366228E-2,-5.6575965E-2,4.492103E-2,7.3775545E-2,3.7735663E-2,5.111087E-3,3.5014436E-2,1.9526249E-2,1.337745E-4,1.9225877E-2,4.2210046E-2,2.4601337E-2,-1.4535787E-2,5.038519E-2,3.278067E-2,4.443146E-2,2.0011013E-2,-1.5577534E-2,5.91848E-2,6.737146E-3,4.491743E-2,-1.8831361E-2,9.323393E-2,-3.0745957E-2,-1.1396485E-2,7.31325E-2,-5.9628066E-2,-1.5428714E-2,5.158245E-3,2.3106178E-2,-1.1782175E-3,2.9772922E-2,-8.986212E-3,1.6515307E-2,4.114163E-2,-2.6705993E-2,1.1870428E-2,-1.966165E-2,9.398449E-3,7.623686E-3,-4.31601E-2,9.905988E-3,3.6681976E-2,-2.285568E-2,4.1568205E-2,1.3248864E-2,-1.7785702E-2,2.1292439E-2,4.9232237E-2,2.8331945E-2,-2.3799323E-2,-2.3911828E-2,-5.0762516E-2,-3.5305254E-2,5.5443134E-2,-2.6194865E-2,-3.80701E-3,-2.1289872E-2,-5.4020375E-2,-2.1616757E-2,-4.8422154E-2,6.0833353E-3,-2.8044371E-2,-3.6095925E-2,-1.6050396E-2,-2.5560131E-2,3.8810472E-3,-3.0354593E-2,-5.466319E-3,-1.4501716E-2,1.3539602E-2,-1.7173274E-3,-2.6449848E-2,-1.6325595E-2,7.728249E-3,4.3163843E-2,-1.5483401E-2,1.855021E-2,4.7716852E-2,-2.024842E-2,5.988858E-3,-2.6113678E-2,1.26575595E-2,-4.2880826E-2,7.0456915E-2,6.03186E-2,-5.917544E-2,-4.0291574E-2,-1.6311556E-2,-3.683309E-2,-1.2788399E-2,-4.7192413E-2,-2.2547109E-2,1.0253455E-1,-4.4472072E-2,-2.4107782E-2,-9.208883E-3,-2.0109012E-3,-5.5503726E-2,-4.817326E-2,-3.164834E-2,3.5934966E-2,-6.0477134E-2,-3.8131136E-2,9.481739E-2,9.021192E-2,-6.386413E-2,8.732112E-2,-5.424389E-2,1.0594914E-1,-5.4586228E-2,1.5887927E-2,-5.0366767E-2,-2.6750658E-2,-4.039057E-2],"split_indices":[118,118,118,118,111,111,118,119,111,12,17,12,2,17,111,7,111,118,109,118,17,109,40,17,19,118,3,12,82,109,8,15,109,6,46,16,40,109,40,16,115,2,80,40,7,118,117,108,16,9,16,16,111,40,109,16,111,109,69,9,117,7,108,43,16,6,82,108,120,109,41,41,40,16,2,118,41,45,16,77,69,11,32,41,3,118,77,108,17,53,40,109,16,12,59,13,48,111,120,118,9,17,40,80,12,120,8,15,17,76,12,93,59,14,8,108,15,111,43,80,16,48,41,41,16,46,9,0,0,0,0,0,0,0,0,0,0,0,0,0,0,0,0,0,0,0,0,0,0,0,0,0,0,0,0,0,0,0,0,0,0,0,0,0,0,0,0,0,0,0,0,0,0,0,0,0,0,0,0,0,0,0,0,0,0,0,0,0,0,0,0,0,0,0,0,0,0,0,0,0,0,0,0,0,0,0,0,0,0,0,0,0,0,0,0,0,0,0,0,0,0,0,0,0,0,0,0,0,0,0,0,0,0,0,0,0,0,0,0,0,0,0,0,0,0,0,0,0,0,0,0,0,0,0,0],"split_type":[0,0,0,0,0,0,0,0,0,0,0,0,0,0,0,0,0,0,0,0,0,0,0,0,0,0,0,0,0,0,0,0,0,0,0,0,0,0,0,0,0,0,0,0,0,0,0,0,0,0,0,0,0,0,0,0,0,0,0,0,0,0,0,0,0,0,0,0,0,0,0,0,0,0,0,0,0,0,0,0,0,0,0,0,0,0,0,0,0,0,0,0,0,0,0,0,0,0,0,0,0,0,0,0,0,0,0,0,0,0,0,0,0,0,0,0,0,0,0,0,0,0,0,0,0,0,0,0,0,0,0,0,0,0,0,0,0,0,0,0,0,0,0,0,0,0,0,0,0,0,0,0,0,0,0,0,0,0,0,0,0,0,0,0,0,0,0,0,0,0,0,0,0,0,0,0,0,0,0,0,0,0,0,0,0,0,0,0,0,0,0,0,0,0,0,0,0,0,0,0,0,0,0,0,0,0,0,0,0,0,0,0,0,0,0,0,0,0,0,0,0,0,0,0,0,0,0,0,0,0,0,0,0,0,0,0,0,0,0,0,0,0,0,0,0,0,0,0,0,0,0,0,0,0,0],"sum_hessian":[7.939455E4,3.7927766E4,4.146678E4,1.8242834E4,1.968493E4,2.3848975E4,1.7617807E4,4.780282E3,1.3462552E4,9.821064E3,9.863866E3,1.3270938E4,1.0578035E4,9.645825E3,7.971981E3,1.9068955E3,2.8733867E3,7.266021E3,6.1965303E3,2.4613464E3,7.359718E3,5.4782183E3,4.385648E3,3.688647E3,9.582291E3,6.7917373E3,3.786298E3,6.40213E3,3.2436958E3,5.1096E3,2.8623809E3,1.9027788E2,1.7166176E3,1.7186605E3,1.1547263E3,3.1248687E3,4.1411523E3,2.0901655E3,4.1063647E3,8.7628253E2,1.5850638E3,3.859184E3,3.500534E3,2.5774875E3,2.9007305E3,1.401387E3,2.984261E3,1.9639185E3,1.7247285E3,2.5520085E3,7.0302827E3,3.1889307E3,3.6028066E3,1.7586744E3,2.0276237E3,1.4939714E3,4.908158E3,7.941293E2,2.4495664E3,4.3546304E3,7.5497E2,3.8319035E1,2.8240618E3,1.7360155E2,1.6676329E1,6.528139E0,1.7100895E3,9.292837E1,1.625732E3,1.1013798E3,5.3346504E1,2.6842388E3,4.4062976E2,1.573106E3,2.5680466E3,2.2826599E2,1.8618995E3,1.6960872E3,2.4102776E3,4.7420798E2,4.0207452E2,1.5574116E3,2.765223E1,2.5434912E3,1.3156927E3,5.927279E2,2.907806E3,4.5753702E2,2.1199504E3,1.329245E3,1.5714856E3,3.193674E2,1.0820197E3,1.9342112E3,1.0500498E3,7.565381E2,1.2073802E3,1.239548E3,4.8518045E2,1.0931096E3,1.4588989E3,3.6655994E3,3.3646833E3,1.2277601E3,1.9611707E3,2.5926628E3,1.0101437E3,2.872047E2,1.4714697E3,9.2662317E2,1.1010005E3,7.082364E2,7.8573505E2,3.2142527E3,1.6939059E3,7.683199E2,2.5809416E1,2.2856194E3,1.6394707E2,3.6623972E3,6.9223303E2,6.903805E1,6.8593195E2,2.3575808E1,1.4743228E1,9.4426984E2,1.879792E3,3.3569944E0,1.7024455E2,6.765896E0,9.910433E0,1.5141754E0,5.0139637E0,2.749771E2,1.4351123E3,3.702552E1,5.5902847E1,1.0515732E3,5.741589E2,2.9114137E0,1.0984684E3,1.1784898E1,4.1561604E1,1.0501023E2,2.5792285E3,2.5734158E2,1.8328821E2,9.029383E2,6.701676E2,1.5036841E3,1.0643625E3,1.446597E2,8.360629E1,4.4619785E2,1.4157018E3,1.3953892E3,3.0069794E2,3.6904823E1,2.3733728E3,4.1032288E2,6.3885128E1,3.9366467E2,8.409841E0,7.5348456E2,8.039271E2,2.4236645E1,3.4155836E0,1.7157784E3,8.2771295E2,6.4443854E2,6.712542E2,1.2160713E2,4.7112076E2,2.4613208E3,4.464851E2,3.059949E2,1.515421E2,2.2262692E2,1.8973236E3,1.2501508E3,7.909423E1,4.1810556E2,1.15338E3,2.2605938E1,2.9676144E2,9.2597577E2,1.5604384E2,3.413691E2,1.5928422E3,9.782302E2,7.181958E1,6.913813E1,6.8739996E2,1.1958252E3,1.1555128E1,8.2916046E2,4.1038757E2,1.7438896E2,3.1079147E2,3.7988687E2,7.132228E2,2.3451967E2,1.2243793E3,8.209412E2,2.844658E3,8.250997E2,2.5395837E3,3.169857E2,9.107744E2,5.196151E2,1.4415555E3,2.9304288E2,2.29962E3,7.164753E2,2.9366837E2,3.0341133E1,2.568636E2,1.1075929E3,3.6387683E2,7.792418E2,1.4738135E2,1.9477374E2,9.062268E2,7.043698E2,3.8665788E0,6.541089E0,7.79194E2,2.9498098E3,2.6444278E2,9.9773663E2,6.9616925E2,5.934963E2,1.7482356E2,1.3453581E1,1.2355835E1,1.3396072E3,9.460122E2,2.5636E1,1.3831107E2,3.3582925E3,3.041047E2,8.31477E0,6.839183E2,6.774364E1,1.2944118E0,1.3424152E0,6.8458954E2,3.3188713E0,2.0256937E1,1.1572606E1,3.1706214E0,1.3838378E1,9.3043146E2,6.9954065E2,1.1802513E3],"tree_param":{"num_deleted":"0","num_feature":"125","num_nodes":"255","size_leaf_vector":"1"}},{"base_weights":[-1.23440875E-2,3.1891125E-1,-5.084515E-1,8.1957483E-1,1.6938661E-1,-2.4266097E-1,-6.8253404E-1,1.1519071E0,6.8612874E-1,3.8956395E-1,-2.6462195E-2,-1.7707817E-1,-6.7241424E-1,-5.2807266E-1,-8.0681187E-1,1.3048873E0,1.0268031E0,7.210606E-1,-3.9389683E-3,9.431032E-1,3.1877938E-1,4.39179E-1,-1.0499348E-1,-2.8743234E-1,1.388596E-2,-6.8908036E-1,1.7678773E0,9.883585E-2,-5.6485367E-1,-8.478867E-1,-4.2553172E-1,8.997616E-1,1.3562502E0,1.1132247E0,6.627935E-1,7.708844E-1,3.2943305E-1,-4.9323776E-1,3.376518E-1,7.1385694E-1,1.1682141E0,7.592043E-1,2.2254914E-1,5.63765E-1,8.499836E-2,4.418755E-1,-1.7562036E-1,6.296258E-1,-3.1010735E-1,1.19727276E-1,-3.1213084E-1,-1.0879164E0,-6.033415E-1,1.1667825E-1,-5.05004E-2,3.1889915E-1,-3.411233E-1,-3.75054E-1,-6.628469E-1,-8.911017E-1,-6.359052E-1,-5.221486E-1,2.9149503E-1,-7.246091E-2,9.717086E-1,-6.2045302E-2,1.3623652E0,2.2214417E-1,1.1481442E0,-1.0611999E-1,7.940884E-1,5.015519E-1,8.438189E-1,-8.034264E-1,3.713612E-1,-6.345049E-1,1.6169505E0,-3.4266436E-1,6.0718817E-1,-2.9538077E-1,7.6225984E-1,1.2415563E0,4.235201E-1,8.486544E-1,3.615581E-1,3.7451E-1,4.9716584E-2,8.078702E-1,3.8477275E-1,3.018934E-2,1.3654768E0,6.16246E-1,-4.173798E-2,-5.734254E-2,-3.5471818E-1,9.504516E-1,-7.380016E-2,3.110982E-1,-3.4248665E-1,-1.4145465E-1,2.8909308E-1,2.166281E-1,-4.026588E-1,-1.1817456E0,1.0883969E0,-6.5847516E-1,1.6609561E-1,5.5731606E-1,-2.3114914E-1,-9.510473E-1,2.1471511E-1,-7.219403E-1,-3.037426E-1,-9.0238094E-1,-5.9718597E-1,-9.1124356E-1,-6.295125E-1,-5.4452705E-1,-1.0802575E0,-3.1490827E-1,-7.48172E-1,5.286504E-1,-1.0584803E0,5.1814474E-2,-6.825655E-2,7.49735E-2,6.174332E-2,3.194982E-2,-5.7820845E-2,4.4414278E-2,6.213658E-2,-7.817446E-2,1.13082575E-2,7.714871E-2,3.286016E-2,5.769294E-2,2.1649983E-2,4.868608E-2,3.387996E-2,3.2762736E-2,-6.6234864E-2,2.2869593E-2,-6.501268E-3,9.716016E-2,-3.5042014E-2,-4.4310752E-2,1.0264788E-1,4.4142462E-2,-2.8270168E-2,-3.0232294E-2,3.857545E-2,-6.2292952E-2,1.5958069E-2,1.4564315E-2,4.30666E-2,1.2590364E-2,6.458741E-2,3.6723178E-2,-5.932051E-2,1.8002624E-2,4.647037E-2,2.074655E-2,-7.5467564E-2,2.5498156E-2,1.3164065E-3,-5.8540474E-3,1.0674121E-2,-7.602781E-3,4.2793717E-2,2.2737691E-2,-1.9996952E-2,-4.6676556E-3,2.4530638E-2,-5.2527525E-2,7.9161E-2,4.545293E-2,2.2909066E-2,-2.164431E-2,1.5303098E-2,-2.2414638E-2,6.7450677E-4,-2.224742E-2,-3.4503795E-3,5.7715755E-2,-3.0257795E-2,-2.5818015E-2,6.435634E-2,-1.3898328E-2,2.6786476E-2,-1.5498345E-2,-4.5610752E-2,2.6271794E-2,-1.3091288E-2,2.4706228E-2,4.875435E-3,-2.1631736E-2,3.2927603E-2,-2.5301982E-2,6.8501816E-3,2.3147592E-2,-6.1028678E-2,-5.368176E-2,9.0994105E-2,-3.5208102E-2,-6.724812E-3,-2.6105745E-2,4.5320224E-2,-3.7356164E-2,3.340132E-2,4.788296E-2,-2.516599E-2,7.349103E-2,-5.8342487E-2,-7.0734896E-2,2.2517432E-2,-5.503842E-3,-4.1247398E-2,-8.989332E-3,-2.7139822E-2,-4.5954883E-2,3.7797097E-2,-2.2254823E-2,-3.3455618E-2,-4.293303E-2,-5.1233936E-2,-5.1573247E-2,-2.5443723E-2,-1.3046655E-2,-3.729363E-2,-5.9694815E-2,3.9593624E-3,-2.0361922E-3,-3.8506012E-2,1.611097E-2,-4.1491907E-2,-4.7197293E-2,3.815239E-2,-6.9069445E-2,7.6080136E-2],"categories":[],"categories_nodes":[],"categories_segments":[],"categories_sizes":[],"default_left":[0,0,0,0,0,0,0,0,0,0,0,0,0,0,0,0,0,0,0,0,0,0,0,0,0,0,0,0,0,0,0,0,0,0,0,0,0,0,0,0,0,0,0,0,0,0,0,0,0,0,0,0,0,0,0,0,0,0,0,0,0,0,0,0,0,0,0,0,0,0,0,0,0,0,0,0,0,0,0,0,0,0,0,0,0,0,0,0,0,0,0,0,0,0,0,0,0,0,0,0,0,0,0,0,0,0,0,0,0,0,0,0,0,0,0,0,0,0,0,0,0,0,0,0,0,0,0,0,0,0,0,0,0,0,0,0,0,0,0,0,0,0,0,0,0,0,0,0,0,0,0,0,0,0,0,0,0,0,0,0,0,0,0,0,0,0,0,0,0,0,0,0,0,0,0,0,0,0,0,0,0,0,0,0,0,0,0,0,0,0,0,0,0,0,0,0,0,0,0,0,0,0,0,0,0,0,0,0,0,0,0,0,0,0,0,0,0,0,0,0,0,0,0,0,0,0,0,0,0,0,0,0,0,0,0,0,0,0,0],"id":6,